    0.113223060132369602E+01   -0.173440419687441039E+01   -0.256699400760302378E+05
    0.112182086168725981E+01   -0.471749099010547290E+00   -0.256686286027101451E+05
    0.113563862235843738E+01   -0.138077544592866652E+01   -0.256686015280715837E+05
    0.113280947307101520E+01   -0.159470734965086969E+01   -0.256685282043702100E+05
    0.113232363352481569E+01   -0.700056547208488755E+00   -0.256684382112581116E+05
    0.113409764153842474E+01   -0.165797144464515367E+01   -0.256683465061289389E+05
    0.112216361943466580E+01   -0.577791663275867284E+00   -0.256680359840221900E+05
    0.112241170491449083E+01   -0.597540627584637773E+00   -0.256679809954951961E+05
    0.113381966030172787E+01   -0.152595894913880215E+01   -0.256677521412916722E+05
    0.112861692583146844E+01   -0.105205666537413434E+01   -0.256676072025877329E+05
    0.112249455653207786E+01   -0.512084540767019814E+00   -0.256669949628083232E+05
    0.112240641050899326E+01   -0.524329851466112107E+00   -0.256669921520524476E+05
    0.113040619463984671E+01   -0.633854987804858272E+00   -0.256668898663166219E+05
    0.112864523622324864E+01   -0.102274005784769551E+01   -0.256668430093138413E+05
    0.113401587458898589E+01   -0.134178669786516869E+01   -0.256668347506347600E+05
    0.113168389196595243E+01   -0.698920820462974435E+00   -0.256667850428051497E+05
    0.113412772476244594E+01   -0.131657973075928170E+01   -0.256667737187915409E+05
    0.113454438560870408E+01   -0.120788750955047330E+01   -0.256667633092483775E+05
    0.113274470248252168E+01   -0.133798088015068517E+01   -0.256667081769368378E+05
    0.113408727075328253E+01   -0.937067185719461904E+00   -0.256666795991254112E+05
    0.113393890793898411E+01   -0.129447541591838089E+01   -0.256665490364746511E+05
    0.113325855428339795E+01   -0.131350220279323349E+01   -0.256664484142987858E+05
    0.113103844028711142E+01   -0.119997108181165779E+01   -0.256664480011856358E+05
    0.113350878514544506E+01   -0.863446784085016850E+00   -0.256664344854805640E+05
    0.113437660927402861E+01   -0.109081013677248295E+01   -0.256664210183075229E+05
    0.113005495392500910E+01   -0.627974360911453422E+00   -0.256664207049505712E+05
    0.113275497121541191E+01   -0.130373699161808609E+01   -0.256664206980651688E+05
    0.112513476296300574E+01   -0.749403907296593008E+00   -0.256664107180381579E+05
    0.112322209524313799E+01   -0.607254569394777732E+00   -0.256664076117589138E+05
    0.113427731082025218E+01   -0.118089570837484947E+01   -0.256663784220862981E+05
    0.113321986775700401E+01   -0.129400690633064253E+01   -0.256663078365759793E+05
    0.112412229710658007E+01   -0.673747235122781563E+00   -0.256662670145306547E+05
    0.112915189264305349E+01   -0.103759027280847516E+01   -0.256662552562454657E+05
    0.112532468817941922E+01   -0.512713968976201029E+00   -0.256662487634579629E+05
    0.113345469738176741E+01   -0.871148844915864196E+00   -0.256661871699916046E+05
    0.113308972571983535E+01   -0.127400426049576265E+01   -0.256661530295853190E+05
    0.112627580908425884E+01   -0.820756314004006171E+00   -0.256661493253512745E+05
    0.113107732552583951E+01   -0.117972890460613766E+01   -0.256661272238351012E+05
    0.112720120344570729E+01   -0.546881439961722116E+00   -0.256660860931968127E+05
    0.112639508820601453E+01   -0.531797429520477261E+00   -0.256660347959187748E+05
    0.112688736675284407E+01   -0.858768928542051890E+00   -0.256659945570297787E+05
    0.113354496446945152E+01   -0.123152657616209904E+01   -0.256659940977565821E+05
    0.113137764431863452E+01   -0.118324274748133629E+01   -0.256659021449946049E+05
    0.112573737036092769E+01   -0.774754481236360482E+00   -0.256658716919130893E+05
    0.112322646457687636E+01   -0.560436262659227191E+00   -0.256657914559660094E+05
    0.113095336598310547E+01   -0.114324341658397799E+01   -0.256657362629305353E+05
    0.113296126853028278E+01   -0.121933287111486366E+01   -0.256657300376436833E+05
    0.113354251919370075E+01   -0.117492550290963349E+01   -0.256656833230205266E+05
    0.113085129859387656E+01   -0.113203276588841062E+01   -0.256656726739105543E+05
    0.112352155615003291E+01   -0.598203273661130908E+00   -0.256656699421019584E+05
    0.112332823189018560E+01   -0.552754975884041544E+00   -0.256656572038434060E+05
    0.112679970801411322E+01   -0.838992950892263556E+00   -0.256655901125015262E+05
    0.112350404087035471E+01   -0.538152435912060856E+00   -0.256655857662980598E+05
    0.112963834295101728E+01   -0.628223633464459530E+00   -0.256655617057415075E+05
    0.113353834843273260E+01   -0.114926306461502525E+01   -0.256655577608659296E+05
    0.112355192931092684E+01   -0.593180636492779634E+00   -0.256655483826410273E+05
    0.113373862808906223E+01   -0.107752553975182974E+01   -0.256655362288360011E+05
    0.113372802704324904E+01   -0.101942914105840421E+01   -0.256655310180238193E+05
    0.112901796403092902E+01   -0.994017973068066274E+00   -0.256655306035864232E+05
    0.112693462193667049E+01   -0.845634491828301638E+00   -0.256655114530707579E+05
    0.112685034826495079E+01   -0.839256223234721377E+00   -0.256654957228484818E+05
    0.112833887380772957E+01   -0.585798635689181779E+00   -0.256654947961310863E+05
    0.113090224255970062E+01   -0.112277367294222152E+01   -0.256654908409524978E+05
    0.112497235179323773E+01   -0.708495000259781849E+00   -0.256654690491085494E+05
    0.113355626479954630E+01   -0.112107046752140649E+01   -0.256654569339131012E+05
    0.112870417139179047E+01   -0.966990370962852452E+00   -0.256654297743584139E+05
    0.113259158416965411E+01   -0.118189177523911249E+01   -0.256654029602240007E+05
    0.113223888564630659E+01   -0.117642568726220453E+01   -0.256653877914395489E+05
    0.112746043341265123E+01   -0.564762874891979294E+00   -0.256653855147818867E+05
    0.113337802349374828E+01   -0.931332306470348481E+00   -0.256653565749718509E+05
    0.113268834018467945E+01   -0.117068065749161443E+01   -0.256653166666081233E+05
    0.113230623959450805E+01   -0.116999786044663345E+01   -0.256653149301380981E+05
    0.112379313901066968E+01   -0.541276000303485105E+00   -0.256652963318470283E+05
    0.112384851144358278E+01   -0.608537835488267120E+00   -0.256652689232015146E+05
    0.113074637519055265E+01   -0.109751685989209502E+01   -0.256652631940135652E+05
    0.113169047223323105E+01   -0.114694810825072002E+01   -0.256652620253333007E+05
    0.113169001378510892E+01   -0.114545331947007489E+01   -0.256652451361288258E+05
    0.113261178983444388E+01   -0.823702132312466473E+00   -0.256652447112292575E+05
    0.113260760949911798E+01   -0.823967770763080809E+00   -0.256652318662679354E+05
    0.112974550495167847E+01   -0.639960914900119748E+00   -0.256652120366940180E+05
    0.113341313149544609E+01   -0.107801192190600403E+01   -0.256651838587339371E+05
    0.113272096713306825E+01   -0.115251995521206685E+01   -0.256651797578795813E+05
    0.113112574960836865E+01   -0.111309777185732517E+01   -0.256651761509076568E+05
    0.112812084200502527E+01   -0.913491599166929458E+00   -0.256651312379590272E+05
    0.112947212076188119E+01   -0.100625178259573467E+01   -0.256651272959599046E+05
    0.113342369295393341E+01   -0.103001202787748758E+01   -0.256651172849012582E+05
    0.113175779457215775E+01   -0.113661670058387898E+01   -0.256651169713838863E+05
    0.113338620384681565E+01   -0.105693238656536503E+01   -0.256651067410292417E+05
    0.113188008335094104E+01   -0.113876651401605677E+01   -0.256650980693087768E+05
    0.112451757407611419E+01   -0.660480083414852981E+00   -0.256650955317525950E+05
    0.112785420571285933E+01   -0.892842742761062569E+00   -0.256650736183936096E+05
    0.113320233112036917E+01   -0.109492029932924040E+01   -0.256650609936878427E+05
    0.113040674561558330E+01   -0.106267214602842830E+01   -0.256650474235108304E+05
    0.113326803802056642E+01   -0.107684040855350283E+01   -0.256650455679477927E+05
    0.112807505286506071E+01   -0.587513074502394650E+00   -0.256650163332516058E+05
    0.112887397953567747E+01   -0.959964717043947591E+00   -0.256650122313001775E+05
    0.113148914390485977E+01   -0.111703406679088246E+01   -0.256650082361244094E+05
    0.112657108376832271E+01   -0.801636873973283093E+00   -0.256649695069495865E+05
    0.112777374546318576E+01   -0.882794296815293533E+00   -0.256649590367787423E+05
    0.113265842021712348E+01   -0.848004742533113198E+00   -0.256649510797095390E+05
    0.112810140358145228E+01   -0.903683996728925187E+00   -0.256649259217836734E+05
    0.113180474183821200E+01   -0.112036490497199503E+01   -0.256649241286112447E+05
    0.113283661255709767E+01   -0.110903751834435749E+01   -0.256649139099491404E+05
    0.112608575508279385E+01   -0.548095647448478829E+00   -0.256649119799313667E+05
    0.112595110668802478E+01   -0.546477897691330261E+00   -0.256649053466453370E+05
    0.112694183798552672E+01   -0.823474258936549575E+00   -0.256648803930531249E+05
    0.113105975370449574E+01   -0.714403000938985899E+00   -0.256648623257294348E+05
    0.113276154370873261E+01   -0.870605361217943186E+00   -0.256648529101397253E+05
    0.113064390723408836E+01   -0.690947019394942963E+00   -0.256648526171448502E+05
    0.113111780921380989E+01   -0.108734983105187011E+01   -0.256648405638361837E+05
    0.112425014464960826E+01   -0.622779734709000055E+00   -0.256648300467401095E+05
    0.112978118371426373E+01   -0.101060177736283752E+01   -0.256648283334324042E+05
    0.113250112399123326E+01   -0.111200763477365272E+01   -0.256648223599587836E+05
    0.113120354019804070E+01   -0.724758854108526585E+00   -0.256648217052342807E+05
    0.112567828996288277E+01   -0.735102009711873228E+00   -0.256648204481990506E+05
    0.113137262678445705E+01   -0.736949882489088992E+00   -0.256647951972789961E+05
    0.113276247519672246E+01   -0.876567108991685107E+00   -0.256647915405116546E+05
    0.112526069906211879E+01   -0.703205473478133003E+00   -0.256647629222031537E+05
    0.112495392306167341E+01   -0.545485099480468527E+00   -0.256647045936841569E+05
    0.113304439461179518E+01   -0.101077978477485275E+01   -0.256646758581393187E+05
    0.112483532689910737E+01   -0.666815306373724992E+00   -0.256646695081067119E+05
    0.112420380164767497E+01   -0.601710792466739974E+00   -0.256646589113068512E+05
    0.113143947654567256E+01   -0.746988573168314796E+00   -0.256646561846887780E+05
    0.113176066733052894E+01   -0.109382429577064433E+01   -0.256646544298107619E+05
    0.113073064603519136E+01   -0.105428846477456517E+01   -0.256646465260124169E+05
    0.113080161542279889E+01   -0.105705206629944870E+01   -0.256646356563505688E+05
    0.113097164526725047E+01   -0.106435895394337732E+01   -0.256646256898221363E+05
    0.113186854334340881E+01   -0.783058936630513180E+00   -0.256646201686275235E+05
    0.113055646207435201E+01   -0.104278937398532023E+01   -0.256646101774873896E+05
    0.113144408995561330E+01   -0.107787361657000935E+01   -0.256645677670030345E+05
    0.113294868211366317E+01   -0.973906010985025272E+00   -0.256645638418459821E+05
    0.113166589402984785E+01   -0.108306763761249458E+01   -0.256645616589156416E+05
    0.112564490723142985E+01   -0.722693766564070028E+00   -0.256645592598355724E+05
    0.113252771739080327E+01   -0.862766211425232132E+00   -0.256645502371840848E+05
    0.112680599156292605E+01   -0.801801975189536886E+00   -0.256645495007664504E+05
    0.112521109965685229E+01   -0.690538180726783413E+00   -0.256645467642491894E+05
    0.112869358921386320E+01   -0.926075608049518051E+00   -0.256645417350861280E+05
    0.112560595748431869E+01   -0.718683886059101162E+00   -0.256645285032260836E+05
    0.112925612404402953E+01   -0.636815175320454063E+00   -0.256645238446030598E+05
    0.113173357619135739E+01   -0.107989067560199703E+01   -0.256645154655478800E+05
    0.113224567342607507E+01   -0.827987586975083012E+00   -0.256645127107618428E+05
    0.113217164592883535E+01   -0.108034993973636984E+01   -0.256645120770847570E+05
    0.113202381235294292E+01   -0.108140617844049469E+01   -0.256645098789775220E+05
    0.113088680302672584E+01   -0.716040893745264029E+00   -0.256644987072916192E+05
    0.112442597748311712E+01   -0.565659968603603458E+00   -0.256644910106399984E+05
    0.113283056144585936E+01   -0.101950314384334062E+01   -0.256644888912982060E+05
    0.113129987010160171E+01   -0.106634331017638284E+01   -0.256644867788757911E+05
    0.113246510128014144E+01   -0.106482321486471898E+01   -0.256644736452306861E+05
    0.113042555522997290E+01   -0.690746807727592671E+00   -0.256644709882581301E+05
    0.113159163517835815E+01   -0.766906046876451031E+00   -0.256644653941552606E+05
    0.112793403928609415E+01   -0.872715249904310264E+00   -0.256644554754879427E+05
    0.112550267016845273E+01   -0.707530894457461423E+00   -0.256644392631780574E+05
    0.112783857431716728E+01   -0.593612922586298719E+00   -0.256644342667251731E+05
    0.113031256237521571E+01   -0.101732096975302388E+01   -0.256644202912549699E+05
    0.112903111287103952E+01   -0.941255190722216639E+00   -0.256644105759163103E+05
    0.112793827210506326E+01   -0.870707872530414484E+00   -0.256644023414863368E+05
    0.113001587608876619E+01   -0.672593110572872188E+00   -0.256643925902899864E+05
    0.112597743725531618E+01   -0.739294320495502921E+00   -0.256643911781017305E+05
    0.112515394284377956E+01   -0.678796659088696686E+00   -0.256643865827753762E+05
    0.113035639195975346E+01   -0.101676224056435816E+01   -0.256643765777281005E+05
    0.112788625290741340E+01   -0.866108281220451692E+00   -0.256643742970345957E+05
    0.112475527530687636E+01   -0.642511549287386963E+00   -0.256643527258082868E+05
    0.112443161822982773E+01   -0.585060597482053968E+00   -0.256643506047393312E+05
    0.112646722351230588E+01   -0.771153037079090220E+00   -0.256643489236352216E+05
    0.112562020654283312E+01   -0.557812161143168783E+00   -0.256643467519833721E+05
    0.112749299954522408E+01   -0.587410626435469707E+00   -0.256643301515342755E+05
    0.113229130819343693E+01   -0.848525351857397192E+00   -0.256643300691134609E+05
    0.112631066414858516E+01   -0.759642752733582505E+00   -0.256643269693718430E+05
    0.113009869085828285E+01   -0.999543277748205172E+00   -0.256643215758304868E+05
    0.113201591219328090E+01   -0.105917411162092523E+01   -0.256643158798837794E+05
    0.112941413207631314E+01   -0.959761743315522553E+00   -0.256643140314454067E+05
    0.113003844568773548E+01   -0.994719847904925958E+00   -0.256642967808325993E+05
    0.112462792998305527E+01   -0.622911723462285849E+00   -0.256642818994188747E+05
    0.113179446292844599E+01   -0.105638275646954138E+01   -0.256642797015461038E+05
    0.113242499749854364E+01   -0.875447377596683562E+00   -0.256642770556633041E+05
    0.112943922153429455E+01   -0.958620557730352596E+00   -0.256642657200064896E+05
    0.112470048372131703E+01   -0.630166549735641235E+00   -0.256642638255600323E+05
    0.112834262069707680E+01   -0.890435088896798899E+00   -0.256642597625149538E+05
    0.113224072361211281E+01   -0.848501108254344771E+00   -0.256642528130903374E+05
    0.112875277710764577E+01   -0.625756341881441358E+00   -0.256642405041593702E+05
    0.112468543794546072E+01   -0.572751368488281676E+00   -0.256642324366586290E+05
    0.113087916486451778E+01   -0.103039397252044140E+01   -0.256642303405603852E+05
    0.112872021459686334E+01   -0.912669563360387404E+00   -0.256642261897142234E+05
    0.113257123374850233E+01   -0.920621766912630646E+00   -0.256642200204429573E+05
    0.112460049410377483E+01   -0.582121732546746484E+00   -0.256642113956754365E+05
    0.112814099693385339E+01   -0.875315316409423616E+00   -0.256642104315552897E+05
    0.112875330887568115E+01   -0.626669925361990066E+00   -0.256642055607607435E+05
    0.113088305841114645E+01   -0.726850816495339780E+00   -0.256641998258625426E+05
    0.112931901934204415E+01   -0.947219066955557798E+00   -0.256641875148905820E+05
    0.113127088262388487E+01   -0.103881623027548509E+01   -0.256641776767365518E+05
    0.112537992985822477E+01   -0.563103495758253914E+00   -0.256641750182436808E+05
    0.113240109693644619E+01   -0.101802079577408833E+01   -0.256641747877750058E+05
    0.112870200246135077E+01   -0.908936982334418442E+00   -0.256641731219642497E+05
    0.112933018968117471E+01   -0.946980426227306049E+00   -0.256641709536724338E+05
    0.112462259286013122E+01   -0.601697921091492782E+00   -0.256641543810787007E+05
    0.113217456736936350E+01   -0.848964336581416346E+00   -0.256641493567573052E+05
    0.113206868856184739E+01   -0.835394532527113487E+00   -0.256641375913072043E+05
    0.113138244441431413E+01   -0.103666244616256087E+01   -0.256641271511226259E+05
    0.112558931431984366E+01   -0.564901104263448195E+00   -0.256641261106108068E+05
    0.113224937555700622E+01   -0.102248971883335438E+01   -0.256641203044177491E+05
    0.113020415327795298E+01   -0.992128905298003128E+00   -0.256641200967044497E+05
    0.113222336657514289E+01   -0.859691248533582364E+00   -0.256641193372556809E+05
    0.112994689699923256E+01   -0.677754286299703912E+00   -0.256641128346868718E+05
    0.113175963236542065E+01   -0.103737130363301122E+01   -0.256641062208758049E+05
    0.113238314350114821E+01   -0.892911787511330157E+00   -0.256641035432958961E+05
    0.113238314350114821E+01   -0.892911787511330157E+00   -0.256641035432958961E+05
    0.112712412234001524E+01   -0.585153483201971136E+00   -0.256640925498304787E+05
    0.112767933568603373E+01   -0.597870885331032387E+00   -0.256640894481668474E+05
    0.112502508021801972E+01   -0.571971785914840325E+00   -0.256640654468774810E+05
    0.113234679285782036E+01   -0.999206538023577950E+00   -0.256640579780988701E+05
    0.112473425723544418E+01   -0.593811720385382769E+00   -0.256640462878524777E+05
    0.112560429742382029E+01   -0.697135359750131522E+00   -0.256640462534044855E+05
    0.112535081208012455E+01   -0.568511260887905268E+00   -0.256640438908636133E+05
    0.112666941183776714E+01   -0.578950953571370164E+00   -0.256640142600866056E+05
    0.112822095429390545E+01   -0.870763842077161954E+00   -0.256640027039064371E+05
    0.112811582610329664E+01   -0.612247690084281482E+00   -0.256639885120280014E+05
    0.112811582610329664E+01   -0.612247690084281482E+00   -0.256639885120280014E+05
    0.113142733733038625E+01   -0.778577330568620773E+00   -0.256639709787594547E+05
    0.113208499230060822E+01   -0.855143202031478866E+00   -0.256639656954851598E+05
    0.113022845714329678E+01   -0.697148555490114674E+00   -0.256639609984593444E+05
    0.112997376132975180E+01   -0.970184563081685436E+00   -0.256639606671186157E+05
    0.113234679959638784E+01   -0.963662337899671595E+00   -0.256639535751629701E+05
    0.112541620348928184E+01   -0.572482802068340568E+00   -0.256639442915624750E+05
    0.113087108022181404E+01   -0.100733503140060554E+01   -0.256639437680769515E+05
    0.112489310060228087E+01   -0.588806521617376122E+00   -0.256639417664661523E+05
    0.113228506602498014E+01   -0.902231170966145468E+00   -0.256639403921001285E+05
    0.113201578983938278E+01   -0.100844895399295442E+01   -0.256639394074271913E+05
    0.113081460449445625E+01   -0.733842994545206961E+00   -0.256639224846934994E+05
    0.112775740652763234E+01   -0.604281320663134336E+00   -0.256639209605492251E+05
    0.112856493567716809E+01   -0.887708106544514930E+00   -0.256639144960013000E+05
    0.112595011192135175E+01   -0.716401001165478224E+00   -0.256639136286778266E+05
    0.113226702414034541E+01   -0.972639046410758601E+00   -0.256639114646341586E+05
    0.113226702414034541E+01   -0.972639046410758601E+00   -0.256639114646341586E+05
    0.112636741983902500E+01   -0.745756199966105982E+00   -0.256639102672268382E+05
    0.113188002699536749E+01   -0.831263984439529091E+00   -0.256639093280252237E+05
    0.113188002699536749E+01   -0.831263984439529091E+00   -0.256639093280252237E+05
    0.112557835896613323E+01   -0.573279774448192558E+00   -0.256639077566402666E+05
    0.112660065012524102E+01   -0.761197916372686301E+00   -0.256638994805888651E+05
    0.112998340704983846E+01   -0.966327739511413819E+00   -0.256638933788663162E+05
    0.112998340704983846E+01   -0.966327739511413819E+00   -0.256638933788663162E+05
    0.113185761070826318E+01   -0.829848391785201089E+00   -0.256638930405324645E+05
    0.113185761070826318E+01   -0.829848391785201089E+00   -0.256638930405324645E+05
    0.112778460781599899E+01   -0.838147224939903790E+00   -0.256638921302646595E+05
    0.112745181296658137E+01   -0.816774387510767363E+00   -0.256638893029965766E+05
    0.113151502925456349E+01   -0.101380246946167429E+01   -0.256638874864467725E+05
    0.112621043990079039E+01   -0.733754452943790270E+00   -0.256638869626958767E+05
    0.113115790248248649E+01   -0.761062180565150959E+00   -0.256638778134604436E+05
    0.112530634983141953E+01   -0.663090594903712915E+00   -0.256638768222067665E+05
    0.113106024476445910E+01   -0.753811083605526067E+00   -0.256638709915717991E+05
    0.112800023112932291E+01   -0.612232723716226834E+00   -0.256638680064188193E+05
    0.113135017509203362E+01   -0.101052319698211002E+01   -0.256638633273655032E+05
    0.112813526074984738E+01   -0.858708374965421850E+00   -0.256638615768151758E+05
    0.112633575899327587E+01   -0.741136807639481310E+00   -0.256638572808965655E+05
    0.112633575899327587E+01   -0.741136807639481310E+00   -0.256638572808965655E+05
    0.113035395393278115E+01   -0.980880965756461665E+00   -0.256638546626711686E+05
    0.112680482358278322E+01   -0.772644618211427936E+00   -0.256638490155002983E+05
    0.112680482358278322E+01   -0.772644618211427936E+00   -0.256638490155002983E+05
    0.113148692573550846E+01   -0.791984836408688553E+00   -0.256638451057825259E+05
    0.113148692573550846E+01   -0.791984836408688553E+00   -0.256638451057825259E+05
    0.113202047502672265E+01   -0.860096819803239931E+00   -0.256638416428421406E+05
    0.113194269152151872E+01   -0.996024941799160457E+00   -0.256638352005550005E+05
    0.112956335918596462E+01   -0.668863290646191322E+00   -0.256638349620991758E+05
    0.112956335918596462E+01   -0.668863290646191322E+00   -0.256638349620991758E+05
    0.113027693653219252E+01   -0.704519477784715020E+00   -0.256638333255360412E+05
    0.113027693653219252E+01   -0.704519477784715020E+00   -0.256638333255360412E+05
    0.112510976097711879E+01   -0.585728133727962730E+00   -0.256638329008284054E+05
    0.113125301950039070E+01   -0.100497250104726632E+01   -0.256638183373804204E+05
    0.112818260801549464E+01   -0.859503425415903521E+00   -0.256638173554918067E+05
    0.112833964196785397E+01   -0.623948889537950580E+00   -0.256638066904363113E+05
    0.113041764973592995E+01   -0.713762453325113677E+00   -0.256638043620660246E+05
    0.112844173146252791E+01   -0.874698328907723477E+00   -0.256638041551977331E+05
    0.112864538901956557E+01   -0.634145989827316292E+00   -0.256637982347997458E+05
    0.112638149292151413E+01   -0.581512464146415553E+00   -0.256637976298623507E+05
    0.112638149292151413E+01   -0.581512464146415553E+00   -0.256637976298623507E+05
    0.113052874406549098E+01   -0.983690894002021698E+00   -0.256637970963012376E+05
    0.113215880190456364E+01   -0.955296399688827291E+00   -0.256637879268650868E+05
    0.112511688562878165E+01   -0.635271684462347830E+00   -0.256637872377252606E+05
    0.112511688562878165E+01   -0.635271684462347830E+00   -0.256637872377252606E+05
    0.112651419953081922E+01   -0.583627384955255124E+00   -0.256637825895307542E+05
    0.112693462007611211E+01   -0.590248115742652457E+00   -0.256637794104290078E+05
    0.112984530529547200E+01   -0.951861699619110269E+00   -0.256637756176928742E+05
    0.113143303592783795E+01   -0.791857450471264102E+00   -0.256637693286135764E+05
    0.112719068257516142E+01   -0.793674044323173122E+00   -0.256637528578635283E+05
    0.112634703247265833E+01   -0.582808373248026257E+00   -0.256637477028772882E+05
    0.112763749145857384E+01   -0.821830334174273425E+00   -0.256637418746265212E+05
    0.112528665465847855E+01   -0.586368054297369268E+00   -0.256637389664476032E+05
    0.112513519158835873E+01   -0.594333987235264871E+00   -0.256637369203945455E+05
    0.112508584031108327E+01   -0.603491394383904201E+00   -0.256637234927011887E+05
    0.113086009149723754E+01   -0.988209573974863309E+00   -0.256637208956500181E+05
    0.112753578778710484E+01   -0.814229642427254152E+00   -0.256637175864114433E+05
    0.113006793732787347E+01   -0.957979026394740973E+00   -0.256637084344222749E+05
    0.112989919089866220E+01   -0.947629454750131162E+00   -0.256636711520767567E+05
    0.113196231818592885E+01   -0.959996612568027263E+00   -0.256636685138093053E+05
    0.113197888711049144E+01   -0.957023505647746964E+00   -0.256636682853443708E+05
    0.113144970841231629E+01   -0.801019282211863359E+00   -0.256636680977248507E+05
    0.113144970841231629E+01   -0.801019282211863359E+00   -0.256636680977248507E+05
    0.113034084031099891E+01   -0.966173750628494643E+00   -0.256636613489752781E+05
    0.113034084031099891E+01   -0.966173750628494643E+00   -0.256636613489752781E+05
    0.113015161499709338E+01   -0.957815429942142416E+00   -0.256636534104883394E+05
    0.112726826077192621E+01   -0.600595763540020311E+00   -0.256636510186161941E+05
    0.112726826077192621E+01   -0.600595763540020311E+00   -0.256636510186161941E+05
    0.112590410603518398E+01   -0.699245193695172906E+00   -0.256636504191074891E+05
    0.112532587809011897E+01   -0.592362378337730311E+00   -0.256636480635317494E+05
    0.112532587809011897E+01   -0.592362378337730311E+00   -0.256636480635317494E+05
    0.113169593379884503E+01   -0.978322524384900749E+00   -0.256636391666251657E+05
    0.112960339088177619E+01   -0.930270824507495986E+00   -0.256636270223691863E+05
    0.112716107219160921E+01   -0.599217363699545702E+00   -0.256636255802787891E+05
    0.112656543053000080E+01   -0.745924699279223669E+00   -0.256636250563899994E+05
    0.113194250704741783E+01   -0.948653051780017575E+00   -0.256636189672228902E+05
    0.112803763559230052E+01   -0.620648543863744351E+00   -0.256636140566391150E+05
    0.112523337221688635E+01   -0.604263579350999835E+00   -0.256636105163628636E+05
    0.112746488796144018E+01   -0.606217720255861403E+00   -0.256636075928346036E+05
    0.113155004032248918E+01   -0.818002566968108358E+00   -0.256636047960695905E+05
    0.113155004032248918E+01   -0.818002566968108358E+00   -0.256636047960695905E+05
    0.112859925830987606E+01   -0.873555054134780073E+00   -0.256636009910341818E+05
    0.112906616846368202E+01   -0.899504208900728131E+00   -0.256635894748207902E+05
    0.112906616846368202E+01   -0.899504208900728131E+00   -0.256635894748207902E+05
    0.113113251548445248E+01   -0.980369441683294429E+00   -0.256635874709009113E+05
    0.113137921455429158E+01   -0.979886500736076860E+00   -0.256635857226848530E+05
    0.112771663174067704E+01   -0.819213428410932920E+00   -0.256635841425438193E+05
    0.112771663174067704E+01   -0.819213428410932920E+00   -0.256635841425438193E+05
    0.112807684519897489E+01   -0.841400832924731334E+00   -0.256635829169525459E+05
    0.113134412856127842E+01   -0.797099900209118362E+00   -0.256635764327612742E+05
    0.112724344638228313E+01   -0.602794013360264280E+00   -0.256635649032216061E+05
    0.112724344638228313E+01   -0.602794013360264280E+00   -0.256635649032216061E+05
    0.113093776136511437E+01   -0.760986264545000068E+00   -0.256635632375800924E+05
    0.113096798671120924E+01   -0.975054667996550384E+00   -0.256635534949923822E+05
    0.113004659087966619E+01   -0.945904029338686003E+00   -0.256635495331244165E+05
    0.113190148577493055E+01   -0.930663847104195252E+00   -0.256635494242068853E+05
    0.113190148577493055E+01   -0.930663847104195252E+00   -0.256635494242068853E+05
    0.113023371034463205E+01   -0.953467260410914452E+00   -0.256635479067848646E+05
    0.113023371034463205E+01   -0.953467260410914452E+00   -0.256635479067848646E+05
    0.112833528807595673E+01   -0.631847220896107453E+00   -0.256635397270350113E+05
    0.112918025360605156E+01   -0.902634314569905394E+00   -0.256635365638807853E+05
    0.112918025360605156E+01   -0.902634314569905394E+00   -0.256635365638807853E+05
    0.112538160535410636E+01   -0.640677671074449950E+00   -0.256635358790321334E+05
    0.112703069178710047E+01   -0.599958895411600412E+00   -0.256635276029944434E+05
    0.112703069178710047E+01   -0.599958895411600412E+00   -0.256635276029944434E+05
    0.112789564230054973E+01   -0.827214383884766757E+00   -0.256635219079988710E+05
    0.113112044539870160E+01   -0.972165805018994078E+00   -0.256635108920893254E+05
    0.112614811563542805E+01   -0.709810324813937132E+00   -0.256635080359400927E+05
    0.113178142489244671E+01   -0.869627041634430054E+00   -0.256635078439530007E+05
    0.113178142489244671E+01   -0.869627041634430054E+00   -0.256635078439530007E+05
    0.112785139237739296E+01   -0.823590271651675199E+00   -0.256635042068292350E+05
    0.112534851809472292E+01   -0.611048678910261156E+00   -0.256635022051308115E+05
    0.112534851809472292E+01   -0.611048678910261156E+00   -0.256635022051308115E+05
    0.112870145074005945E+01   -0.645354594353510835E+00   -0.256635003219676582E+05
    0.112870145074005945E+01   -0.645354594353510835E+00   -0.256635003219676582E+05
    0.112946720187482263E+01   -0.676259192750498173E+00   -0.256634958633719871E+05
    0.112946720187482263E+01   -0.676259192750498173E+00   -0.256634958633719871E+05
    0.112545325279559627E+01   -0.601296610731137493E+00   -0.256634957828726765E+05
    0.113077335084991093E+01   -0.965962240756539359E+00   -0.256634952825276159E+05
    0.113077335084991093E+01   -0.965962240756539359E+00   -0.256634952825276159E+05
    0.113170047675705909E+01   -0.855336657376464915E+00   -0.256634901614935989E+05
    0.113154202648082913E+01   -0.961428061347757268E+00   -0.256634853190522263E+05
    0.113053395603254891E+01   -0.735798430864194275E+00   -0.256634797691250569E+05
    0.113182549504502994E+01   -0.897851880691380444E+00   -0.256634771679323567E+05
    0.113182549504502994E+01   -0.897851880691380444E+00   -0.256634771679323567E+05
    0.112744441663075889E+01   -0.796672494319716540E+00   -0.256634759638855758E+05
    0.112641439881727567E+01   -0.727502165153869784E+00   -0.256634739950612820E+05
    0.113016991955602109E+01   -0.945305026494818179E+00   -0.256634725484213486E+05
    0.112614827419708519E+01   -0.707413037251668264E+00   -0.256634667702274746E+05
    0.112838129520546193E+01   -0.853144769594903929E+00   -0.256634585163776101E+05
    0.112556200967122999E+01   -0.654281762570727343E+00   -0.256634548183498737E+05
    0.113176802683528077E+01   -0.882712328986054562E+00   -0.256634509549216818E+05
    0.112929024453840743E+01   -0.902932544603912479E+00   -0.256634457647932650E+05
    0.112929024453840743E+01   -0.902932544603912479E+00   -0.256634457647932650E+05
    0.113148278562162607E+01   -0.826429540648656591E+00   -0.256634428208067693E+05
    0.112578783258896920E+01   -0.595846522361274555E+00   -0.256634358794356594E+05
    0.112627468784011553E+01   -0.715094968271174469E+00   -0.256634349738606361E+05
    0.112627468784011553E+01   -0.715094968271174469E+00   -0.256634349738606361E+05
    0.112961971603930644E+01   -0.685818979647815130E+00   -0.256634319068662262E+05
    0.112588497013125277E+01   -0.595177454273671636E+00   -0.256634278319808545E+05
    0.112588497013125277E+01   -0.595177454273671636E+00   -0.256634278319808545E+05
    0.113095722563511547E+01   -0.771343201677099355E+00   -0.256634248952203852E+05
    0.113095722563511547E+01   -0.771343201677099355E+00   -0.256634248952203852E+05
    0.113065529532225595E+01   -0.956619123390415549E+00   -0.256634220673114178E+05
    0.113170248088911185E+01   -0.871011960883729230E+00   -0.256634216978506374E+05
    0.113170248088911185E+01   -0.871011960883729230E+00   -0.256634216978506374E+05
    0.113104413091694322E+01   -0.962048650894101742E+00   -0.256634207672231314E+05
    0.113104413091694322E+01   -0.962048650894101742E+00   -0.256634207672231314E+05
    0.112791919123663220E+01   -0.623534519919808350E+00   -0.256634200683284798E+05
    0.112656258985536084E+01   -0.735095120439911653E+00   -0.256634198940776441E+05
    0.112836044051436257E+01   -0.637169577726539371E+00   -0.256634016934576939E+05
    0.112836459386026355E+01   -0.848768406157189403E+00   -0.256633959253898502E+05
    0.112621287571260620E+01   -0.596219039452395849E+00   -0.256633888803758055E+05
    0.112621287571260620E+01   -0.596219039452395849E+00   -0.256633888803758055E+05
    0.113066086895453299E+01   -0.953216022351752956E+00   -0.256633835946487125E+05
    0.113167107724391824E+01   -0.873624621830481729E+00   -0.256633828200172538E+05
    0.112768015736058880E+01   -0.806160348303609275E+00   -0.256633716513971449E+05
    0.112768015736058880E+01   -0.806160348303609275E+00   -0.256633716513971449E+05
    0.113148816357666426E+01   -0.943988182496621420E+00   -0.256633671761278711E+05
    0.113118043058826245E+01   -0.797314753718785685E+00   -0.256633668392878753E+05
    0.112768527550146924E+01   -0.619341862553486333E+00   -0.256633650070428303E+05
    0.112768527550146924E+01   -0.619341862553486333E+00   -0.256633650070428303E+05
    0.113041178529714381E+01   -0.944753642028708374E+00   -0.256633610059830207E+05
    0.112916087776857310E+01   -0.890860327884617664E+00   -0.256633592280714292E+05
    0.112916087776857310E+01   -0.890860327884617664E+00   -0.256633592280714292E+05
    0.113143841263952316E+01   -0.945407910285335884E+00   -0.256633573480235937E+05
    0.113052994232486093E+01   -0.742129522438443434E+00   -0.256633560219210121E+05
    0.112745860652654040E+01   -0.614449751547822443E+00   -0.256633536670206595E+05
    0.113116959567063491E+01   -0.953157922579335182E+00   -0.256633505584052036E+05
    0.113104945954889669E+01   -0.953998695232203708E+00   -0.256633497662151567E+05
    0.113104945954889669E+01   -0.953998695232203708E+00   -0.256633497662151567E+05
    0.112715782199216541E+01   -0.771375100815946846E+00   -0.256633434672736403E+05
    0.112787465308270596E+01   -0.624946860994618048E+00   -0.256633431657512301E+05
    0.112868428332381576E+01   -0.650243907989327186E+00   -0.256633402785951148E+05
    0.112868428332381576E+01   -0.650243907989327186E+00   -0.256633402785951148E+05
    0.113009003393462937E+01   -0.932123631991127244E+00   -0.256633399543096966E+05
    0.113009003393462937E+01   -0.932123631991127244E+00   -0.256633399543096966E+05
    0.113164456538465918E+01   -0.891621490621143709E+00   -0.256633283831720473E+05
    0.113164456538465918E+01   -0.891621490621143709E+00   -0.256633283831720473E+05
    0.112785792133917928E+01   -0.814641023586490931E+00   -0.256633248072231581E+05
    0.112785792133917928E+01   -0.814641023586490931E+00   -0.256633248072231581E+05
    0.112771104989442383E+01   -0.805564271306829394E+00   -0.256633240407907724E+05
    0.112771104989442383E+01   -0.805564271306829394E+00   -0.256633240407907724E+05
    0.112590099173227731E+01   -0.677096619473683159E+00   -0.256633237984701846E+05
    0.112590099173227731E+01   -0.677096619473683159E+00   -0.256633237984701846E+05
    0.112991348156081450E+01   -0.923920409624212402E+00   -0.256633234791482537E+05
    0.113137646590709995E+01   -0.826759807877628372E+00   -0.256633190091041470E+05
    0.113161217875718201E+01   -0.878383284799166830E+00   -0.256633173595872868E+05
    0.112764610876260019E+01   -0.620072066826410584E+00   -0.256633168438944849E+05
    0.112764610876260019E+01   -0.620072066826410584E+00   -0.256633168438944849E+05
    0.113162889824254309E+01   -0.891952670117646118E+00   -0.256633155920376157E+05
    0.113153812850814139E+01   -0.856621873868844697E+00   -0.256633142273482335E+05
    0.113162149615210872E+01   -0.888056029345225983E+00   -0.256633120836135749E+05
    0.112799485771400665E+01   -0.629344504777556546E+00   -0.256633111355519795E+05
    0.112799485771400665E+01   -0.629344504777556546E+00   -0.256633111355519795E+05
    0.113150693064181418E+01   -0.851627773069395522E+00   -0.256633054298723546E+05
    0.113150693064181418E+01   -0.851627773069395522E+00   -0.256633054298723546E+05
    0.112851879042923953E+01   -0.645728374038313069E+00   -0.256633054159470921E+05
    0.113068766338258930E+01   -0.756978443147695357E+00   -0.256633041953027496E+05
    0.112608022732961377E+01   -0.601059850373311333E+00   -0.256633017935079952E+05
    0.112559661276839584E+01   -0.620771579780128535E+00   -0.256633017397984840E+05
    0.112610851114234078E+01   -0.600959908452888936E+00   -0.256633007389039740E+05
    0.113160033743212107E+01   -0.892895261686267316E+00   -0.256632928512326471E+05
    0.113160033743212107E+01   -0.892895261686267316E+00   -0.256632928512326471E+05
    0.112571023508086521E+01   -0.653131987032303352E+00   -0.256632907932903727E+05
    0.113038001653470532E+01   -0.735392523163592049E+00   -0.256632906995477642E+05
    0.113038001653470532E+01   -0.735392523163592049E+00   -0.256632906995477642E+05
    0.112782666404351684E+01   -0.625770875111083091E+00   -0.256632838438779581E+05
    0.113156272568441230E+01   -0.907694053868771888E+00   -0.256632773632262761E+05
    0.113156272568441230E+01   -0.907694053868771888E+00   -0.256632773632262761E+05
    0.112563511815595296E+01   -0.622693852733656739E+00   -0.256632711738814869E+05
    0.112563511815595296E+01   -0.622693852733656739E+00   -0.256632711738814869E+05
    0.113130948733306091E+01   -0.935007914569113474E+00   -0.256632572143696525E+05
    0.112831320093667475E+01   -0.837806218882530818E+00   -0.256632528789046410E+05
    0.112654209771515257E+01   -0.723858385424157591E+00   -0.256632503097054723E+05
    0.113153973492331961E+01   -0.887175499058097561E+00   -0.256632475170016369E+05
    0.113112135789424784E+01   -0.802895191329330071E+00   -0.256632396178851413E+05
    0.112680554796597354E+01   -0.741635288708141438E+00   -0.256632338583725141E+05
    0.113095223647111043E+01   -0.785724286820002282E+00   -0.256632295391853622E+05
    0.112726040190504984E+01   -0.771568850656172422E+00   -0.256632236148855191E+05
    0.112617599057635909E+01   -0.693562712610015897E+00   -0.256632234346667756E+05
    0.112569378196839009E+01   -0.633096689132544466E+00   -0.256632217581316290E+05
    0.113017432086256164E+01   -0.925437555705394654E+00   -0.256632195679978649E+05
    0.113017432086256164E+01   -0.925437555705394654E+00   -0.256632195679978649E+05
    0.112575563744111795E+01   -0.647954589106636059E+00   -0.256632156359621986E+05
    0.112587582778743078E+01   -0.664181212319633341E+00   -0.256632152299954723E+05
    0.112745820972497990E+01   -0.619652066434621007E+00   -0.256632117964220379E+05
    0.112745820972497990E+01   -0.619652066434621007E+00   -0.256632117964220379E+05
    0.113140256406324724E+01   -0.849897389602630726E+00   -0.256632115098870963E+05
    0.112995265433384517E+01   -0.916816844926888308E+00   -0.256632096458286687E+05
    0.112956973921538761E+01   -0.900783198537720153E+00   -0.256632079448304648E+05
    0.112811254547019324E+01   -0.636466654062111115E+00   -0.256632072818211709E+05
    0.113147693828544149E+01   -0.897473072660208482E+00   -0.256632067074571896E+05
    0.112717947012592346E+01   -0.765218338584023439E+00   -0.256632047021803482E+05
    0.112717947012592346E+01   -0.765218338584023439E+00   -0.256632047021803482E+05
    0.112918131850613657E+01   -0.675216378779779358E+00   -0.256631972147329870E+05
    0.112884265513552196E+01   -0.863824727143566173E+00   -0.256631932908211566E+05
    0.112863385322326337E+01   -0.653942853529421164E+00   -0.256631917427327971E+05
    0.112905349870161498E+01   -0.670117438075815919E+00   -0.256631900004220915E+05
    0.112708012117017109E+01   -0.757747104539628902E+00   -0.256631890889782153E+05
    0.112708012117017109E+01   -0.757747104539628902E+00   -0.256631890889782153E+05
    0.113061132845367052E+01   -0.758577005118751702E+00   -0.256631884723968215E+05
    0.113061132845367052E+01   -0.758577005118751702E+00   -0.256631884723968215E+05
    0.112984779588636508E+01   -0.910779181492551437E+00   -0.256631839852674784E+05
    0.112612788939432074E+01   -0.685516757097181850E+00   -0.256631747390835080E+05
    0.112579028201690345E+01   -0.623195764753430970E+00   -0.256631726955358790E+05
    0.112744797521343720E+01   -0.620987999905523891E+00   -0.256631718247843673E+05
    0.112741529924517581E+01   -0.620381510068359843E+00   -0.256631698326976257E+05
    0.112989774475283244E+01   -0.712130155057797865E+00   -0.256631644419271906E+05
    0.112679744410911198E+01   -0.736928055140334770E+00   -0.256631642268819305E+05
    0.112997996962661951E+01   -0.914125660379262683E+00   -0.256631629782019154E+05
    0.112643426112293854E+01   -0.608810900567394508E+00   -0.256631517209859849E+05
    0.112580519380186317E+01   -0.642312580835409541E+00   -0.256631513825895818E+05
    0.112580519380186317E+01   -0.642312580835409541E+00   -0.256631513825895818E+05
    0.113074913691187984E+01   -0.930737871308256137E+00   -0.256631509816487414E+05
    0.112620163530476614E+01   -0.609844811957007904E+00   -0.256631483531024569E+05
    0.112620163530476614E+01   -0.609844811957007904E+00   -0.256631483531024569E+05
    0.112636435806220270E+01   -0.609099112896059225E+00   -0.256631466754588255E+05
    0.112721167454361160E+01   -0.763935477637330385E+00   -0.256631452121451257E+05
    0.112844141085073391E+01   -0.649114535714443663E+00   -0.256631451145678475E+05
    0.113005503538356500E+01   -0.722857988416986119E+00   -0.256631367308985573E+05
    0.113005503538356500E+01   -0.722857988416986119E+00   -0.256631367308985573E+05
    0.112946977618340139E+01   -0.691041904767550452E+00   -0.256631357023054297E+05
    0.112946977618340139E+01   -0.691041904767550452E+00   -0.256631357023054297E+05
    0.113111356572861554E+01   -0.814333749226320514E+00   -0.256631328512556865E+05
    0.112730643816857423E+01   -0.769233156480344515E+00   -0.256631297795702085E+05
    0.113122801678715135E+01   -0.913648904883459956E+00   -0.256631214343178726E+05
    0.113115607136415131E+01   -0.822155959052365937E+00   -0.256631205769154803E+05
    0.113108872700023966E+01   -0.921933366794877251E+00   -0.256631204001384285E+05
    0.112648516494702688E+01   -0.711006045816669818E+00   -0.256631191065249950E+05
    0.112876940681358651E+01   -0.661789533722153100E+00   -0.256631188040762281E+05
    0.113109034839681755E+01   -0.920660090472457782E+00   -0.256631132710610800E+05
    0.112630597390141851E+01   -0.695673618967318941E+00   -0.256631082808397587E+05
    0.112714238159340585E+01   -0.617890064486075419E+00   -0.256631072174353576E+05
    0.112958135607412524E+01   -0.698014712461663800E+00   -0.256631047559526596E+05
    0.112958135607412524E+01   -0.698014712461663800E+00   -0.256631047559526596E+05
    0.112714002313677852E+01   -0.618088048490020414E+00   -0.256631018107509844E+05
    0.112714002313677852E+01   -0.618088048490020414E+00   -0.256631018107509844E+05
    0.113075229535994914E+01   -0.924707521667938792E+00   -0.256630993973473014E+05
    0.113075229535994914E+01   -0.924707521667938792E+00   -0.256630993973473014E+05
    0.112706983659259663E+01   -0.751768092993084558E+00   -0.256630992767759963E+05
    0.112706983659259663E+01   -0.751768092993084558E+00   -0.256630992767759963E+05
    0.113053098547282049E+01   -0.758816567619792437E+00   -0.256630935633994523E+05
    0.113053098547282049E+01   -0.758816567619792437E+00   -0.256630935633994523E+05
    0.113110787056075779E+01   -0.915705822859316898E+00   -0.256630903630701032E+05
    0.113110787056075779E+01   -0.915705822859316898E+00   -0.256630903630701032E+05
    0.113132040986263416E+01   -0.874444341983996676E+00   -0.256630892968498883E+05
    0.112944031965728131E+01   -0.886190898325189824E+00   -0.256630848826135261E+05
    0.112825788061751320E+01   -0.646073622402205894E+00   -0.256630726774495597E+05
    0.113111401383514298E+01   -0.911177701781912264E+00   -0.256630691695302012E+05
    0.113102878852900046E+01   -0.915685898324787306E+00   -0.256630690211899164E+05
    0.112978423307232978E+01   -0.711260014557062004E+00   -0.256630561872588660E+05
    0.112762933126067422E+01   -0.629719520336510463E+00   -0.256630555779566203E+05
    0.112762933126067422E+01   -0.629719520336510463E+00   -0.256630555779566203E+05
    0.112869844616679371E+01   -0.661854405424748826E+00   -0.256630531803826852E+05
    0.112869844616679371E+01   -0.661854405424748826E+00   -0.256630531803826852E+05
    0.113061108328942606E+01   -0.768760110080870751E+00   -0.256630516612298925E+05
    0.112765734783555116E+01   -0.786682460525126803E+00   -0.256630473640237906E+05
    0.113123498133096589E+01   -0.887218669491635081E+00   -0.256630434119381280E+05
    0.113123498133096589E+01   -0.887218669491635081E+00   -0.256630434119381280E+05
    0.112935368882541542E+01   -0.879042652894544307E+00   -0.256630400218225332E+05
    0.112831338459950681E+01   -0.825097679442031273E+00   -0.256630376116136758E+05
    0.112831338459950681E+01   -0.825097679442031273E+00   -0.256630376116136758E+05
    0.112665552771123068E+01   -0.718286547105820405E+00   -0.256630371130727181E+05
    0.112599979045401488E+01   -0.628699354336648586E+00   -0.256630357567585415E+05
    0.112599979045401488E+01   -0.628699354336648586E+00   -0.256630357567585415E+05
    0.112643575425075948E+01   -0.700507130472374895E+00   -0.256630324059131090E+05
    0.112601914445982709E+01   -0.627462894530136150E+00   -0.256630321929826787E+05
    0.112905233525478277E+01   -0.677168826201660856E+00   -0.256630232098627057E+05
    0.113039664815262197E+01   -0.912945582172487669E+00   -0.256630227135055175E+05
    0.112998259659868250E+01   -0.725337171530810787E+00   -0.256630130752335608E+05
    0.112786571774320210E+01   -0.797365379846203925E+00   -0.256630128549397850E+05
    0.113115427768579480E+01   -0.844800406763651868E+00   -0.256630111923528348E+05
    0.112941514780852348E+01   -0.694379464755665143E+00   -0.256630081306251632E+05
    0.113092022388284574E+01   -0.805627117538155302E+00   -0.256630058417010914E+05
    0.113009469871046830E+01   -0.733030975335069446E+00   -0.256630044384056710E+05
    0.113009469871046830E+01   -0.733030975335069446E+00   -0.256630044384056710E+05
    0.113053316894779909E+01   -0.765928180449384044E+00   -0.256630035453510754E+05
    0.113053316894779909E+01   -0.765928180449384044E+00   -0.256630035453510754E+05
    0.112922361881402011E+01   -0.870170483488339030E+00   -0.256629999956327629E+05
    0.113026499895183363E+01   -0.907779783026928966E+00   -0.256629966578377316E+05
    0.112837844202075122E+01   -0.826149112675765629E+00   -0.256629956517427163E+05
    0.113099865472970373E+01   -0.903292713577132034E+00   -0.256629942085399016E+05
    0.113099865472970373E+01   -0.903292713577132034E+00   -0.256629942085399016E+05
    0.112777797624503640E+01   -0.790807477678405757E+00   -0.256629927330733990E+05
    0.112950129292770773E+01   -0.699433660281557845E+00   -0.256629927132514131E+05
    0.112663138090814741E+01   -0.713005701499369149E+00   -0.256629904359645006E+05
    0.112663138090814741E+01   -0.713005701499369149E+00   -0.256629904359645006E+05
    0.112803490146157559E+01   -0.643016567073572798E+00   -0.256629869517233237E+05
    0.112799140633909500E+01   -0.642121886973038958E+00   -0.256629795009907248E+05
    0.112715652882545081E+01   -0.624211568240029546E+00   -0.256629751556477931E+05
    0.113075474957710931E+01   -0.908014892668658424E+00   -0.256629720939723338E+05
    0.112967588556513965E+01   -0.887337339809861181E+00   -0.256629709109178766E+05
    0.113099827770535555E+01   -0.824144211025189088E+00   -0.256629621062654332E+05
    0.112756890686222011E+01   -0.632459263542528127E+00   -0.256629617361815908E+05
    0.112646973749260404E+01   -0.620958154247477356E+00   -0.256629606464955541E+05
    0.112865490198625062E+01   -0.838933400963039366E+00   -0.256629599432975447E+05
    0.113041981435784900E+01   -0.906128589127336959E+00   -0.256629561716501521E+05
    0.113096109610590290E+01   -0.819980413414831411E+00   -0.256629511643872829E+05
    0.112936285851843765E+01   -0.694738148299277603E+00   -0.256629496570955962E+05
    0.112707141292124557E+01   -0.742282298354602244E+00   -0.256629489047651587E+05
    0.112775762147466807E+01   -0.786777159266526471E+00   -0.256629479153830689E+05
    0.113063393256539158E+01   -0.905699434686477289E+00   -0.256629462211969076E+05
    0.113063393256539158E+01   -0.905699434686477289E+00   -0.256629462211969076E+05
    0.112885447779781778E+01   -0.848288680945233242E+00   -0.256629448515609765E+05
    0.112885447779781778E+01   -0.848288680945233242E+00   -0.256629448515609765E+05
    0.113107667800999323E+01   -0.847293092185409158E+00   -0.256629441079762983E+05
    0.113107667800999323E+01   -0.847293092185409158E+00   -0.256629441079762983E+05
    0.112890835165181391E+01   -0.850703448470451207E+00   -0.256629404604027659E+05
    0.112890835165181391E+01   -0.850703448470451207E+00   -0.256629404604027659E+05
    0.112918697579051486E+01   -0.863706959889920300E+00   -0.256629341988155538E+05
    0.112918697579051486E+01   -0.863706959889920300E+00   -0.256629341988155538E+05
    0.112877036740135361E+01   -0.843115745101763014E+00   -0.256629321783058513E+05
    0.113101854238094734E+01   -0.885450188530741755E+00   -0.256629307134524715E+05
    0.113072296574258679E+01   -0.791991528941245360E+00   -0.256629255939690884E+05
    0.113107126310834971E+01   -0.864550351652400462E+00   -0.256629243583700118E+05
    0.112882765619549019E+01   -0.845402487673679204E+00   -0.256629227220861103E+05
    0.112624865585680878E+01   -0.669848713586837841E+00   -0.256629172941914876E+05
    0.112846227364323681E+01   -0.659399510965042346E+00   -0.256629169377926191E+05
    0.112930056779460486E+01   -0.693441393510987769E+00   -0.256629161801783521E+05
    0.112992967691116597E+01   -0.727982370632181519E+00   -0.256629149043464240E+05
    0.112658700233424103E+01   -0.703232245469644690E+00   -0.256629143476058962E+05
    0.112658700233424103E+01   -0.703232245469644690E+00   -0.256629143476058962E+05
    0.113032016563350846E+01   -0.900194324361200060E+00   -0.256629141771200339E+05
    0.112672042122476324E+01   -0.713827172901868590E+00   -0.256629115498988722E+05
    0.113099870611998110E+01   -0.879724793419458972E+00   -0.256629060906873056E+05
    0.112854759601944643E+01   -0.662886308146777070E+00   -0.256629055205126060E+05
    0.113098466091699601E+01   -0.881201612423401448E+00   -0.256629036347660585E+05
    0.113098466091699601E+01   -0.881201612423401448E+00   -0.256629036347660585E+05
    0.112625985512182147E+01   -0.669004801511307479E+00   -0.256629030376901246E+05
    0.112631537386546343E+01   -0.629471364938104960E+00   -0.256629020461014152E+05
    0.112823696053630851E+01   -0.812042070940558469E+00   -0.256629001902864547E+05
    0.112853350739367597E+01   -0.827960710141275369E+00   -0.256628928102910431E+05
    0.112723793542582928E+01   -0.629676371161552506E+00   -0.256628915373152522E+05
    0.112696200205649033E+01   -0.730225847172357279E+00   -0.256628878750271251E+05
    0.113100146987155759E+01   -0.848690175310590211E+00   -0.256628878185595458E+05
    0.112862800500941329E+01   -0.832615131365201488E+00   -0.256628871830519456E+05
    0.112862800500941329E+01   -0.832615131365201488E+00   -0.256628871830519456E+05
    0.112893476668080694E+01   -0.848225873320259005E+00   -0.256628866750742345E+05
    0.113036791663242031E+01   -0.897355499179266936E+00   -0.256628841045120607E+05
    0.112993180914247393E+01   -0.888150528992665667E+00   -0.256628802926158496E+05
    0.112828150534209870E+01   -0.655162207077512049E+00   -0.256628798470495058E+05
    0.112707579182049944E+01   -0.628271550673931367E+00   -0.256628771612564378E+05
    0.112707579182049944E+01   -0.628271550673931367E+00   -0.256628771612564378E+05
    0.112632134882524948E+01   -0.672341697275718353E+00   -0.256628737244554468E+05
    0.112632134882524948E+01   -0.672341697275718353E+00   -0.256628737244554468E+05
    0.113058077882660779E+01   -0.896065469862065367E+00   -0.256628731833440434E+05
    0.113020748848511765E+01   -0.893852955309169417E+00   -0.256628722920902401E+05
    0.112727016164966765E+01   -0.631283352282925314E+00   -0.256628704673609136E+05
    0.112944985863954361E+01   -0.703411511029764736E+00   -0.256628678109343418E+05
    0.112935487807497692E+01   -0.866026840426336708E+00   -0.256628665035224403E+05
    0.112907973079645663E+01   -0.685875863420917220E+00   -0.256628656648020878E+05
    0.112907973079645663E+01   -0.685875863420917220E+00   -0.256628656648020878E+05
    0.112819367305037588E+01   -0.653130810217394053E+00   -0.256628651087512153E+05
    0.113038917192135768E+01   -0.765473011925096314E+00   -0.256628644244136085E+05
    0.112636596585011795E+01   -0.632293260145207148E+00   -0.256628643442694047E+05
    0.112708811139437648E+01   -0.629222077319661288E+00   -0.256628628976947512E+05
    0.113067640185004059E+01   -0.892217743217855075E+00   -0.256628592395042215E+05
    0.112923648925915598E+01   -0.859977337606868009E+00   -0.256628547628773304E+05
    0.112778931584386655E+01   -0.642792041568095440E+00   -0.256628497675907929E+05
    0.113074111961294799E+01   -0.887905644988471243E+00   -0.256628479670217712E+05
    0.112869057292416208E+01   -0.670883685455765377E+00   -0.256628471048714673E+05
    0.112637859872517421E+01   -0.634339751160913679E+00   -0.256628454541719548E+05
    0.112637859872517421E+01   -0.634339751160913679E+00   -0.256628454541719548E+05
    0.112900543759405814E+01   -0.848638334203970945E+00   -0.256628453700715472E+05
    0.112730603378749272E+01   -0.751083785399011994E+00   -0.256628442691181044E+05
    0.112730603378749272E+01   -0.751083785399011994E+00   -0.256628442691181044E+05
    0.112987210730665533E+01   -0.882968860094747843E+00   -0.256628436542759046E+05
    0.112841957312964114E+01   -0.818260324660806670E+00   -0.256628410133838988E+05
    0.112892526572195795E+01   -0.844250935238364697E+00   -0.256628382348673840E+05
    0.112932942375545764E+01   -0.698982427142399221E+00   -0.256628381323820940E+05
    0.112932942375545764E+01   -0.698982427142399221E+00   -0.256628381323820940E+05
    0.112709726264654098E+01   -0.630766991124217524E+00   -0.256628380208873350E+05
    0.113069217958146151E+01   -0.800311101740502906E+00   -0.256628352244988600E+05
    0.112824264051026057E+01   -0.807987956337365976E+00   -0.256628345486153594E+05
    0.112999008147110924E+01   -0.737330983875206902E+00   -0.256628343999460885E+05
    0.112661748423885744E+01   -0.629837037804122479E+00   -0.256628341542000744E+05
    0.112643676575937146E+01   -0.680182288026456527E+00   -0.256628326485622310E+05
    0.112643676575937146E+01   -0.680182288026456527E+00   -0.256628326485622310E+05
    0.112974517701754662E+01   -0.877963502701263332E+00   -0.256628322820549838E+05
    0.112723354685284738E+01   -0.744732870288003612E+00   -0.256628242730408820E+05
    0.112806544646346918E+01   -0.796786701899222738E+00   -0.256628192573544075E+05
    0.112675967612446915E+01   -0.709006574314479554E+00   -0.256628180881554435E+05
    0.112675967612446915E+01   -0.709006574314479554E+00   -0.256628180881554435E+05
    0.112892306207056548E+01   -0.842643169270420822E+00   -0.256628179038373673E+05
    0.112714934867540562E+01   -0.737942223244024698E+00   -0.256628116580971509E+05
    0.112691685659029250E+01   -0.720822512834350393E+00   -0.256628106428013161E+05
    0.112900536615951985E+01   -0.845881486473276656E+00   -0.256628086318554342E+05
    0.112731343653149141E+01   -0.749003482187081016E+00   -0.256628081984064629E+05
    0.112731343653149141E+01   -0.749003482187081016E+00   -0.256628081984064629E+05
    0.113086225298224630E+01   -0.863417074469394974E+00   -0.256628081643992700E+05
    0.113086225298224630E+01   -0.863417074469394974E+00   -0.256628081643992700E+05
    0.112679189502846455E+01   -0.710739246385309276E+00   -0.256628080803430603E+05
    0.112849551277342508E+01   -0.819922328867498829E+00   -0.256628058020464377E+05
    0.113087192347049870E+01   -0.853135960781393532E+00   -0.256628041150650279E+05
    0.112883486031281866E+01   -0.678762897236298679E+00   -0.256628024514983153E+05
    0.112975639745277334E+01   -0.875524277307759169E+00   -0.256628018057025547E+05
    0.112978248855483931E+01   -0.876044997247206414E+00   -0.256627987258068060E+05
    0.112896541320868815E+01   -0.843069198916420959E+00   -0.256627964826820753E+05
    0.112973322605003323E+01   -0.874274963246937986E+00   -0.256627962756737070E+05
    0.113030934124173355E+01   -0.886206232598454990E+00   -0.256627958697541944E+05
    0.113030934124173355E+01   -0.886206232598454990E+00   -0.256627958697541944E+05
    0.112962309646194825E+01   -0.870498847817964050E+00   -0.256627953053312085E+05
    0.112888133645412392E+01   -0.681045732133792381E+00   -0.256627950411358106E+05
    0.112666533798256330E+01   -0.698515035113473681E+00   -0.256627939948309868E+05
    0.112659843905052437E+01   -0.634024799325368704E+00   -0.256627924448819504E+05
    0.112932798180118343E+01   -0.858794652515616930E+00   -0.256627907110976630E+05
    0.112734250208883413E+01   -0.749686417475137645E+00   -0.256627907101799174E+05
    0.112812476348605717E+01   -0.654882095590757052E+00   -0.256627869232828343E+05
    0.112825929890985766E+01   -0.805447459442081071E+00   -0.256627841688320077E+05
    0.112955594426931460E+01   -0.714451611814840293E+00   -0.256627769231514285E+05
    0.113074667239812277E+01   -0.870452035537200075E+00   -0.256627763063107777E+05
    0.112940545593398234E+01   -0.706401325455743523E+00   -0.256627759874938747E+05
    0.112640287165803255E+01   -0.662651674741437269E+00   -0.256627731626603454E+05
    0.113074520470582263E+01   -0.821198270215819592E+00   -0.256627725616613425E+05
    0.113078938958852415E+01   -0.834682983012373869E+00   -0.256627678855647682E+05
    0.113039238605926151E+01   -0.775521497253304215E+00   -0.256627675022407930E+05
    0.113066265017819445E+01   -0.874362340516010583E+00   -0.256627643542153091E+05
    0.112931271961699853E+01   -0.855558813952495001E+00   -0.256627593153266644E+05
    0.112662587625631572E+01   -0.690354969965299547E+00   -0.256627562313112212E+05
    0.112654597984418725E+01   -0.681544709849239094E+00   -0.256627561075022059E+05
    0.113078463004261209E+01   -0.849665250936330940E+00   -0.256627550776871722E+05
    0.113017829883702348E+01   -0.879986287882028151E+00   -0.256627542811075073E+05
    0.112736225191346096E+01   -0.748119949904526793E+00   -0.256627519085539097E+05
    0.113076612707481461E+01   -0.836409503050565828E+00   -0.256627504462835896E+05
    0.112772197214835401E+01   -0.771179851611951905E+00   -0.256627484306539118E+05
    0.112749628294238891E+01   -0.641863457163015960E+00   -0.256627477613080227E+05
    0.112967714359224303E+01   -0.867705199428244089E+00   -0.256627453404445587E+05
    0.112774480341701588E+01   -0.772362099574567473E+00   -0.256627451575250452E+05
    0.112936004453598615E+01   -0.856147334462854293E+00   -0.256627437232304765E+05
    0.112735578376338363E+01   -0.746972707560074944E+00   -0.256627426427262544E+05
    0.112680567277337529E+01   -0.705393048202576534E+00   -0.256627407588072856E+05
    0.112821672707961707E+01   -0.799910076665172998E+00   -0.256627399890863926E+05
    0.112717471337923136E+01   -0.734074652784215242E+00   -0.256627393867449864E+05
    0.113007513900029988E+01   -0.751024100652941673E+00   -0.256627382869683279E+05
    0.112999972109568647E+01   -0.875393662576880338E+00   -0.256627381674099488E+05
    0.112646128982280391E+01   -0.652060520356371631E+00   -0.256627363974359032E+05
    0.112646128982280391E+01   -0.652060520356371631E+00   -0.256627363974359032E+05
    0.112942218907859715E+01   -0.857897537806005417E+00   -0.256627360127684879E+05
    0.112676427383931221E+01   -0.637512955491833067E+00   -0.256627332439263046E+05
    0.112676427383931221E+01   -0.637512955491833067E+00   -0.256627332439263046E+05
    0.112829644096430615E+01   -0.662976116822892703E+00   -0.256627318067971355E+05
    0.113014265151155424E+01   -0.757446599845841506E+00   -0.256627264634102758E+05
    0.113014265151155424E+01   -0.757446599845841506E+00   -0.256627264634102758E+05
    0.112942719705671424E+01   -0.710743439730065374E+00   -0.256627243202490754E+05
    0.113011248111595464E+01   -0.755457413532409250E+00   -0.256627216083426683E+05
    0.113070207846996018E+01   -0.855479086089652396E+00   -0.256627212323937420E+05
    0.112805195110895351E+01   -0.788834259262708448E+00   -0.256627175756688630E+05
    0.112658842467575315E+01   -0.680266562535111641E+00   -0.256627173621603470E+05
    0.113030907578629458E+01   -0.773268531442045992E+00   -0.256627162150749682E+05
    0.113040454645026767E+01   -0.874322775502331950E+00   -0.256627154864011245E+05
    0.112847307471655922E+01   -0.812106321822135158E+00   -0.256627146043364955E+05
    0.112816832639222531E+01   -0.795223040556970684E+00   -0.256627132753473452E+05
    0.112939063697579600E+01   -0.854582710277149715E+00   -0.256627121400011019E+05
    0.112980516735883052E+01   -0.868108895010337722E+00   -0.256627117777766362E+05
    0.113069626000580969E+01   -0.850028865623701613E+00   -0.256627108765562771E+05
    0.112709299871786328E+01   -0.639047455383161545E+00   -0.256627103919091969E+05
    0.113050467989771874E+01   -0.870215816189336300E+00   -0.256627080161305021E+05
    0.113069548532913489E+01   -0.846086930965230355E+00   -0.256627072435409937E+05
    0.112972540146648948E+01   -0.729263346146961977E+00   -0.256627066540787164E+05
    0.112887517712209640E+01   -0.831770196884589641E+00   -0.256627060586493826E+05
    0.113065933899616411E+01   -0.824115310502494536E+00   -0.256627052277392359E+05
    0.112976567570807296E+01   -0.866045733697985876E+00   -0.256627019905935413E+05
    0.112904152714707529E+01   -0.838930117581541346E+00   -0.256626993632734084E+05
    0.112719491042750342E+01   -0.640685934870284690E+00   -0.256626985753951376E+05
    0.112655038282632969E+01   -0.652590054077250015E+00   -0.256626947022482054E+05
    0.112780967859284909E+01   -0.651484944569102886E+00   -0.256626941445602861E+05
    0.112653915325547027E+01   -0.660193979525831809E+00   -0.256626907725459569E+05
    0.113036166911476599E+01   -0.781887934613512137E+00   -0.256626903397816277E+05
    0.113050114536122726E+01   -0.866519322387339308E+00   -0.256626898421449187E+05
    0.113044194897032346E+01   -0.791246429508696281E+00   -0.256626897831810675E+05
    0.112702963286081026E+01   -0.640439306962146127E+00   -0.256626886075115544E+05
    0.112776017791987293E+01   -0.768428118563159845E+00   -0.256626794546372439E+05
    0.112844205008359211E+01   -0.807781270901614779E+00   -0.256626792879670102E+05
    0.113055957228990689E+01   -0.810862147657276600E+00   -0.256626787062003168E+05
    0.112675869081689806E+01   -0.643957696664165802E+00   -0.256626750482667048E+05
    0.112668200053451129E+01   -0.684178128285471532E+00   -0.256626730269174186E+05
    0.112689563698944184E+01   -0.642258319139032974E+00   -0.256626716923524946E+05
    0.113062474336228025E+01   -0.833654044517824211E+00   -0.256626704651207401E+05
    0.113061725896523457E+01   -0.840587521269605453E+00   -0.256626657932169437E+05
    0.113041965380849074E+01   -0.863035412355151133E+00   -0.256626568548605428E+05
    0.112988271097101745E+01   -0.863567745428099887E+00   -0.256626539004194528E+05
    0.112729579035214877E+01   -0.735458592917408227E+00   -0.256626532266743852E+05
    0.113004587588849725E+01   -0.756853044175195944E+00   -0.256626516117996725E+05
    0.112970217132890216E+01   -0.858591276270961989E+00   -0.256626470744821236E+05
    0.112868991474689118E+01   -0.681695425539588395E+00   -0.256626452880059915E+05
    0.112941918310782796E+01   -0.849403395871467515E+00   -0.256626443337372730E+05
    0.112846584531004934E+01   -0.806217702649996815E+00   -0.256626429283079451E+05
    0.113012331634296537E+01   -0.864998279904618084E+00   -0.256626425820094810E+05
    0.113036611421524391E+01   -0.861578222528631699E+00   -0.256626401840353938E+05
    0.112869086652028994E+01   -0.682167804431819791E+00   -0.256626379953356918E+05
    0.112668049436470863E+01   -0.654498868105278353E+00   -0.256626373119014825E+05
    0.112702877266782542E+01   -0.645004835283824907E+00   -0.256626356925053296E+05
    0.112874628892765339E+01   -0.819801477294760605E+00   -0.256626346430633057E+05
    0.112913685879874937E+01   -0.837463751353173302E+00   -0.256626337379630131E+05
    0.112817596951946086E+01   -0.789613336512530850E+00   -0.256626336532155219E+05
    0.112670639870821665E+01   -0.653319750822982437E+00   -0.256626326431313246E+05
    0.112672209766052722E+01   -0.681373220054688034E+00   -0.256626323923397758E+05
    0.112750490065422859E+01   -0.748014372796791616E+00   -0.256626305148958454E+05
    0.112884505085857434E+01   -0.688873989255013086E+00   -0.256626303511191072E+05
    0.112992295888858951E+01   -0.861337914530760473E+00   -0.256626293213197896E+05
    0.112924112394634646E+01   -0.841084483572648534E+00   -0.256626268995853388E+05
    0.112969178351915911E+01   -0.733431560371364144E+00   -0.256626255213956902E+05
    0.112997413118598811E+01   -0.753702011409193684E+00   -0.256626255043032324E+05
    0.112969022440622702E+01   -0.855865382400905039E+00   -0.256626246659167518E+05
    0.112826399605710082E+01   -0.793820168470467102E+00   -0.256626243916062413E+05
    0.112737882619707497E+01   -0.738666394387794467E+00   -0.256626228524372236E+05
    0.113038419948047597E+01   -0.795730337394033649E+00   -0.256626227584988592E+05
    0.112939805384044067E+01   -0.846546177437808911E+00   -0.256626224101565531E+05
    0.112674052843385564E+01   -0.653764553743215515E+00   -0.256626196224989872E+05
    0.112669259487264606E+01   -0.669579106272536251E+00   -0.256626163256372020E+05
    0.113047837189582756E+01   -0.814295600296923938E+00   -0.256626158935799504E+05
    0.112691872680181460E+01   -0.700564509442332284E+00   -0.256626121455461616E+05
    0.113006305975221721E+01   -0.860424264487714696E+00   -0.256626118115574463E+05
    0.113001553033407776E+01   -0.860030269760818422E+00   -0.256626109122242851E+05
    0.113014818108031845E+01   -0.860066405848090687E+00   -0.256626097550488776E+05
    0.112978084116885347E+01   -0.740853863123034806E+00   -0.256626090844550854E+05
    0.112961194594045811E+01   -0.851752764224799952E+00   -0.256626062948281360E+05
    0.112741064651592859E+01   -0.649736946622363920E+00   -0.256626054418397689E+05
    0.112962120762177287E+01   -0.851732966952557957E+00   -0.256626037079034213E+05
    0.113014624748478987E+01   -0.859101899506878208E+00   -0.256626036280917397E+05
    0.112672205932888403E+01   -0.661543134874475358E+00   -0.256626035554460286E+05
    0.112710124707844228E+01   -0.647941940688966822E+00   -0.256626029759543198E+05
    0.112974247553613649E+01   -0.739116120965352730E+00   -0.256625987704357140E+05
    0.112832864092343454E+01   -0.671728645578319794E+00   -0.256625967565765823E+05
    0.112710290137694669E+01   -0.648621924131692174E+00   -0.256625958623247570E+05
    0.113046046974543168E+01   -0.821162172633044918E+00   -0.256625930330768315E+05
    0.112861870760362137E+01   -0.809362320420644821E+00   -0.256625849840426927E+05
    0.112966008469564905E+01   -0.850564190866430980E+00   -0.256625838497647273E+05
    0.113030471067993599E+01   -0.850844656354133200E+00   -0.256625803165459001E+05
    0.112939510902045281E+01   -0.842263881120794089E+00   -0.256625802200393045E+05
    0.112883549019366658E+01   -0.691711628818198587E+00   -0.256625794769301974E+05
    0.112977166705668619E+01   -0.742942540204886814E+00   -0.256625794141457627E+05
    0.112770189561412737E+01   -0.656341594419258989E+00   -0.256625791724175760E+05
    0.113044121103125095E+01   -0.828056217517099125E+00   -0.256625790018869156E+05
    0.113041838921876892E+01   -0.838879038254276788E+00   -0.256625783900330862E+05
    0.112862901890700584E+01   -0.809216648321659404E+00   -0.256625771936605706E+05
    0.113040537484886006E+01   -0.812554498272436421E+00   -0.256625771920548468E+05
    0.113041323466378296E+01   -0.815084111382221810E+00   -0.256625765659727258E+05
    0.112900876532978911E+01   -0.826660640081465781E+00   -0.256625741319028712E+05
    0.112863285462103136E+01   -0.762766846125535469E+00   -0.256621956963901794E+05
    0.112888629170419641E+01   -0.745648328047713749E+00   -0.256621670620808945E+05
    0.112964900147660696E+01   -0.774763135632457356E+00   -0.256623060823829655E+05
    0.112968312553511341E+01   -0.821179362018956915E+00   -0.256623774937866438E+05
    0.113025302548672801E+01   -0.809880204288893957E+00   -0.256625014502958475E+05
    0.112901256359394120E+01   -0.775238652511427651E+00   -0.256621982433440862E+05
    0.112769875482631754E+01   -0.728146321704485011E+00   -0.256623301430547363E+05
    0.112769875482631754E+01   -0.728146321704485011E+00   -0.256623301430547363E+05
    0.112972495478330526E+01   -0.752099226454492120E+00   -0.256624622923604511E+05
    0.112875241038723528E+01   -0.730623058779255485E+00   -0.256621846645760015E+05
    0.112774739721964723E+01   -0.715400182831605225E+00   -0.256622570030101015E+05
    0.112983217019470850E+01   -0.792065884958571331E+00   -0.256623442378599284E+05
    0.112946969266554964E+01   -0.843868333963223138E+00   -0.256625720817988440E+05
    0.113016343679771536E+01   -0.830007802525895899E+00   -0.256624787745379545E+05
    0.112805324825894804E+01   -0.772743986972347363E+00   -0.256625164268990520E+05
    0.112828986444151269E+01   -0.714623642672766124E+00   -0.256621838635745626E+05
    0.112828986444151269E+01   -0.714623642672766124E+00   -0.256621838635745626E+05
    0.112971374218431952E+01   -0.840583415676032120E+00   -0.256624946052703344E+05
    0.112727712167258387E+01   -0.678525449234164579E+00   -0.256623852456775821E+05
    0.112768070397876263E+01   -0.713347514914094427E+00   -0.256622737232996260E+05
    0.113030720636864013E+01   -0.815717815641099353E+00   -0.256625210938099954E+05
    0.112727275743928201E+01   -0.710779468729401565E+00   -0.256624513071791043E+05
    0.112909175566157627E+01   -0.751240590371114125E+00   -0.256621937176416577E+05
    0.112904695087619045E+01   -0.727650455094984050E+00   -0.256622917775809328E+05
    0.112904695087619045E+01   -0.727650455094984050E+00   -0.256622917775809328E+05
    0.112987477948206028E+01   -0.788603389779992892E+00   -0.256623654596574634E+05
    0.112803805879995966E+01   -0.734646281934844048E+00   -0.256622280817971005E+05
    0.112730976701721897E+01   -0.728554155999902919E+00   -0.256625693718537150E+05
    0.112961021857930399E+01   -0.734295560390818558E+00   -0.256625535070935221E+05
    0.112736658251042066E+01   -0.658255984518723469E+00   -0.256625010297300541E+05
    0.112968300537227462E+01   -0.754116786950417506E+00   -0.256624213064056894E+05
    0.112831160747478831E+01   -0.750061653420170282E+00   -0.256622138810333636E+05
    0.112837205340724100E+01   -0.767466473330726373E+00   -0.256622990776725092E+05
    0.112700157394066558E+01   -0.690477957078729165E+00   -0.256625032641302714E+05
    0.112953055728017526E+01   -0.728542390074314206E+00   -0.256625614347505216E+05
    0.112743031739251132E+01   -0.664116104597976875E+00   -0.256624481830309123E+05
    0.112954588223558039E+01   -0.813453493405279726E+00   -0.256623390361673883E+05
    0.112904732417552811E+01   -0.773034817501476512E+00   -0.256621913250777361E+05
    0.112904732417552811E+01   -0.773034817501476512E+00   -0.256621913250777361E+05
    0.112703225030805632E+01   -0.673704823451623636E+00   -0.256624669683042339E+05
    0.112862086626360369E+01   -0.765051363423364661E+00   -0.256622083075129267E+05
    0.112862086626360369E+01   -0.765051363423364661E+00   -0.256622083075129267E+05
    0.112767166713782574E+01   -0.717694620487352886E+00   -0.256622910698208361E+05
    0.112947769675615994E+01   -0.825003594191148215E+00   -0.256624137021101378E+05
    0.112747365956872159E+01   -0.682421157287587121E+00   -0.256623345015808700E+05
    0.112747365956872159E+01   -0.682421157287587121E+00   -0.256623345015808700E+05
    0.112914934406916334E+01   -0.793719378138914466E+00   -0.256622644318660678E+05
    0.112765002145712590E+01   -0.722471804484542846E+00   -0.256623214989177504E+05
    0.113038779009195256E+01   -0.821253695782680371E+00   -0.256625557685291897E+05
    0.112904147997475812E+01   -0.769614090300705822E+00   -0.256621839308979252E+05
    0.112889465145515544E+01   -0.694919350496025601E+00   -0.256625695363535597E+05
    0.112792450295050628E+01   -0.714026939856970744E+00   -0.256622102515668194E+05
    0.113002665913325684E+01   -0.836349371938400754E+00   -0.256624728937386535E+05
    0.112786979774404861E+01   -0.706994477606563532E+00   -0.256622212133270259E+05
    0.112805829319526429E+01   -0.762536928543208647E+00   -0.256624085289520153E+05
    0.112964443945161186E+01   -0.811333073798184756E+00   -0.256623328253356121E+05
    0.112930843446049733E+01   -0.746775894360844683E+00   -0.256622795469697339E+05
    0.112978749827601677E+01   -0.833101495220149424E+00   -0.256624417359427207E+05
    0.112753123314870951E+01   -0.664375162582111489E+00   -0.256624507839947983E+05
    0.112730744155204166E+01   -0.724469816223878738E+00   -0.256625327789399307E+05
    0.112810173544386760E+01   -0.746644962321959538E+00   -0.256622657906438217E+05
    0.112882149890506334E+01   -0.709705648972658754E+00   -0.256623476000083974E+05
    0.112849186719389349E+01   -0.800029517734611950E+00   -0.256625513840626591E+05
    0.112783153200233821E+01   -0.693278250390671813E+00   -0.256622588649815298E+05
    0.112783153200233821E+01   -0.693278250390671813E+00   -0.256622588649815298E+05
    0.112799423432964607E+01   -0.754450123536631656E+00   -0.256623714409275526E+05
    0.113035885090008170E+01   -0.814130766071293532E+00   -0.256625488654822184E+05
    0.112996067707295067E+01   -0.790850512742089951E+00   -0.256623979939231031E+05
    0.112831762747980591E+01   -0.719605922864350322E+00   -0.256621714829396296E+05
    0.112850777019457915E+01   -0.743166092578454673E+00   -0.256621568943247403E+05
    0.112873706656959927E+01   -0.784583192845009769E+00   -0.256622948236479388E+05
    0.112961453881340734E+01   -0.767151205336896513E+00   -0.256623159377488664E+05
    0.112816824463844867E+01   -0.700310975110818745E+00   -0.256622372351148551E+05
    0.112816824463844867E+01   -0.700310975110818745E+00   -0.256622372351148551E+05
    0.112889129798438059E+01   -0.814330453639538598E+00   -0.256624974010352344E+05
    0.112927959820060098E+01   -0.818306082062175699E+00   -0.256624013158487978E+05
    0.113008345686638867E+01   -0.832817030201857822E+00   -0.256624684164639075E+05
    0.112732520863995678E+01   -0.683422784867107058E+00   -0.256623630799510174E+05
    0.112984454369469489E+01   -0.801330213855935947E+00   -0.256623467069129583E+05
    0.112834899993390270E+01   -0.762162794911369401E+00   -0.256622705518040930E+05
    0.112878607455052071E+01   -0.744495521781665559E+00   -0.256621571583277619E+05
    0.112904212241625235E+01   -0.765032335504853611E+00   -0.256621775153185299E+05
    0.112963054062288082E+01   -0.823702895344342156E+00   -0.256623913331780350E+05
    0.112709516977838087E+01   -0.661268336809062607E+00   -0.256624946063758907E+05
    0.112927149958855733E+01   -0.775290594911368425E+00   -0.256622092587432489E+05
    0.112927149958855733E+01   -0.775290594911368425E+00   -0.256622092587432489E+05
    0.113036270902092983E+01   -0.839323619008508492E+00   -0.256625597233868793E+05
    0.112963703248425018E+01   -0.763995055150782587E+00   -0.256623391687633084E+05
    0.112684674059297008E+01   -0.671767252408525639E+00   -0.256625424013122283E+05
    0.112792682621414553E+01   -0.691501437109962591E+00   -0.256622681307707826E+05
    0.113038803429479939E+01   -0.824214043965816767E+00   -0.256625546427996414E+05
    0.112852103519845359E+01   -0.790607963070694364E+00   -0.256624337800663488E+05
    0.112956149263728944E+01   -0.822289606257733841E+00   -0.256623867519350570E+05
    0.112782733722636097E+01   -0.683600509764291653E+00   -0.256623123798377710E+05
    0.113026218789148158E+01   -0.805776338715616047E+00   -0.256625132640459196E+05
    0.112801921926175508E+01   -0.715684264435659578E+00   -0.256621948245842068E+05
    0.112801921926175508E+01   -0.715684264435659578E+00   -0.256621948245842068E+05
    0.112847096239276601E+01   -0.731191121816759271E+00   -0.256621552344345691E+05
    0.112847096239276601E+01   -0.731191121816759271E+00   -0.256621552344345691E+05
    0.112999549493661045E+01   -0.821606647327438377E+00   -0.256624168328995293E+05
    0.112809412585826996E+01   -0.730082331643068239E+00   -0.256621977512076191E+05
    0.112895912440301771E+01   -0.709859972660721095E+00   -0.256624138854786615E+05
    0.112874903163484408E+01   -0.702521077727736643E+00   -0.256623892484305288E+05
    0.112747476459961860E+01   -0.680923373310963198E+00   -0.256623398893271369E+05
    0.112962391071008250E+01   -0.812924124056738417E+00   -0.256623379725414779E+05
    0.112869574011153917E+01   -0.696151420159065726E+00   -0.256624379403274252E+05
    0.112814494245279562E+01   -0.766762602988808384E+00   -0.256624001307718499E+05
    0.112750055261494220E+01   -0.727325238112354500E+00   -0.256624311744238476E+05
    0.112899187896432274E+01   -0.809075013604445115E+00   -0.256624073066144629E+05
    0.112864128532385699E+01   -0.762662384022437134E+00   -0.256621937373834771E+05
    0.112864128532385699E+01   -0.762662384022437134E+00   -0.256621937373834771E+05
    0.112801314800222086E+01   -0.726927786315333169E+00   -0.256622096754896338E+05
    0.113011001865172123E+01   -0.785638801561856059E+00   -0.256624934369365001E+05
    0.112749617660826740E+01   -0.701356806268199628E+00   -0.256623114648084193E+05
    0.112749617660826740E+01   -0.701356806268199628E+00   -0.256623114648084193E+05
    0.112781706841607932E+01   -0.687108385509256792E+00   -0.256622896299064450E+05
    0.112908332917255416E+01   -0.787863388447849422E+00   -0.256622427601260752E+05
    0.112827488993067471E+01   -0.736687100534692441E+00   -0.256621759750985111E+05
    0.112827488993067471E+01   -0.736687100534692441E+00   -0.256621759750985111E+05
    0.112720095328685144E+01   -0.709222865447516115E+00   -0.256624845297412394E+05
    0.112736660149161327E+01   -0.717580537562348741E+00   -0.256624403042270351E+05
    0.112781498924860957E+01   -0.718324988464512204E+00   -0.256622433217117723E+05
    0.112836301324690069E+01   -0.754233617564531000E+00   -0.256622195924133957E+05
    0.113005064194480953E+01   -0.831438160032283768E+00   -0.256624574853562808E+05
    0.112912724441086754E+01   -0.722005173734870720E+00   -0.256623775906788760E+05
    0.112944613123460735E+01   -0.753530885341116674E+00   -0.256623029244689569E+05
    0.112757421615258790E+01   -0.690730010979095699E+00   -0.256622943634974945E+05
    0.112904180158602285E+01   -0.725975133645608839E+00   -0.256623022172705460E+05
    0.113038012319158332E+01   -0.835127754828120628E+00   -0.256625582786702253E+05
    0.112944010422638508E+01   -0.801551487659050377E+00   -0.256622860256836902E+05
    0.112689792631943009E+01   -0.686226454978124067E+00   -0.256625454564379797E+05
    0.112861682360461124E+01   -0.736819827002563876E+00   -0.256621534602189968E+05
    0.112861682360461124E+01   -0.736819827002563876E+00   -0.256621534602189968E+05
    0.112935863602400044E+01   -0.825142477998479063E+00   -0.256624371464149008E+05
    0.113016375659909984E+01   -0.803237407614445953E+00   -0.256624684234974739E+05
    0.112886508629046700E+01   -0.761870998621098749E+00   -0.256621689940617362E+05
    0.112865237818192554E+01   -0.729294504616267769E+00   -0.256621723296435375E+05
    0.112997497877254904E+01   -0.762614142862052091E+00   -0.256625468320206055E+05
    0.113003987605081146E+01   -0.836037966520421172E+00   -0.256624733518141802E+05
    0.112903635178386264E+01   -0.827193509348625566E+00   -0.256625670898546960E+05
    0.112796262834323224E+01   -0.727759028939730435E+00   -0.256622261215251492E+05
    0.112796262834323224E+01   -0.727759028939730435E+00   -0.256622261215251492E+05
    0.112724207131147303E+01   -0.703293493130025649E+00   -0.256624278402667151E+05
    0.112828466494524760E+01   -0.733660007877052545E+00   -0.256621688514011730E+05
    0.112786030431753526E+01   -0.759905399624465350E+00   -0.256625040523845491E+05
    0.112997341864952938E+01   -0.783072446659349053E+00   -0.256624273790033185E+05
    0.112954816823217685E+01   -0.776214331050531170E+00   -0.256622686577453751E+05
    0.112790898211764157E+01   -0.760287657551605101E+00   -0.256624761912293543E+05
    0.112862999628639216E+01   -0.764802984867436697E+00   -0.256622052413326637E+05
    0.112782030555337087E+01   -0.720533790949339670E+00   -0.256622477296066536E+05
    0.112770820206092726E+01   -0.716717023116760332E+00   -0.256622739823732591E+05
    0.112736258691642144E+01   -0.732643088758719641E+00   -0.256625710480503221E+05
    0.112790284476785985E+01   -0.743141656257719996E+00   -0.256623297322457365E+05
    0.112790284476785985E+01   -0.743141656257719996E+00   -0.256623297322457365E+05
    0.112863856293765608E+01   -0.742487744739459554E+00   -0.256621512334341460E+05
    0.112868670100500523E+01   -0.736619743683341044E+00   -0.256621586582167329E+05
    0.112730636642508486E+01   -0.688372157482120217E+00   -0.256623648265381526E+05
    0.112874431394630292E+01   -0.742385588602603175E+00   -0.256621557650851755E+05
    0.112874431394630292E+01   -0.742385588602603175E+00   -0.256621557650851755E+05
    0.112838393574755447E+01   -0.734748591464799539E+00   -0.256621585883101725E+05
    0.112743631537043854E+01   -0.669916354056448116E+00   -0.256624028245696718E+05
    0.112806592789609184E+01   -0.691024827210174886E+00   -0.256622843953437114E+05
    0.112718273222527943E+01   -0.681156791988155597E+00   -0.256624082044422576E+05
    0.112844065347746536E+01   -0.781650197068366914E+00   -0.256623872515588264E+05
    0.112945701620117589E+01   -0.799813262752338883E+00   -0.256622800103970549E+05
    0.112982634264529969E+01   -0.815864253088968150E+00   -0.256623689377367700E+05
    0.112884206164442880E+01   -0.789211158135415980E+00   -0.256622968733768248E+05
    0.112884206164442880E+01   -0.789211158135415980E+00   -0.256622968733768248E+05
    0.112871656353161098E+01   -0.785282809715608821E+00   -0.256623064260897700E+05
    0.112896912974733077E+01   -0.771752148701574825E+00   -0.256621895801932842E+05
    0.112896912974733077E+01   -0.771752148701574825E+00   -0.256621895801932842E+05
    0.112779109487174134E+01   -0.690049882815288784E+00   -0.256622743714837998E+05
    0.112826665239441004E+01   -0.782389498864707322E+00   -0.256624884776721301E+05
    0.112890949798149220E+01   -0.812123240677892877E+00   -0.256624672095646238E+05
    0.112987905446951142E+01   -0.812178404056879577E+00   -0.256623696090594749E+05
    0.112970494631085039E+01   -0.754265522535942035E+00   -0.256624333399218776E+05
    0.112944353525157926E+01   -0.801363039299536561E+00   -0.256622853485284977E+05
    0.113032029085717456E+01   -0.835660749997744201E+00   -0.256625381348692608E+05
    0.112751811856861428E+01   -0.702480398727930888E+00   -0.256623057742755591E+05
    0.112870619236247105E+01   -0.763004835344707866E+00   -0.256621848286681779E+05
    0.112870619236247105E+01   -0.763004835344707866E+00   -0.256621848286681779E+05
    0.112883015716957491E+01   -0.756588030992836114E+00   -0.256621610061920910E+05
    0.112812521566456825E+01   -0.763704066058289666E+00   -0.256623827286056985E+05
    0.112965320180871753E+01   -0.807129027762554019E+00   -0.256623192030035825E+05
    0.112850159736452982E+01   -0.682207905882920018E+00   -0.256625261793465070E+05
    0.112859947919243497E+01   -0.743184583822741773E+00   -0.256621517977964322E+05
    0.112842531987522809E+01   -0.766257568794697086E+00   -0.256622705085286434E+05
    0.112726933736726220E+01   -0.665914336975940824E+00   -0.256624419462062360E+05
    0.112724445585487221E+01   -0.661872995524269925E+00   -0.256624719508531598E+05
    0.112944946570002891E+01   -0.797594558004424803E+00   -0.256622721339712007E+05
    0.112954116312822261E+01   -0.825842744906974735E+00   -0.256624112030785691E+05
    0.112975728947698473E+01   -0.821060626383228520E+00   -0.256623801950471752E+05
    0.112724508951490643E+01   -0.666710260907026342E+00   -0.256624400477819618E+05
    0.112920708548403192E+01   -0.765844806789002464E+00   -0.256621971781082393E+05
    0.113039006561553146E+01   -0.825623906798757412E+00   -0.256625554368655685E+05
    0.112835342521618109E+01   -0.744225873572270213E+00   -0.256621812023147650E+05
    0.112835342521618109E+01   -0.744225873572270213E+00   -0.256621812023147650E+05
    0.113021778260915617E+01   -0.809333692417988360E+00   -0.256624852715935740E+05
    0.112702805469105360E+01   -0.694011782014170020E+00   -0.256625031191309135E+05
    0.112765768955230294E+01   -0.701809145342771279E+00   -0.256622649979698326E+05
    0.112765768955230294E+01   -0.701809145342771279E+00   -0.256622649979698326E+05
    0.112972361214833894E+01   -0.750889984194821780E+00   -0.256624712254027945E+05
    0.112816491601619751E+01   -0.721939657438134041E+00   -0.256621758150268797E+05
    0.112967120134634280E+01   -0.795866890404978600E+00   -0.256622985322359345E+05
    0.112944242259183136E+01   -0.752603981699312197E+00   -0.256623060755345250E+05
    0.112968199110541212E+01   -0.809431161271384703E+00   -0.256623296382078224E+05
    0.112888191903752677E+01   -0.774678082964738168E+00   -0.256622072055261415E+05
    0.112752769226195859E+01   -0.700740391907493709E+00   -0.256623003635682071E+05
    0.112932598755933755E+01   -0.808453107104474267E+00   -0.256623259405660501E+05
    0.112932598755933755E+01   -0.808453107104474267E+00   -0.256623259405660501E+05
    0.112940455772545922E+01   -0.738577465163698932E+00   -0.256623807134903582E+05
    0.112907575866458032E+01   -0.791710456240520388E+00   -0.256622632249482922E+05
    0.112951586481133770E+01   -0.813978363345883249E+00   -0.256623423795744784E+05
    0.112709661352431167E+01   -0.706534755514980350E+00   -0.256625328533815737E+05
    0.112916176348899544E+01   -0.738211735721346907E+00   -0.256622685514869663E+05
    0.112916176348899544E+01   -0.738211735721346907E+00   -0.256622685514869663E+05
    0.112971766024039777E+01   -0.821854526692109344E+00   -0.256623817030642895E+05
    0.112878381755583312E+01   -0.757382236523516994E+00   -0.256621629496584574E+05
    0.112952509123367451E+01   -0.738409147400217236E+00   -0.256624535344703872E+05
    0.112957892232569490E+01   -0.808028788519075114E+00   -0.256623161074875279E+05
    0.112970103580985004E+01   -0.830160062936741605E+00   -0.256624264137223872E+05
    0.112863483772729989E+01   -0.725809338021163652E+00   -0.256621816569777620E+05
    0.112823660140004112E+01   -0.703171725291905414E+00   -0.256622292867652104E+05
    0.112714204396437179E+01   -0.710815928667673402E+00   -0.256625336124961032E+05
    0.112755885646871601E+01   -0.656094589095613800E+00   -0.256625483819884575E+05
    0.112913547907953937E+01   -0.811038791194693687E+00   -0.256623800270542597E+05
    0.112840860489745065E+01   -0.744301665022443659E+00   -0.256621714741739779E+05
    0.112933924217047021E+01   -0.810621881163906322E+00   -0.256623374560877928E+05
    0.112921542510712181E+01   -0.761831723915916026E+00   -0.256622019430524088E+05
    0.112959148643966634E+01   -0.769582777670576146E+00   -0.256622982709276876E+05
    0.112769591743329833E+01   -0.657611335657982021E+00   -0.256625594905933649E+05
    0.112853876016269616E+01   -0.722279891655368989E+00   -0.256621804341146235E+05
    0.112796634755706204E+01   -0.706326729781043161E+00   -0.256622108682584621E+05
    0.112949550900844287E+01   -0.781377102804348134E+00   -0.256622514067087832E+05
    0.112949550900844287E+01   -0.781377102804348134E+00   -0.256622514067087832E+05
    0.112779106762442538E+01   -0.728116976928270265E+00   -0.256622888240297143E+05
    0.112824871022745299E+01   -0.735208920305177260E+00   -0.256621774691086248E+05
    0.113008945821828988E+01   -0.800370203426406857E+00   -0.256624383078417741E+05
    0.112690713770983519E+01   -0.660902983671034727E+00   -0.256625396948421330E+05
    0.112895603564768310E+01   -0.774966361916891167E+00   -0.256622007767108735E+05
    0.112895603564768310E+01   -0.774966361916891167E+00   -0.256622007767108735E+05
    0.112853883152502643E+01   -0.700457903476634058E+00   -0.256623231953014765E+05
    0.112776741215902909E+01   -0.724232322416534124E+00   -0.256622801989261388E+05
    0.112858488640029009E+01   -0.715267596703996755E+00   -0.256622228028705977E+05
    0.112852698952489394E+01   -0.707858445373148681E+00   -0.256622572114045106E+05
    0.112760725476799495E+01   -0.740751828429964121E+00   -0.256624790420122517E+05
    0.112722334824868842E+01   -0.690120123918268158E+00   -0.256623964433687397E+05
    0.112971210231672803E+01   -0.838750617455258807E+00   -0.256624816954460257E+05
    0.112974868360481739E+01   -0.833535810115336062E+00   -0.256624450617175717E+05
    0.112795630291058524E+01   -0.729797513425568756E+00   -0.256622352312262738E+05
    0.112806669577178376E+01   -0.751853063429986035E+00   -0.256623151208450399E+05
    0.112809697662827579E+01   -0.769041878687856117E+00   -0.256624496132027853E+05
    0.112878084057425987E+01   -0.737118544131733611E+00   -0.256621691996955960E+05
    0.112994981538216610E+01   -0.795963082927536147E+00   -0.256623846161370311E+05
    0.112735673931710911E+01   -0.725212472039282297E+00   -0.256625054830739464E+05
    0.112775224914364403E+01   -0.702232211497695324E+00   -0.256622449542112008E+05
    0.112761670130831115E+01   -0.734540377036516645E+00   -0.256624187480276232E+05
    0.112766382354265415E+01   -0.689703835251858521E+00   -0.256622844074117929E+05
    0.112766382354265415E+01   -0.689703835251858521E+00   -0.256622844074117929E+05
    0.112945510053352960E+01   -0.818430372385483995E+00   -0.256623725578976700E+05
    0.112866444589136128E+01   -0.719024006265769122E+00   -0.256622201885950490E+05
    0.112839503590587320E+01   -0.776770320719289309E+00   -0.256623647500972511E+05
    0.112797673744665961E+01   -0.717715145959875178E+00   -0.256622024622409117E+05
    0.112803252332926540E+01   -0.758605156254510860E+00   -0.256623869118097900E+05
    0.112724182763943981E+01   -0.706066095456021836E+00   -0.256624418254107368E+05
    0.112743919020871264E+01   -0.698175983739568462E+00   -0.256623265278638028E+05
    0.112990667212035545E+01   -0.790169932578953294E+00   -0.256623758205603663E+05
    0.112751080296666206E+01   -0.736037653149792748E+00   -0.256624990469373697E+05
    0.112709385293584763E+01   -0.674282601692982375E+00   -0.256624455369341595E+05
    0.112854190217657147E+01   -0.754868139542713701E+00   -0.256621814038807242E+05
    0.112854190217657147E+01   -0.754868139542713701E+00   -0.256621814038807242E+05
    0.112823515680492825E+01   -0.731472988184091788E+00   -0.256621730597265450E+05
    0.112738046689031890E+01   -0.656265976773856563E+00   -0.256625225196471984E+05
    0.112811444899479429E+01   -0.732857846512030342E+00   -0.256622003525194668E+05
    0.112905854896350899E+01   -0.821804733900572737E+00   -0.256625016287852377E+05
    0.112900471296825655E+01   -0.718336054432402005E+00   -0.256623503429611374E+05
    0.112928878540157074E+01   -0.814486259858817174E+00   -0.256623710567344315E+05
    0.112958363056796296E+01   -0.790670385554680610E+00   -0.256622748554740829E+05
    0.112862697175786852E+01   -0.774907926523903834E+00   -0.256622621294554920E+05
    0.112893970070360927E+01   -0.736577448185519401E+00   -0.256622039238917860E+05
    0.112743495291461260E+01   -0.723696809272400765E+00   -0.256624431943433628E+05
    0.112765206672261797E+01   -0.697544431572993728E+00   -0.256622686203021804E+05
    0.112787841821111634E+01   -0.745242227393323242E+00   -0.256623576534370441E+05
    0.112878229979623379E+01   -0.710701525146577584E+00   -0.256623212737270042E+05
    0.112956883172955713E+01   -0.781221757390883731E+00   -0.256622696664250616E+05
    0.112829437720648595E+01   -0.690387410921581068E+00   -0.256623405521377681E+05
    0.112702213942100471E+01   -0.655115574288025915E+00   -0.256625462033697368E+05
    0.112707074522266470E+01   -0.708289363145479189E+00   -0.256625630943810102E+05
    0.112907054742727908E+01   -0.729292710474424677E+00   -0.256622897387609992E+05
    0.112726546254344528E+01   -0.683698958557668490E+00   -0.256623797703230193E+05
    0.112743406760041154E+01   -0.684468488368165318E+00   -0.256623355334320186E+05
    0.112823808552252514E+01   -0.786232809954616751E+00   -0.256625496890866598E+05
    0.112933112899705801E+01   -0.744762588453594887E+00   -0.256623006036705483E+05
    0.112952116009064918E+01   -0.844328770949599461E+00   -0.256625618048969882E+05
    0.112878595913806956E+01   -0.720828286311377298E+00   -0.256622434336592451E+05
    0.112882588283993046E+01   -0.800703993728594021E+00   -0.256623937962158707E+05
    0.112860440630709613E+01   -0.707135965035375902E+00   -0.256622862457763658E+05
    0.112680793666157797E+01   -0.668832487435643719E+00   -0.256625598599752375E+05
    0.112803137297428435E+01   -0.710938212972684003E+00   -0.256621973543959175E+05
    0.112848800032480545E+01   -0.724337311044446430E+00   -0.256621683063486344E+05
    0.112848800032480545E+01   -0.724337311044446430E+00   -0.256621683063486344E+05
    0.112879904107464890E+01   -0.792505709536412306E+00   -0.256623345464745435E+05
    0.112825175985520865E+01   -0.698587854583242240E+00   -0.256622607616953428E+05
    0.112803633640701850E+01   -0.671861533405651690E+00   -0.256624697909651368E+05
    0.113005964201765297E+01   -0.817559693004691557E+00   -0.256624256313189144E+05
    0.112782177302325648E+01   -0.718421778900256491E+00   -0.256622415199225470E+05
    0.112855812010536161E+01   -0.730894277940666859E+00   -0.256621586281009222E+05
    0.112855812010536161E+01   -0.730894277940666859E+00   -0.256621586281009222E+05
    0.112997746058856041E+01   -0.828246574053258966E+00   -0.256624336904382690E+05
    0.112691460458221027E+01   -0.672707917452571635E+00   -0.256625129012535508E+05
    0.112929699871537892E+01   -0.728418194830132038E+00   -0.256624099291224375E+05
    0.112941271812801869E+01   -0.752290605147007740E+00   -0.256622947184538207E+05
    0.112680161461698525E+01   -0.669540136141247189E+00   -0.256625626252503826E+05
    0.112916313380037314E+01   -0.810490847988593277E+00   -0.256623688169005436E+05
    0.112998575800626311E+01   -0.838368539786930489E+00   -0.256624777898315442E+05
    0.112935210386360696E+01   -0.795074514732669657E+00   -0.256622602232929275E+05
    0.112866428623255555E+01   -0.728876329698275205E+00   -0.256621754444352955E+05
    0.112839527748946145E+01   -0.731929593154742930E+00   -0.256621567544236241E+05
