    0.132446433733648590E+02    0.999188637275588931E+00   -0.257496011963988567E+05
    0.135699810108395411E+02    0.801785164021052044E+00   -0.257493801322515246E+05
    0.132275731586161740E+02    0.108264793825282224E+01   -0.257483258439019410E+05
    0.135550563853395225E+02    0.769464411931604308E+00   -0.257482154934317077E+05
    0.133711856142595664E+02    0.780981228029490770E+00   -0.257480485450860324E+05
    0.132021879065937942E+02    0.151162967180091012E+01   -0.257479919545111698E+05
    0.131872405373887798E+02    0.148338263092536726E+01   -0.257477545747911463E+05
    0.134288982597541704E+02    0.122736302413254639E+01   -0.257473965030944673E+05
    0.135143569419825997E+02    0.698413017269818859E+00   -0.257473235480358962E+05
    0.133250883994350247E+02    0.140744084781357692E+01   -0.257471774553992836E+05
    0.132444154295795098E+02    0.147663357569616505E+01   -0.257470492457834844E+05
    0.132433466524810743E+02    0.147613756197015267E+01   -0.257470264074297738E+05
    0.132422955142665000E+02    0.108749983724175325E+01   -0.257469100526402144E+05
    0.134194414783737948E+02    0.750568417457180836E+00   -0.257468145263604711E+05
    0.133671882607345154E+02    0.820757469171222720E+00   -0.257467546814390189E+05
    0.134799072088739429E+02    0.106286558788887442E+01   -0.257465269728270578E+05
    0.135229348571130732E+02    0.859621417811198829E+00   -0.257465019282664034E+05
    0.134098306947184653E+02    0.770430638839551873E+00   -0.257465003469099756E+05
    0.132376263652108861E+02    0.112063825345236268E+01   -0.257464476013479507E+05
    0.135194617069667053E+02    0.877826037609817256E+00   -0.257464025811230240E+05
    0.135033335119713964E+02    0.738678399999809776E+00   -0.257464000109873341E+05
    0.135135120973683538E+02    0.762672902155634658E+00   -0.257463316004379667E+05
    0.132474130229363283E+02    0.109609127126835482E+01   -0.257462896578594446E+05
    0.134516775625422156E+02    0.113562583085055335E+01   -0.257462718136389376E+05
    0.134044224521854005E+02    0.786950153746326486E+00   -0.257461631434677220E+05
    0.133288440525339311E+02    0.137213863562558491E+01   -0.257461421677084072E+05
    0.132301780984951911E+02    0.143734034563593527E+01   -0.257461380294635128E+05
    0.132170962012766484E+02    0.121705280238930413E+01   -0.257461239564313328E+05
    0.134913449626142778E+02    0.747013933154385135E+00   -0.257460681782756001E+05
    0.134433121109014113E+02    0.754381705739576858E+00   -0.257460437771328579E+05
    0.132049423987867840E+02    0.135000245588727785E+01   -0.257459576509422295E+05
    0.132680714084299112E+02    0.105205111738643975E+01   -0.257458854469484759E+05
    0.132467880568989678E+02    0.111634023854805231E+01   -0.257458677939968366E+05
    0.132608326707892576E+02    0.107823967370228901E+01   -0.257457446548863845E+05
    0.134367430132435075E+02    0.115507173149807363E+01   -0.257457408666087431E+05
    0.134911670830405122E+02    0.766939929877237803E+00   -0.257457359177373837E+05
    0.132137736606254492E+02    0.137887811766712365E+01   -0.257457257175929553E+05
    0.132143393408442869E+02    0.126928700034373554E+01   -0.257457215322458069E+05
    0.134515372369526354E+02    0.111330416402707932E+01   -0.257456827341194621E+05
    0.132903212252264691E+02    0.100435671468465193E+01   -0.257456273202905686E+05
    0.133493050355702962E+02    0.132448433326010040E+01   -0.257455708190128680E+05
    0.134811044081904292E+02    0.768670017964990349E+00   -0.257455688861081144E+05
    0.134084181203860311E+02    0.121178721090949182E+01   -0.257454666139431029E+05
    0.132214589803280962E+02    0.137652319599115724E+01   -0.257454637866584853E+05
    0.133455645940490371E+02    0.132506612487831599E+01   -0.257454183446033276E+05
    0.133056232772639564E+02    0.137531012756457760E+01   -0.257454052958260036E+05
    0.134176701093774948E+02    0.118853222288774329E+01   -0.257453973334301845E+05
    0.132276107314890741E+02    0.138580293079102002E+01   -0.257453966646561057E+05
    0.133425323884529146E+02    0.903023482936677002E+00   -0.257453931005116574E+05
    0.134986708522988135E+02    0.821256319659768863E+00   -0.257453644285180853E+05
    0.134777014477556349E+02    0.100932726513440629E+01   -0.257453091883166380E+05
    0.132192690448034877E+02    0.131717728916048671E+01   -0.257452841337503014E+05
    0.132439021171181182E+02    0.139523452511046120E+01   -0.257452632195414262E+05
    0.134942401508634120E+02    0.817277498657543178E+00   -0.257452455523032186E+05
    0.134748598195684934E+02    0.101643947870010698E+01   -0.257452450059364273E+05
    0.132360687967836537E+02    0.138664235753912246E+01   -0.257452388772344275E+05
    0.133261354510972136E+02    0.939507183686884684E+00   -0.257452340677293396E+05
    0.134391938942431359E+02    0.788481023751721577E+00   -0.257452238642582015E+05
    0.132223994535477765E+02    0.131587134879558865E+01   -0.257451482028724786E+05
    0.132440798077394568E+02    0.138804643087359092E+01   -0.257451472713907897E+05
    0.133830931937606223E+02    0.125204183540384273E+01   -0.257451442691292614E+05
    0.132628163209339327E+02    0.139143019765845088E+01   -0.257451281644692390E+05
    0.134951186824231470E+02    0.883645313192098047E+00   -0.257451151289707304E+05
    0.134919785769724641E+02    0.829557132203298520E+00   -0.257450929790473638E+05
    0.132304132918596800E+02    0.136250695198399918E+01   -0.257450925516988027E+05
    0.133405012603820907E+02    0.919016671826923037E+00   -0.257450357393206832E+05
    0.132281684829158657E+02    0.134593743239373898E+01   -0.257450343665057626E+05
    0.132972222477283424E+02    0.101067010913952515E+01   -0.257450223943323326E+05
    0.133711005911377185E+02    0.126900875872820196E+01   -0.257450030725460747E+05
    0.132500603789710993E+02    0.115167297458392959E+01   -0.257449854836598061E+05
    0.133032331762565228E+02    0.998904706673962139E+00   -0.257449600651633446E+05
    0.132414362087753297E+02    0.119033117533690969E+01   -0.257449448699188397E+05
    0.134118640426648010E+02    0.820929286912955969E+00   -0.257449444177153127E+05
    0.134640356116371223E+02    0.103790510444320372E+01   -0.257449347263524032E+05
    0.133146515926621429E+02    0.975267038251276142E+00   -0.257449084873598331E+05
    0.134507994741295320E+02    0.107978638184296560E+01   -0.257448974286031771E+05
    0.133023669213993401E+02    0.100405874864455669E+01   -0.257448815981016778E+05
    0.133931515636488143E+02    0.122236351171928725E+01   -0.257448760493414593E+05
    0.133373615782418948E+02    0.931098546911813818E+00   -0.257448629192201333E+05
    0.134781464226267609E+02    0.815936891644121309E+00   -0.257448548215332994E+05
    0.133978819673180283E+02    0.839707581933245573E+00   -0.257448430253036422E+05
    0.132598289038746291E+02    0.137307310579717323E+01   -0.257447900892658326E+05
    0.134771204214104952E+02    0.972095622698045725E+00   -0.257447812033056252E+05
    0.133592414669429900E+02    0.128041158290034485E+01   -0.257447636427896941E+05
    0.133773217861376530E+02    0.124683427377511968E+01   -0.257447099153675263E+05
    0.133985610650178355E+02    0.844098660739573514E+00   -0.257447095906293653E+05
    0.134845308514575191E+02    0.910120490413143801E+00   -0.257447085004165019E+05
    0.133738027597766891E+02    0.125245702023488237E+01   -0.257446883976392892E+05
    0.132762732769891088E+02    0.108178330215211194E+01   -0.257446732678917506E+05
    0.134141684062679190E+02    0.116794089867189466E+01   -0.257446688909718978E+05
    0.132990941294915022E+02    0.102129186287663742E+01   -0.257446567592472675E+05
    0.134021538978332977E+02    0.119388611106100595E+01   -0.257446359617699927E+05
    0.134445759457373004E+02    0.108516411765905474E+01   -0.257446329745781331E+05
    0.132801763489950435E+02    0.136184830681411317E+01   -0.257446264128315124E+05
    0.133826719105025393E+02    0.123346351370029939E+01   -0.257446258133332049E+05
    0.134145204301413674E+02    0.831499724734975798E+00   -0.257446236568986496E+05
    0.133492211766342646E+02    0.129005482038686248E+01   -0.257446027061311397E+05
    0.134341504229141506E+02    0.819567182643082259E+00   -0.257445876741198881E+05
    0.132883120514956570E+02    0.135546926649447363E+01   -0.257445766585013880E+05
    0.132420866533728585E+02    0.133567159700398586E+01   -0.257445752423154445E+05
    0.133297449877925125E+02    0.131578548038141552E+01   -0.257445678453942019E+05
    0.134724608094476945E+02    0.834860997275145289E+00   -0.257445455418345191E+05
    0.132465138853228996E+02    0.134091281107732563E+01   -0.257445224960220512E+05
    0.132665604397916361E+02    0.135734630893967556E+01   -0.257445085772804741E+05
    0.133517693968601385E+02    0.918733317023125329E+00   -0.257445054785551692E+05
    0.133571864584465381E+02    0.910350892175190718E+00   -0.257444868775709183E+05
    0.132913430693933687E+02    0.134934291836976805E+01   -0.257444863564648622E+05
    0.134594178756920879E+02    0.102574036477870711E+01   -0.257444824650784612E+05
    0.133702333437783913E+02    0.890400422708805150E+00   -0.257444744376123454E+05
    0.134791972401720130E+02    0.884862319299838496E+00   -0.257444609790002651E+05
    0.132843180984897824E+02    0.107057733481583917E+01   -0.257444345792185195E+05
    0.133724103745364182E+02    0.889098060683790159E+00   -0.257444266234745155E+05
    0.134703830821233694E+02    0.971067305007615622E+00   -0.257444219776712707E+05
    0.132665330287969283E+02    0.112739385074645271E+01   -0.257444174177678506E+05
    0.133288234924939850E+02    0.965322216822161572E+00   -0.257444109195244382E+05
    0.132407016479274411E+02    0.128366376272742277E+01   -0.257444080565830554E+05
    0.133556896628780137E+02    0.127190932805329782E+01   -0.257443989218823481E+05
    0.134281888500252222E+02    0.832498590253684334E+00   -0.257443851197597069E+05
    0.134216679475863394E+02    0.113646564773531944E+01   -0.257443799312336414E+05
    0.133823501224802737E+02    0.122409428550218946E+01   -0.257443785094616906E+05
    0.134751313349576041E+02    0.877953587058324603E+00   -0.257443384990485029E+05
    0.133439175997016264E+02    0.939337830061939494E+00   -0.257443373139316609E+05
    0.132982424136600859E+02    0.103954218398175979E+01   -0.257443032158181304E+05
    0.134482989495270715E+02    0.105349654765189760E+01   -0.257442947588627212E+05
    0.134041745235069758E+02    0.856365056654954770E+00   -0.257442737049097414E+05
    0.132451920661941784E+02    0.129030319511258318E+01   -0.257442604652990267E+05
    0.134738368911496416E+02    0.898570110347573503E+00   -0.257442593928045608E+05
    0.132981186945786867E+02    0.133381390708325176E+01   -0.257442583548799485E+05
    0.133650969923875369E+02    0.125014289263500022E+01   -0.257442481275421887E+05
    0.133281487052683509E+02    0.130407417519847924E+01   -0.257442416795114041E+05
    0.132487885588939349E+02    0.122588570666940910E+01   -0.257442402835290268E+05
    0.134623688409597655E+02    0.848149857695268516E+00   -0.257442322501066083E+05
    0.134144892384343422E+02    0.849326992900245048E+00   -0.257442270844561681E+05
    0.133374491822081360E+02    0.129059043816805352E+01   -0.257442045997371533E+05
    0.134697265890790803E+02    0.943739342065815334E+00   -0.257442015081015415E+05
    0.132871042441867502E+02    0.133653517944855116E+01   -0.257441962878923405E+05
    0.132581395121766725E+02    0.132841989949571859E+01   -0.257441955640898814E+05
    0.134586835781456990E+02    0.100599589540201162E+01   -0.257441952023177291E+05
    0.133485656561075476E+02    0.127345370595308616E+01   -0.257441725938346171E+05
    0.132595689587359900E+02    0.132676419798783085E+01   -0.257441574775940353E+05
    0.133626678002975083E+02    0.125039916242049798E+01   -0.257441571439319814E+05
    0.133925240204720417E+02    0.874144982593756836E+00   -0.257441544365527152E+05
    0.133846688393013924E+02    0.120981635179119484E+01   -0.257441511896569100E+05
    0.132489654799566701E+02    0.128080580086097262E+01   -0.257441200980020985E+05
    0.134128662422192733E+02    0.856003427540556361E+00   -0.257441153362534897E+05
    0.133289179354599892E+02    0.977837592203776973E+00   -0.257441145268871624E+05
    0.134476262847980443E+02    0.847797738870320505E+00   -0.257440755942334763E+05
    0.134672464842830344E+02    0.886861602224164436E+00   -0.257440736921849675E+05
    0.132646887075900271E+02    0.132439231591526063E+01   -0.257440663851020945E+05
    0.132555057226369559E+02    0.130735651860808622E+01   -0.257440608191679094E+05
    0.132831501654798387E+02    0.132961421230747745E+01   -0.257440588571889020E+05
    0.133976848016106906E+02    0.117831168679927734E+01   -0.257440570628475798E+05
    0.133609027168715517E+02    0.124849916806717998E+01   -0.257440459257086222E+05
    0.134608129754224031E+02    0.977833510712274201E+00   -0.257440291337462731E+05
    0.132532191061041420E+02    0.129108618300245181E+01   -0.257440257761693174E+05
    0.133418682256831893E+02    0.127663010438550728E+01   -0.257440251874852802E+05
    0.134587907291133106E+02    0.988161577568098082E+00   -0.257440230881442913E+05
    0.133025963015678279E+02    0.104250724091712588E+01   -0.257440208015778444E+05
    0.134457900818770408E+02    0.852383568142128123E+00   -0.257440032255377591E+05
    0.133300666104992800E+02    0.129080729166151653E+01   -0.257439991480476456E+05
    0.134473217901068978E+02    0.103573221094047918E+01   -0.257439951712069742E+05
    0.134559061943411447E+02    0.999320507173742656E+00   -0.257439934384697845E+05
    0.134269182399880815E+02    0.110185555382749945E+01   -0.257439900208594700E+05
    0.132540632799007962E+02    0.128538427349863116E+01   -0.257439809716993841E+05
    0.133324026643742481E+02    0.128674035997101122E+01   -0.257439734114471285E+05
    0.132552708478145718E+02    0.128995446464496721E+01   -0.257439673341142116E+05
    0.132533617034412146E+02    0.126942656849745039E+01   -0.257439637771652233E+05
    0.132535472969814361E+02    0.126930317176363849E+01   -0.257439577897958661E+05
    0.134536576669980477E+02    0.100578900821058159E+01   -0.257439535346986922E+05
    0.132601286260054163E+02    0.119497170112842488E+01   -0.257439480330008519E+05
    0.133698067505320992E+02    0.913639280972469270E+00   -0.257439377247198136E+05
    0.132758659868434687E+02    0.132081909286296684E+01   -0.257439350518257779E+05
    0.134266086192122494E+02    0.109929647832404886E+01   -0.257439311365362446E+05
    0.134619619076409123E+02    0.889954894397160468E+00   -0.257439202234978839E+05
    0.133946944197591691E+02    0.117829128374338765E+01   -0.257439198296231589E+05
    0.133364334907007525E+02    0.971887209555111875E+00   -0.257439136875596669E+05
    0.133923619132516141E+02    0.885984354321224687E+00   -0.257439015218716231E+05
    0.134248494594223171E+02    0.860087252572897420E+00   -0.257439001055015688E+05
    0.134248494594223171E+02    0.860087252572897420E+00   -0.257439001055015688E+05
    0.132940705626310027E+02    0.107221883077914271E+01   -0.257438972057130741E+05
    0.132611906397570127E+02    0.119666166518562589E+01   -0.257438896194627705E+05
    0.134589383464578294E+02    0.968579152367579299E+00   -0.257438854420789321E+05
    0.132641709368799159E+02    0.130525949661495577E+01   -0.257438827698593741E+05
    0.133822693724217086E+02    0.899609980143385224E+00   -0.257438696904522913E+05
    0.134622135871536823E+02    0.925360659501538563E+00   -0.257438628347855192E+05
    0.133406329090951825E+02    0.966654477599994788E+00   -0.257438521039245388E+05
    0.132599812211417785E+02    0.121548135328654161E+01   -0.257438268026957157E+05
    0.132599812211417785E+02    0.121548135328654161E+01   -0.257438268026957157E+05
    0.134282648598993752E+02    0.108795582242295485E+01   -0.257438260254520756E+05
    0.134244545014493468E+02    0.865420601080457708E+00   -0.257438133239535382E+05
    0.132747279888114811E+02    0.131000780548605045E+01   -0.257438066879938488E+05
    0.132681653666468780E+02    0.117004129738501472E+01   -0.257438059362977656E+05
    0.132671460392527933E+02    0.117542972600953410E+01   -0.257438019198037437E+05
    0.133390321164736854E+02    0.126998391828991397E+01   -0.257438002569695636E+05
    0.133390321164736854E+02    0.126998391828991397E+01   -0.257438002569695636E+05
    0.132594137252320898E+02    0.127431269835890015E+01   -0.257437998950539404E+05
    0.132712642795500422E+02    0.115673126238791668E+01   -0.257437994032763127E+05
    0.132712642795500422E+02    0.115673126238791668E+01   -0.257437994032763127E+05
    0.132660997176264992E+02    0.129828159886041328E+01   -0.257437937020269419E+05
    0.132608015913513650E+02    0.121728725592513487E+01   -0.257437867568709626E+05
    0.132711355778878968E+02    0.130457648667071879E+01   -0.257437816463028030E+05
    0.134364056653116890E+02    0.105874603302944936E+01   -0.257437805937577541E+05
    0.132596523753389128E+02    0.126643955864856905E+01   -0.257437720044310881E+05
    0.133424689436317045E+02    0.967210953973791088E+00   -0.257437672925102597E+05
    0.134409445560754754E+02    0.870302567747189615E+00   -0.257437472850261365E+05
    0.134409445560754754E+02    0.870302567747189615E+00   -0.257437472850261365E+05
    0.133278842787586242E+02    0.997975219438805294E+00   -0.257437349622897054E+05
    0.134358883900891239E+02    0.869677965846854972E+00   -0.257437318642320533E+05
    0.133211869979664499E+02    0.101282934560378446E+01   -0.257437311497116898E+05
    0.133211869979664499E+02    0.101282934560378446E+01   -0.257437311497116898E+05
    0.133178385223249034E+02    0.102054755690780041E+01   -0.257437299147891536E+05
    0.133178385223249034E+02    0.102054755690780041E+01   -0.257437299147891536E+05
    0.132694890106524515E+02    0.129629041855210980E+01   -0.257437255144980882E+05
    0.134382470047497922E+02    0.870891295917779473E+00   -0.257437251285034108E+05
    0.134119493088924546E+02    0.112668370913528082E+01   -0.257437143102805239E+05
    0.134430543012096173E+02    0.102730261258224909E+01   -0.257437006268039877E+05
    0.132880051565131563E+02    0.110330997567696953E+01   -0.257436977039918274E+05
    0.134046221407426085E+02    0.884285453621673212E+00   -0.257436975737790854E+05
    0.133905232160254748E+02    0.899617935613587605E+00   -0.257436685527265035E+05
    0.134072642405183018E+02    0.113533089389745090E+01   -0.257436576615730992E+05
    0.132662760310382755E+02    0.120183178163581239E+01   -0.257436524019534008E+05
    0.133219484207605827E+02    0.128176634142118662E+01   -0.257436386532266697E+05
    0.134024509216953298E+02    0.114577715338803543E+01   -0.257436344483852554E+05
    0.132721825181130484E+02    0.128992446197504984E+01   -0.257436339330594783E+05
    0.132765049724818791E+02    0.115072942954728852E+01   -0.257436317377631276E+05
    0.133328783681597898E+02    0.126904284194864569E+01   -0.257436263288234441E+05
    0.133328783681597898E+02    0.126904284194864569E+01   -0.257436263288234441E+05
    0.133603194228813482E+02    0.943087482596394744E+00   -0.257436234034917215E+05
    0.133603194228813482E+02    0.943087482596394744E+00   -0.257436234034917215E+05
    0.133877166920715052E+02    0.117819423331415329E+01   -0.257436224203225938E+05
    0.133371488228299349E+02    0.985014385538300452E+00   -0.257436153830192525E+05
    0.134302476856271618E+02    0.106695692151136079E+01   -0.257436130315790506E+05
    0.133073894188789197E+02    0.105280365388073149E+01   -0.257436120855542067E+05
    0.133320381095970362E+02    0.126929320159538239E+01   -0.257436119735324428E+05
    0.133966985688463662E+02    0.896282036143958738E+00   -0.257436095137876182E+05
    0.133966985688463662E+02    0.896282036143958738E+00   -0.257436095137876182E+05
    0.132677959062816360E+02    0.127509180443127002E+01   -0.257436083736130277E+05
    0.132794280578654558E+02    0.129500033350953392E+01   -0.257436036009484706E+05
    0.134534151432592139E+02    0.921216155863960773E+00   -0.257436010845458040E+05
    0.134167582150483771E+02    0.110680443779494952E+01   -0.257435987878142150E+05
    0.133060930787739942E+02    0.105717631704345139E+01   -0.257435960785713432E+05
    0.133332047674568770E+02    0.994122288552798716E+00   -0.257435933110100523E+05
    0.134048535725997571E+02    0.113739939512018173E+01   -0.257435898354239616E+05
    0.132684856617516918E+02    0.127351524483244938E+01   -0.257435862055072248E+05
    0.132684856617516918E+02    0.127351524483244938E+01   -0.257435862055072248E+05
    0.133928813748135145E+02    0.902079246120684797E+00   -0.257435738894350980E+05
    0.134462935691751042E+02    0.895288465512810161E+00   -0.257435678438575269E+05
    0.134462935691751042E+02    0.895288465512810161E+00   -0.257435678438575269E+05
    0.134525010585321585E+02    0.927498605290559164E+00   -0.257435666541161954E+05
    0.134525010585321585E+02    0.927498605290559164E+00   -0.257435666541161954E+05
    0.134432839569648586E+02    0.101192159000669313E+01   -0.257435633180514196E+05
    0.133827177904400312E+02    0.118532458226140314E+01   -0.257435620088480355E+05
    0.134010963299894854E+02    0.114473230089418809E+01   -0.257435589954577299E+05
    0.132662549140317960E+02    0.123337067224426900E+01   -0.257435563690043236E+05
    0.132662549140317960E+02    0.123337067224426900E+01   -0.257435563690043236E+05
    0.132717871807671344E+02    0.127717946878981747E+01   -0.257435461323073614E+05
    0.132729520644633681E+02    0.117858171998230810E+01   -0.257435387691521501E+05
    0.132729520644633681E+02    0.117858171998230810E+01   -0.257435387691521501E+05
    0.133040829533505534E+02    0.128948765819101796E+01   -0.257435340192324948E+05
    0.132965859377850322E+02    0.108856378462606629E+01   -0.257435267118419506E+05
    0.133184358952539448E+02    0.127874078451030160E+01   -0.257435255283156112E+05
    0.133532445220283318E+02    0.959987434006642215E+00   -0.257435220787008657E+05
    0.133532445220283318E+02    0.959987434006642215E+00   -0.257435220787008657E+05
    0.134142625281074892E+02    0.110796579469758116E+01   -0.257435096401899827E+05
    0.134142625281074892E+02    0.110796579469758116E+01   -0.257435096401899827E+05
    0.134377364049002317E+02    0.890574361505772738E+00   -0.257435024485430295E+05
    0.133382912956725264E+02    0.125565525749142348E+01   -0.257435009076892311E+05
    0.133217995586823932E+02    0.127322620600698211E+01   -0.257434840146807583E+05
    0.133355474057504448E+02    0.125808103769885227E+01   -0.257434822368766218E+05
    0.132814398222444989E+02    0.114529081501309160E+01   -0.257434806165696718E+05
    0.132814398222444989E+02    0.114529081501309160E+01   -0.257434806165696718E+05
    0.134226656705880902E+02    0.888083859230083816E+00   -0.257434803139163960E+05
    0.133958429283146039E+02    0.115206451506744156E+01   -0.257434727223735135E+05
    0.132757260390950691E+02    0.117326449680219413E+01   -0.257434698436501967E+05
    0.132757260390950691E+02    0.117326449680219413E+01   -0.257434698436501967E+05
    0.133715632742108799E+02    0.934966158055500096E+00   -0.257434506281770118E+05
    0.133715632742108799E+02    0.934966158055500096E+00   -0.257434506281770118E+05
    0.134283271619642601E+02    0.106006124364084986E+01   -0.257434453036684499E+05
    0.133773118685080146E+02    0.118975155692834100E+01   -0.257434450157071551E+05
    0.133773118685080146E+02    0.118975155692834100E+01   -0.257434450157071551E+05
    0.134246081719128103E+02    0.107169940219463000E+01   -0.257434348545619105E+05
    0.133587030174342551E+02    0.955444056708242173E+00   -0.257434341433783411E+05
    0.133587030174342551E+02    0.955444056708242173E+00   -0.257434341433783411E+05
    0.134441992996703501E+02    0.987912125581273282E+00   -0.257434313980734587E+05
    0.133755572754186218E+02    0.119194333201423386E+01   -0.257434232418714164E+05
    0.133755572754186218E+02    0.119194333201423386E+01   -0.257434232418714164E+05
    0.134422945086701802E+02    0.907756512500815682E+00   -0.257434202983290706E+05
    0.133451433461646900E+02    0.124135922501695672E+01   -0.257434067695224039E+05
    0.134342615186966281E+02    0.897938838332567490E+00   -0.257434016288890452E+05
    0.134342615186966281E+02    0.897938838332567490E+00   -0.257434016288890452E+05
    0.132730283911458802E+02    0.124925146844283619E+01   -0.257433915373395030E+05
    0.134375451592688187E+02    0.101784147816186232E+01   -0.257433886314306619E+05
    0.134375451592688187E+02    0.101784147816186232E+01   -0.257433886314306619E+05
    0.134458371192071446E+02    0.936601232153653873E+00   -0.257433803338546313E+05
    0.134426727163456690E+02    0.916175092036833227E+00   -0.257433788091429378E+05
    0.134316890349359959E+02    0.898481651758956557E+00   -0.257433774258877274E+05
    0.134316890349359959E+02    0.898481651758956557E+00   -0.257433774258877274E+05
    0.134102519537820690E+02    0.899896716310184086E+00   -0.257433741743121318E+05
    0.134102519537820690E+02    0.899896716310184086E+00   -0.257433741743121318E+05
    0.134283589107801600E+02    0.105299510577588706E+01   -0.257433664922164608E+05
    0.133004043903612832E+02    0.127917497179115758E+01   -0.257433661272067984E+05
    0.133004043903612832E+02    0.127917497179115758E+01   -0.257433661272067984E+05
    0.134106024383178166E+02    0.900334419515230633E+00   -0.257433650404171603E+05
    0.134039135118438892E+02    0.112527793594819814E+01   -0.257433541394779895E+05
    0.134039135118438892E+02    0.112527793594819814E+01   -0.257433541394779895E+05
    0.133588528839418945E+02    0.959775945514320439E+00   -0.257433498629848254E+05
    0.134153532318010154E+02    0.109378478945724678E+01   -0.257433497845809652E+05
    0.132763156477678557E+02    0.125591297678067315E+01   -0.257433483501466944E+05
    0.132763156477678557E+02    0.125591297678067315E+01   -0.257433483501466944E+05
    0.132755344330947764E+02    0.119729979835443956E+01   -0.257433460021034152E+05
    0.132755344330947764E+02    0.119729979835443956E+01   -0.257433460021034152E+05
    0.132742381252645849E+02    0.121126646128784299E+01   -0.257433455365239752E+05
    0.134224543162897891E+02    0.898861389044489201E+00   -0.257433418262545347E+05
    0.134224543162897891E+02    0.898861389044489201E+00   -0.257433418262545347E+05
    0.134396811773952951E+02    0.915233089217664775E+00   -0.257433332516570081E+05
    0.134396811773952951E+02    0.915233089217664775E+00   -0.257433332516570081E+05
    0.134030882684710768E+02    0.907307895610171444E+00   -0.257433303192610547E+05
    0.134050510338669078E+02    0.112064718307209077E+01   -0.257433282751581173E+05
    0.132783021716972129E+02    0.118111603845396607E+01   -0.257433275565548174E+05
    0.132783021716972129E+02    0.118111603845396607E+01   -0.257433275565548174E+05
    0.132938219994217111E+02    0.127595873907806956E+01   -0.257433237898363332E+05
    0.132763607820617295E+02    0.124894325531884154E+01   -0.257433191916867909E+05
    0.132763607820617295E+02    0.124894325531884154E+01   -0.257433191916867909E+05
    0.133812425503212040E+02    0.929645846003862797E+00   -0.257433166231237992E+05
    0.132759322971539788E+02    0.120305182757783125E+01   -0.257433141620229362E+05
    0.133699473019106225E+02    0.945137327129573657E+00   -0.257433077180927321E+05
    0.132760105113736024E+02    0.124196937348858172E+01   -0.257433052985977411E+05
    0.133704244065153173E+02    0.119487590663868315E+01   -0.257433041043262783E+05
    0.134431476901005951E+02    0.952473079394993372E+00   -0.257433007252475945E+05
    0.133805109218291740E+02    0.117515510674549972E+01   -0.257432999792496521E+05
    0.134159757091910770E+02    0.108806109257992789E+01   -0.257432984754306162E+05
    0.134159757091910770E+02    0.108806109257992789E+01   -0.257432984754306162E+05
    0.133595277840233440E+02    0.961802913729131626E+00   -0.257432940455211574E+05
    0.133595277840233440E+02    0.961802913729131626E+00   -0.257432940455211574E+05
    0.133308733262867278E+02    0.125159352979979799E+01   -0.257432766330661216E+05
    0.133807713904433001E+02    0.117322129162836242E+01   -0.257432763272829689E+05
    0.132881200405511493E+02    0.126799553227804784E+01   -0.257432722341454974E+05
    0.134370253218579592E+02    0.919219831046082070E+00   -0.257432689522396868E+05
    0.133144971763710025E+02    0.126547240476213485E+01   -0.257432660874724497E+05
    0.133144971763710025E+02    0.126547240476213485E+01   -0.257432660874724497E+05
    0.134414944788905828E+02    0.947271807304233215E+00   -0.257432605741404113E+05
    0.133145034543705965E+02    0.105682581650150853E+01   -0.257432591475750705E+05
    0.133055937143157301E+02    0.126903239700442771E+01   -0.257432526930996428E+05
    0.133055937143157301E+02    0.126903239700442771E+01   -0.257432526930996428E+05
    0.134332171992656306E+02    0.914248146874242940E+00   -0.257432525917610074E+05
    0.134332171992656306E+02    0.914248146874242940E+00   -0.257432525917610074E+05
    0.132930676275891955E+02    0.112301192531841432E+01   -0.257432488149921883E+05
    0.133762254669358391E+02    0.118063580113954991E+01   -0.257432485852254249E+05
    0.133690121208419441E+02    0.950254141225503224E+00   -0.257432422123100259E+05
    0.133402610775746986E+02    0.999501939405932904E+00   -0.257432409916740544E+05
    0.133060605398456708E+02    0.108140089257721028E+01   -0.257432405515974315E+05
    0.132969549098938149E+02    0.111004651104077712E+01   -0.257432402810575950E+05
    0.132983225295348699E+02    0.126904389220089886E+01   -0.257432393550146226E+05
    0.133568432330801929E+02    0.121416464376927946E+01   -0.257432351987544826E+05
    0.134362485222180617E+02    0.923685887966496089E+00   -0.257432317777282005E+05
    0.134362485222180617E+02    0.923685887966496089E+00   -0.257432317777282005E+05
    0.133032487851674297E+02    0.126748383517179830E+01   -0.257432252854194267E+05
    0.133158931274861949E+02    0.126124092312320468E+01   -0.257432187924719656E+05
    0.133043392127347957E+02    0.126670026424536930E+01   -0.257432185640093739E+05
    0.133524554537890445E+02    0.121990403407302739E+01   -0.257432172625816347E+05
    0.133524554537890445E+02    0.121990403407302739E+01   -0.257432172625816347E+05
    0.134376290585922415E+02    0.932287854284847284E+00   -0.257432146419458695E+05
    0.134396313955061508E+02    0.949419892652722086E+00   -0.257432137556845191E+05
    0.133095822713128733E+02    0.107341450993283716E+01   -0.257432129685324107E+05
    0.134016302142174197E+02    0.917099973291935822E+00   -0.257432002202745098E+05
    0.134016302142174197E+02    0.917099973291935822E+00   -0.257432002202745098E+05
    0.133848637073806778E+02    0.115991830747578462E+01   -0.257431988895398026E+05
    0.133848637073806778E+02    0.115991830747578462E+01   -0.257431988895398026E+05
    0.134390265188480384E+02    0.957777929060156241E+00   -0.257431944579717128E+05
    0.134390265188480384E+02    0.957777929060156241E+00   -0.257431944579717128E+05
    0.133035484081053923E+02    0.126468956544627731E+01   -0.257431922084968282E+05
    0.134189173597527294E+02    0.911774328627727448E+00   -0.257431898949724782E+05
    0.132978096847635978E+02    0.111176644362671517E+01   -0.257431897262991115E+05
    0.132975257916909069E+02    0.111387085528865426E+01   -0.257431779577447087E+05
    0.134353009308944511E+02    0.931817084194025536E+00   -0.257431759887138833E+05
    0.134353009308944511E+02    0.931817084194025536E+00   -0.257431759887138833E+05
    0.134347334346018155E+02    0.999709459179599413E+00   -0.257431741534600624E+05
    0.133844625156215749E+02    0.934632148495083914E+00   -0.257431722037525797E+05
    0.133629046287656568E+02    0.120019814188642360E+01   -0.257431686698927006E+05
    0.133629046287656568E+02    0.120019814188642360E+01   -0.257431686698927006E+05
    0.132871068953423777E+02    0.115778970946078030E+01   -0.257431685595009694E+05
    0.132871068953423777E+02    0.115778970946078030E+01   -0.257431685595009694E+05
    0.133757729582262215E+02    0.945573573737931716E+00   -0.257431654465398315E+05
    0.133757729582262215E+02    0.945573573737931716E+00   -0.257431654465398315E+05
    0.132847384039520975E+02    0.124686874208688270E+01   -0.257431622417461804E+05
    0.132847384039520975E+02    0.124686874208688270E+01   -0.257431622417461804E+05
    0.134131395188995093E+02    0.108539080496110318E+01   -0.257431586497584613E+05
    0.132864971881911345E+02    0.124965654076224864E+01   -0.257431530587611596E+05
    0.134035400049770423E+02    0.111189988052290722E+01   -0.257431478497393146E+05
    0.134360934882190790E+02    0.944424802590325463E+00   -0.257431457161432154E+05
    0.134109437366714683E+02    0.109078909658828760E+01   -0.257431440760210644E+05
    0.133244707373972275E+02    0.104010378451280205E+01   -0.257431411683913902E+05
    0.132992172424927766E+02    0.125973574441420877E+01   -0.257431376733099241E+05
    0.132992172424927766E+02    0.125973574441420877E+01   -0.257431376733099241E+05
    0.133408012611570275E+02    0.123067855286408356E+01   -0.257431290557154971E+05
    0.133408012611570275E+02    0.123067855286408356E+01   -0.257431290557154971E+05
    0.134072788332382071E+02    0.110001557668770356E+01   -0.257431268580803408E+05
    0.134072788332382071E+02    0.110001557668770356E+01   -0.257431268580803408E+05
    0.133256869412519343E+02    0.103828310762026432E+01   -0.257431257235571611E+05
    0.133256869412519343E+02    0.103828310762026432E+01   -0.257431257235571611E+05
    0.132822792931974654E+02    0.121842896404924428E+01   -0.257431253475479971E+05
    0.134360980100250700E+02    0.966135993273504079E+00   -0.257431230516596770E+05
    0.133068780043877926E+02    0.125782021028654478E+01   -0.257431187940479504E+05
    0.134026765749378853E+02    0.922565648008728090E+00   -0.257431154813050780E+05
    0.132985933878929394E+02    0.125714627357560182E+01   -0.257431134185603514E+05
    0.132942092551276723E+02    0.113361425529600313E+01   -0.257431094242782165E+05
    0.132942092551276723E+02    0.113361425529600313E+01   -0.257431094242782165E+05
    0.134154175120533008E+02    0.107385265563052079E+01   -0.257431091680381141E+05
    0.134154175120533008E+02    0.107385265563052079E+01   -0.257431091680381141E+05
    0.134355046366462219E+02    0.961407613857615639E+00   -0.257431083095232425E+05
    0.133268370780426437E+02    0.103679180921271175E+01   -0.257431081963710458E+05
    0.132831960075278044E+02    0.120384417518030662E+01   -0.257431059969783964E+05
    0.133722576229985997E+02    0.954066999884293776E+00   -0.257431043926497296E+05
    0.132849572682786583E+02    0.123395481205771795E+01   -0.257431027852075676E+05
    0.133691753208233095E+02    0.118484181474721817E+01   -0.257430999943357638E+05
    0.133190957129381040E+02    0.105634144117600726E+01   -0.257430992328154025E+05
    0.134071026944019245E+02    0.109783762604518031E+01   -0.257430935452860176E+05
    0.134071026944019245E+02    0.109783762604518031E+01   -0.257430935452860176E+05
    0.133219756062919874E+02    0.124780520008816875E+01   -0.257430929674180115E+05
    0.133748714561006885E+02    0.117346929000082167E+01   -0.257430907279084568E+05
    0.133503326602996975E+02    0.989647220041561915E+00   -0.257430905948437030E+05
    0.133503326602996975E+02    0.989647220041561915E+00   -0.257430905948437030E+05
    0.134117414170216129E+02    0.108378827321318028E+01   -0.257430901013182884E+05
    0.134117414170216129E+02    0.108378827321318028E+01   -0.257430901013182884E+05
    0.132850781018520081E+02    0.123054193137594514E+01   -0.257430895556333417E+05
    0.132846198083605760E+02    0.119207841730558695E+01   -0.257430889187905268E+05
    0.134302642206188061E+02    0.101044470911150475E+01   -0.257430888534373444E+05
    0.133797006591867884E+02    0.116337284314531364E+01   -0.257430843880707289E+05
    0.133630765058410272E+02    0.119462047626952184E+01   -0.257430837855395293E+05
    0.133235050429410702E+02    0.104662031857292503E+01   -0.257430813367692390E+05
    0.134090858583534267E+02    0.109019720605319925E+01   -0.257430713062623436E+05
    0.132915904156635385E+02    0.124537694918878605E+01   -0.257430657119996504E+05
    0.133028798869798965E+02    0.125293133592108230E+01   -0.257430622783776635E+05
    0.133019997485896706E+02    0.111073946996149231E+01   -0.257430517042376669E+05
    0.133546520075460826E+02    0.120577960568500098E+01   -0.257430441792469246E+05
    0.132885228762226895E+02    0.123356130738868108E+01   -0.257430420997862493E+05
    0.132885228762226895E+02    0.123356130738868108E+01   -0.257430420997862493E+05
    0.133666099751797631E+02    0.966230380252687260E+00   -0.257430394788957237E+05
    0.133546574754959995E+02    0.985344119428600007E+00   -0.257430388253131496E+05
    0.133006172474040305E+02    0.124935209189141583E+01   -0.257430330641218643E+05
    0.132868828322641725E+02    0.119085101162867657E+01   -0.257430308208117895E+05
    0.132868828322641725E+02    0.119085101162867657E+01   -0.257430308208117895E+05
    0.134136189082892763E+02    0.107171570180913367E+01   -0.257430248563221903E+05
    0.133134796677587719E+02    0.107794419139929309E+01   -0.257430173740584141E+05
    0.132875490272835961E+02    0.118964025958343056E+01   -0.257430159292171084E+05
    0.132875490272835961E+02    0.118964025958343056E+01   -0.257430159292171084E+05
    0.133522431082960793E+02    0.991142508447043769E+00   -0.257430145446098613E+05
    0.134137194012564080E+02    0.107004955156229720E+01   -0.257430115370367785E+05
    0.133141049990486682E+02    0.107667438709546093E+01   -0.257430113668525410E+05
    0.132914145922798372E+02    0.123501626135162090E+01   -0.257430076367827933E+05
    0.133441452611496416E+02    0.121832257974423186E+01   -0.257430069894581211E+05
    0.133092953950726702E+02    0.109129363839597238E+01   -0.257430064677708542E+05
    0.133760520765837043E+02    0.116542438088940359E+01   -0.257430048723985019E+05
    0.133916950214411106E+02    0.113103654979791335E+01   -0.257430023450151821E+05
    0.134214720571046939E+02    0.933320404201423148E+00   -0.257430003107123812E+05
    0.133661812318467774E+02    0.118346479516558389E+01   -0.257429961329447906E+05
    0.134301395002128992E+02    0.960485069552640347E+00   -0.257429935920606913E+05
    0.134301395002128992E+02    0.960485069552640347E+00   -0.257429935920606913E+05
    0.132886529937376778E+02    0.121800815322119083E+01   -0.257429908788999492E+05
    0.132886529937376778E+02    0.121800815322119083E+01   -0.257429908788999492E+05
    0.134299933716192843E+02    0.982099149149502471E+00   -0.257429866414979442E+05
    0.133480602663942083E+02    0.121131839042957234E+01   -0.257429820183505835E+05
    0.134290371153131538E+02    0.956837354779041971E+00   -0.257429803365259395E+05
    0.132964626597244013E+02    0.123958124266540004E+01   -0.257429801210078440E+05
    0.133686845614168544E+02    0.117775485122880985E+01   -0.257429787110944344E+05
    0.133686845614168544E+02    0.117775485122880985E+01   -0.257429787110944344E+05
    0.132887359044888438E+02    0.121129486367585004E+01   -0.257429783092878024E+05
    0.132887359044888438E+02    0.121129486367585004E+01   -0.257429783092878024E+05
    0.134291229375864614E+02    0.989310506058811434E+00   -0.257429774130461155E+05
    0.132980069727294996E+02    0.113460664877398365E+01   -0.257429768482947256E+05
    0.134254092408750036E+02    0.101678707593116657E+01   -0.257429758911356075E+05
    0.132969355581309827E+02    0.123948456891880343E+01   -0.257429754661851548E+05
    0.132968265767645200E+02    0.123839073509307762E+01   -0.257429688913715581E+05
    0.132891092720958461E+02    0.119781924324833078E+01   -0.257429664155504106E+05
    0.133662292088950370E+02    0.971770577546514747E+00   -0.257429645688541495E+05
    0.133431460240932847E+02    0.121657946701292574E+01   -0.257429630417095650E+05
    0.133864453211151897E+02    0.946933602168604116E+00   -0.257429609262389531E+05
    0.133558542456783513E+02    0.119800667877336564E+01   -0.257429559309001961E+05
    0.133545445283454001E+02    0.991071863047997659E+00   -0.257429556082655436E+05
    0.132901114490098209E+02    0.121368598601864619E+01   -0.257429549530452350E+05
    0.132910018107492149E+02    0.121856800788491393E+01   -0.257429499760190047E+05
    0.134024268444901722E+02    0.109896803339987903E+01   -0.257429498581497792E+05
    0.132958337930578523E+02    0.123367490775624056E+01   -0.257429484733355348E+05
    0.133383308465805719E+02    0.122139931450893946E+01   -0.257429482060634946E+05
    0.133585795803449727E+02    0.119301887225327086E+01   -0.257429464895847523E+05
    0.133924550416490273E+02    0.112429476940201090E+01   -0.257429386713002532E+05
    0.134035300483006168E+02    0.937265411298239037E+00   -0.257429316693322180E+05
    0.134035300483006168E+02    0.937265411298239037E+00   -0.257429316693322180E+05
    0.133845492708660530E+02    0.951166452590806788E+00   -0.257429296154601798E+05
    0.133845492708660530E+02    0.951166452590806788E+00   -0.257429296154601798E+05
    0.133530377954638997E+02    0.120009387491789665E+01   -0.257429240012689661E+05
    0.133008166952491145E+02    0.113007128887136399E+01   -0.257429234001611185E+05
    0.133037400549916462E+02    0.123780391879005602E+01   -0.257429209580776478E+05
    0.134174759211085508E+02    0.104510480547031781E+01   -0.257429162949336969E+05
    0.132916359791418142E+02    0.120423548403873415E+01   -0.257429127745939040E+05
    0.133838658572155023E+02    0.114233433495497860E+01   -0.257429123581236745E+05
    0.132957386275837948E+02    0.122651988120306887E+01   -0.257429110355343000E+05
    0.132957386275837948E+02    0.122651988120306887E+01   -0.257429110355343000E+05
    0.134266511544927951E+02    0.973544742910892769E+00   -0.257429090736569815E+05
    0.132982899881191443E+02    0.114344435925498500E+01   -0.257429085961110068E+05
    0.134066676086956882E+02    0.108219488857974189E+01   -0.257429049936815172E+05
    0.133743738553554525E+02    0.116141101556479343E+01   -0.257429009549815091E+05
    0.133743738553554525E+02    0.116141101556479343E+01   -0.257429009549815091E+05
    0.132987883524451185E+02    0.123006441599990191E+01   -0.257428981011221622E+05
    0.132940795351043040E+02    0.117043966650823328E+01   -0.257428979046454369E+05
    0.132940795351043040E+02    0.117043966650823328E+01   -0.257428979046454369E+05
    0.134027231050542266E+02    0.109337166915887507E+01   -0.257428975933070833E+05
    0.134027231050542266E+02    0.109337166915887507E+01   -0.257428975933070833E+05
    0.134257844064788756E+02    0.970108637107240934E+00   -0.257428954991279898E+05
    0.134173685259822850E+02    0.104258624007308653E+01   -0.257428952056302151E+05
    0.133121158082036963E+02    0.109329483516591908E+01   -0.257428944123948786E+05
    0.133121158082036963E+02    0.109329483516591908E+01   -0.257428944123948786E+05
    0.133993694838773187E+02    0.110223808784205435E+01   -0.257428904866879566E+05
    0.133993694838773187E+02    0.110223808784205435E+01   -0.257428904866879566E+05
    0.132926692789714842E+02    0.119293999727333011E+01   -0.257428891145120106E+05
    0.132989774059016170E+02    0.114451764595705785E+01   -0.257428823849514702E+05
    0.132989774059016170E+02    0.114451764595705785E+01   -0.257428823849514702E+05
    0.133875811580778645E+02    0.113148112277548396E+01   -0.257428818175340020E+05
    0.134205754247071916E+02    0.102517521531792277E+01   -0.257428815963858360E+05
    0.134221129639624799E+02    0.101463363999866818E+01   -0.257428742706188823E+05
    0.133097481094794610E+02    0.123349535201894689E+01   -0.257428692698841041E+05
    0.132943062170431361E+02    0.120794639852539798E+01   -0.257428683794316566E+05
    0.132943062170431361E+02    0.120794639852539798E+01   -0.257428683794316566E+05
    0.132960664092044674E+02    0.121743601864208451E+01   -0.257428678734292334E+05
    0.132960664092044674E+02    0.121743601864208451E+01   -0.257428678734292334E+05
    0.132940660377712518E+02    0.120112146852279245E+01   -0.257428626635841938E+05
    0.132940660377712518E+02    0.120112146852279245E+01   -0.257428626635841938E+05
    0.133011287086075196E+02    0.122753337332890022E+01   -0.257428623506082367E+05
    0.134230404392881795E+02    0.100311585924533953E+01   -0.257428588463259803E+05
    0.134230404392881795E+02    0.100311585924533953E+01   -0.257428588463259803E+05
    0.133729253109699684E+02    0.970068560220070930E+00   -0.257428576045070440E+05
    0.133729253109699684E+02    0.970068560220070930E+00   -0.257428576045070440E+05
    0.133257480101516617E+02    0.122571530472826362E+01   -0.257428495316308363E+05
    0.133091946918179875E+02    0.123076963565967135E+01   -0.257428461215439565E+05
    0.134206687078152225E+02    0.101640648439416803E+01   -0.257428436731478469E+05
    0.133876859794134333E+02    0.112801085064186024E+01   -0.257428422202738147E+05
    0.134008798607944595E+02    0.109338966223112610E+01   -0.257428416877816526E+05
    0.133037391363821769E+02    0.122713651037566507E+01   -0.257428408241536999E+05
    0.133037391363821769E+02    0.122713651037566507E+01   -0.257428408241536999E+05
    0.133708608996843186E+02    0.116354885807090058E+01   -0.257428378316916569E+05
    0.134222637794608666E+02    0.100219274763785604E+01   -0.257428377915345809E+05
    0.133061638224664129E+02    0.112022045358323119E+01   -0.257428377112908747E+05
    0.134157159491582547E+02    0.950641018812803162E+00   -0.257428374298419039E+05
    0.134083231163002008E+02    0.106855899334417637E+01   -0.257428290870936835E+05
    0.134083231163002008E+02    0.106855899334417637E+01   -0.257428290870936835E+05
    0.132990770505024525E+02    0.115465666377416976E+01   -0.257428282116094306E+05
    0.134046023979469595E+02    0.947393924054723335E+00   -0.257428259493201549E+05
    0.133350332068392632E+02    0.103907106180839670E+01   -0.257428249483625841E+05
    0.133021866912740307E+02    0.113913361599075036E+01   -0.257428238078650575E+05
    0.133021866912740307E+02    0.113913361599075036E+01   -0.257428238078650575E+05
    0.132961890545104922E+02    0.120057740120199585E+01   -0.257428231753552718E+05
    0.133347954597223417E+02    0.121560105116860906E+01   -0.257428227669393527E+05
    0.133523410374739289E+02    0.100451828023177692E+01   -0.257428220156199131E+05
    0.133219149244412645E+02    0.107182338998209703E+01   -0.257428207865835939E+05
    0.133425476903753371E+02    0.102356551711502819E+01   -0.257428177313011984E+05
    0.133212916614962325E+02    0.122552701164042355E+01   -0.257428170382089738E+05
    0.133212916614962325E+02    0.122552701164042355E+01   -0.257428170382089738E+05
    0.133185978794671698E+02    0.122665537043917672E+01   -0.257428165895630373E+05
    0.133025736881035606E+02    0.113941911215665348E+01   -0.257428115890258741E+05
    0.133544513058689738E+02    0.118952532156237667E+01   -0.257428090859362819E+05
    0.133205775992927951E+02    0.122509393053688442E+01   -0.257428089690791530E+05
    0.133088985998919913E+02    0.111388728552363658E+01   -0.257428074617713755E+05
    0.133088985998919913E+02    0.111388728552363658E+01   -0.257428074617713755E+05
    0.134122400768283434E+02    0.952072661394617215E+00   -0.257428054008817307E+05
    0.132970254934510166E+02    0.118039252492098590E+01   -0.257428052685515249E+05
    0.133978796083220786E+02    0.109818829411736796E+01   -0.257428028243940425E+05
    0.134177940570425172E+02    0.961210809446986336E+00   -0.257428002907659284E+05
    0.133053077147234884E+02    0.122239493951316947E+01   -0.257427993658688792E+05
    0.133053077147234884E+02    0.122239493951316947E+01   -0.257427993658688792E+05
    0.133302975289186314E+02    0.105223990674369672E+01   -0.257427993377608618E+05
    0.133457735982795995E+02    0.101878004354558649E+01   -0.257427965020781667E+05
    0.134047703834921350E+02    0.950628235911639807E+00   -0.257427964466988014E+05
    0.133496798576413322E+02    0.101145823866537499E+01   -0.257427947587098497E+05
    0.134196234944850428E+02    0.100741903482123440E+01   -0.257427887631833473E+05
    0.133214063502776590E+02    0.122271336223376004E+01   -0.257427885027362499E+05
    0.133214063502776590E+02    0.122271336223376004E+01   -0.257427885027362499E+05
    0.133756468163382092E+02    0.972017318007784570E+00   -0.257427880795133133E+05
    0.134206771225333163E+02    0.987193353738379686E+00   -0.257427864165163737E+05
    0.133120179259997418E+02    0.110595961682323196E+01   -0.257427821999580920E+05
    0.132989267519152321E+02    0.120242114699099734E+01   -0.257427814228336611E+05
    0.133363586037607824E+02    0.103972314996404780E+01   -0.257427809806061196E+05
    0.134037504274479797E+02    0.107820853484182932E+01   -0.257427806990354511E+05
    0.133767348880015078E+02    0.114719236064669317E+01   -0.257427788552374368E+05
    0.133286934143532108E+02    0.105814417754976375E+01   -0.257427770396993619E+05
    0.134027385453141612E+02    0.952930857809807019E+00   -0.257427767856494975E+05
    0.134151056691963895E+02    0.960574679785633823E+00   -0.257427754847604156E+05
    0.134151056691963895E+02    0.960574679785633823E+00   -0.257427754847604156E+05
    0.133112442958913828E+02    0.122207142255849832E+01   -0.257427709415973986E+05
    0.133626533032529196E+02    0.991344417913935017E+00   -0.257427698004581398E+05
    0.133626533032529196E+02    0.991344417913935017E+00   -0.257427698004581398E+05
    0.133602624348700552E+02    0.117717987836240945E+01   -0.257427690753448114E+05
    0.134012687855170931E+02    0.108457071256039961E+01   -0.257427676228502751E+05
    0.133514384774191370E+02    0.119071760890843037E+01   -0.257427672741702481E+05
    0.133135562500602074E+02    0.122203812065718642E+01   -0.257427669562106457E+05
    0.133429828913337349E+02    0.120154304906156328E+01   -0.257427622493059425E+05
    0.133429828913337349E+02    0.120154304906156328E+01   -0.257427622493059425E+05
    0.133924478297239720E+02    0.110895707131429155E+01   -0.257427611845932515E+05
    0.134043112710324515E+02    0.954889023616749100E+00   -0.257427596370472929E+05
    0.134043112710324515E+02    0.954889023616749100E+00   -0.257427596370472929E+05
    0.134176817038209073E+02    0.972857638604484265E+00   -0.257427571920929549E+05
    0.134176817038209073E+02    0.972857638604484265E+00   -0.257427571920929549E+05
    0.133799796983226305E+02    0.113841789599834153E+01   -0.257427566858868595E+05
    0.133435740521863977E+02    0.120023307451876149E+01   -0.257427551305612033E+05
    0.133090713659832005E+02    0.112070252232824030E+01   -0.257427527894698105E+05
    0.133167137244288476E+02    0.109409845104126591E+01   -0.257427514795914140E+05
    0.133167137244288476E+02    0.109409845104126591E+01   -0.257427514795914140E+05
    0.133215556511701116E+02    0.121883465032801763E+01   -0.257427506975257347E+05
    0.134166056187098768E+02    0.101822289070717753E+01   -0.257427500553913269E+05
    0.133515628303587235E+02    0.118913197189837105E+01   -0.257427497743777240E+05
    0.133678181001699805E+02    0.116232459032787427E+01   -0.257427491987604990E+05
    0.133037587109836508E+02    0.114603243108859987E+01   -0.257427471242842985E+05
    0.133157537135699613E+02    0.109783517995922431E+01   -0.257427457217449082E+05
    0.133012783543990754E+02    0.120113385928983996E+01   -0.257427438072350051E+05
    0.133175699926291529E+02    0.109244039607239274E+01   -0.257427424191287828E+05
    0.133317813511013590E+02    0.105398115747825716E+01   -0.257427392316356309E+05
    0.133834088955328028E+02    0.967702773978760034E+00   -0.257427390639206460E+05
    0.133169557925182183E+02    0.121852634288619055E+01   -0.257427371594959186E+05
    0.133858665452290317E+02    0.112319563224655505E+01   -0.257427367764164192E+05
    0.133238989399529792E+02    0.121606045914983230E+01   -0.257427340758778446E+05
    0.133829553040587417E+02    0.112969424918067274E+01   -0.257427330953830169E+05
    0.133787359716717411E+02    0.113882230323851252E+01   -0.257427298692573313E+05
    0.134158573094999909E+02    0.973888586028526126E+00   -0.257427297239409054E+05
    0.134100001711621157E+02    0.961976319029415938E+00   -0.257427280208802367E+05
    0.133834225491299730E+02    0.112785472677668785E+01   -0.257427246149946950E+05
    0.133834225491299730E+02    0.112785472677668785E+01   -0.257427246149946950E+05
    0.134057982577518242E+02    0.106402683363791195E+01   -0.257427229689189990E+05
    0.134136074928126696E+02    0.102920597237116374E+01   -0.257427202920278214E+05
    0.133180798336797963E+02    0.109378025517208033E+01   -0.257427168990632854E+05
    0.133027769162250120E+02    0.116112271443555048E+01   -0.257427165816248671E+05
    0.134149178487459704E+02    0.975990419391973174E+00   -0.257427113643328339E+05
    0.133663896488239047E+02    0.990933698802994756E+00   -0.257427061651430959E+05
    0.134121691807616035E+02    0.969651106319937450E+00   -0.257427045012181843E+05
    0.133865764966639471E+02    0.111844965521272277E+01   -0.257427043095373956E+05
    0.133715472194617178E+02    0.115104408650926660E+01   -0.257426994329208283E+05
    0.133663308377362995E+02    0.116075371706645414E+01   -0.257426973604882769E+05
    0.133476640135919098E+02    0.102337899654564102E+01   -0.257426953985649889E+05
    0.134058182758981879E+02    0.105990967932370195E+01   -0.257426947033396827E+05
    0.133803887947865636E+02    0.113199251365188336E+01   -0.257426939868784430E+05
    0.133030459493050373E+02    0.118815801009611510E+01   -0.257426926798283457E+05
    0.133030459493050373E+02    0.118815801009611510E+01   -0.257426926798283457E+05
    0.133034830431394457E+02    0.116829103751359020E+01   -0.257426871977446390E+05
    0.133034830431394457E+02    0.116829103751359020E+01   -0.257426871977446390E+05
    0.133505086466999661E+02    0.118528894569918286E+01   -0.257426859080657123E+05
    0.133624935521668711E+02    0.116656849541957919E+01   -0.257426857539088523E+05
    0.133338032213115572E+02    0.120426081191890222E+01   -0.257426838692693091E+05
    0.133075650738730040E+02    0.114130283377395192E+01   -0.257426762747911889E+05
    0.133467451113857507E+02    0.102685137964498496E+01   -0.257426760899234578E+05
    0.133990210698249594E+02    0.108091611682186661E+01   -0.257426757441761729E+05
    0.133490690833069454E+02    0.118601393951783174E+01   -0.257426715122740934E+05
    0.133222073060148105E+02    0.108700905031970718E+01   -0.257426663698972880E+05
    0.133398355945371883E+02    0.104229669144613490E+01   -0.257426642012328521E+05
    0.133990912962485389E+02    0.107916565401506204E+01   -0.257426635753851988E+05
    0.134051826762715294E+02    0.968394887963407003E+00   -0.257426631764391859E+05
    0.134013033611814176E+02    0.967079972090169160E+00   -0.257426609949585109E+05
    0.133205751155252230E+02    0.120817182919512334E+01   -0.257426543467306656E+05
    0.133732690879705736E+02    0.114353367680131535E+01   -0.257426536140491371E+05
    0.133050515593486640E+02    0.117309837409843087E+01   -0.257426531080374407E+05
    0.133394748461741415E+02    0.119581629176023108E+01   -0.257426522522293926E+05
    0.133052693666665895E+02    0.117449724507525688E+01   -0.257426488663913660E+05
    0.133335912274184505E+02    0.105835651974910538E+01   -0.257426473713148589E+05
    0.133996224784859574E+02    0.107507594129212536E+01   -0.257426456607156797E+05
    0.133103865995079111E+02    0.120128645842974335E+01   -0.257426455564795433E+05
    0.133081298918339268E+02    0.114625621964743263E+01   -0.257426443637336452E+05
    0.133055905044467018E+02    0.117512300080975218E+01   -0.257426433046190177E+05
    0.134126808704681793E+02    0.100159516055105779E+01   -0.257426416965551289E+05
    0.133795953201674749E+02    0.112884495656610007E+01   -0.257426414714210623E+05
    0.133690177712826159E+02    0.992923943031362111E+00   -0.257426411681503378E+05
    0.133208583702623038E+02    0.120637187128933987E+01   -0.257426403845279565E+05
    0.133068986762794097E+02    0.115681113233033539E+01   -0.257426399531121497E+05
    0.134124900410741805E+02    0.100522892883782289E+01   -0.257426396646032190E+05
    0.133072573778798127E+02    0.119081418921268001E+01   -0.257426387919128174E+05
    0.133487220230610468E+02    0.102638018429496913E+01   -0.257426382185397597E+05
    0.133943488599160005E+02    0.970683261553656695E+00   -0.257426367642148834E+05
    0.134101925896812695E+02    0.982184678315397020E+00   -0.257426364669118630E+05
    0.133537196102082625E+02    0.101728180595391748E+01   -0.257426363664048185E+05
    0.133608150853254610E+02    0.100555555556659471E+01   -0.257426341525415010E+05
    0.133135178831562673E+02    0.120276691378527545E+01   -0.257426329846921835E+05
    0.133214641104752847E+02    0.109338396983236041E+01   -0.257426329087030463E+05
    0.133089985893310931E+02    0.119515845814283361E+01   -0.257426326095043660E+05
    0.133332335042696197E+02    0.106091676597198603E+01   -0.257426308585761726E+05
    0.133953801206706302E+02    0.971314925125294493E+00   -0.257426293517224040E+05
    0.133431455457435000E+02    0.103867135344535333E+01   -0.257426269080508355E+05
    0.133793006092958855E+02    0.982310108374495172E+00   -0.257426248938263889E+05
    0.133819319580074865E+02    0.112135312496639816E+01   -0.257426202070898216E+05
    0.134107231073600595E+02    0.992431401383326306E+00   -0.257426184976236873E+05
    0.133319255085092507E+02    0.119888579660184158E+01   -0.257426163687142107E+05
    0.133908643526879167E+02    0.974596495717176659E+00   -0.257426149367345643E+05
    0.133309629095601387E+02    0.119890822675399011E+01   -0.257426105954030718E+05
    0.134023397724978892E+02    0.105985381990824035E+01   -0.257426094656077294E+05
    0.133918058238429580E+02    0.975049531280850923E+00   -0.257426076097421428E+05
    0.133115151203723610E+02    0.119462385696100393E+01   -0.257426073302438708E+05
    0.133702216629409065E+02    0.994541159674725006E+00   -0.257426064820800384E+05
    0.133658500100069553E+02    0.100054856618561971E+01   -0.257426059643843146E+05
    0.133081456717467645E+02    0.117724908908834136E+01   -0.257426037658078130E+05
    0.133140758055914219E+02    0.112498256322503676E+01   -0.257426035048409140E+05
    0.133592195647546887E+02    0.101121982665222254E+01   -0.257426001308105515E+05
    0.133104197019371959E+02    0.118968211754460462E+01   -0.257425999563906262E+05
    0.133411892860355756E+02    0.118885937103781791E+01   -0.257425994833088916E+05
    0.133347328051035348E+02    0.119478379198087525E+01   -0.257425980225260573E+05
    0.133155644935195738E+02    0.119815052984918435E+01   -0.257425971447072006E+05
    0.133103592404111630E+02    0.114713124192755900E+01   -0.257425950060735959E+05
    0.133089765806226286E+02    0.117710021358589367E+01   -0.257425916326984225E+05
    0.134081533298040796E+02    0.990261346158422651E+00   -0.257425908526870226E+05
    0.134058676325751023E+02    0.104006879982628231E+01   -0.257425900829188140E+05
    0.133353550665186660E+02    0.119315387464417522E+01   -0.257425876034433313E+05
    0.134093014428553410E+02    0.100503906526532916E+01   -0.257425866047384807E+05
    0.133972241335051052E+02    0.107438631156653330E+01   -0.257425834304138007E+05
    0.133928331432705043E+02    0.108835247098500609E+01   -0.257425832679924570E+05
    0.133170973565543989E+02    0.119671811731273503E+01   -0.257425823570669090E+05
    0.134037598716288855E+02    0.981834909924684696E+00   -0.257425820114048256E+05
    0.133103963616590519E+02    0.115239995788923344E+01   -0.257425813210751730E+05
    0.134020019727866853E+02    0.980049571388954988E+00   -0.257425810609572109E+05
    0.133558396820612462E+02    0.101872725082159188E+01   -0.257425806113208710E+05
    0.134059790075413368E+02    0.986574859414769301E+00   -0.257425797521165150E+05
    0.133924208157624509E+02    0.979785862755302439E+00   -0.257425682996235992E+05
    0.133628523132173793E+02    0.115475451694574405E+01   -0.257425635062356669E+05
    0.133807091226167358E+02    0.987367252781118365E+00   -0.257425629565109448E+05
    0.133151826082326679E+02    0.119061276531334093E+01   -0.257425625961860896E+05
    0.133692898200942132E+02    0.114271112287313947E+01   -0.257425620592141386E+05
    0.134017450324284120E+02    0.983960167833107580E+00   -0.257425598173862782E+05
    0.133229952394222106E+02    0.109862473895488644E+01   -0.257425587689916829E+05
    0.133108664381920718E+02    0.116808970791547595E+01   -0.257425586113642275E+05
    0.133276241502602844E+02    0.108436600413901529E+01   -0.257425576128730936E+05
    0.133233420122506665E+02    0.119470724799588335E+01   -0.257425561666887806E+05
    0.133404228552060857E+02    0.118501181199929229E+01   -0.257425549043817555E+05
    0.133961930065345420E+02    0.107343776702853844E+01   -0.257425539244443571E+05
    0.134033322782312148E+02    0.104390567483941332E+01   -0.257425526928441286E+05
    0.133146487394235624E+02    0.113393545875693125E+01   -0.257425520182322798E+05
    0.133441822021540695E+02    0.118048025607035201E+01   -0.257425500140347976E+05
    0.133900568416758841E+02    0.109221100750419686E+01   -0.257425499616455272E+05
    0.134021160899320417E+02    0.986622220399499206E+00   -0.257425497436515543E+05
    0.133144600989327699E+02    0.118534296933306105E+01   -0.257425477670697364E+05
    0.133573676175426996E+02    0.101938303821477727E+01   -0.257425472512359338E+05
    0.133716481824499400E+02    0.113630430070712940E+01   -0.257425454787799063E+05
    0.133562294524553629E+02    0.116364141929346876E+01   -0.257425434569898607E+05
    0.133496888370108664E+02    0.117277960757551836E+01   -0.257425411784532989E+05
    0.133610098884334114E+02    0.115560746398025760E+01   -0.257425403655900045E+05
    0.133121215797518531E+02    0.116559137818951863E+01   -0.257425396469509142E+05
    0.133291142166408356E+02    0.108253427485415465E+01   -0.257425385650717653E+05
    0.133254895318358297E+02    0.109377153314907094E+01   -0.257425365944288096E+05
    0.133266015327566567E+02    0.109029484545943256E+01   -0.257425365399512011E+05
    0.134036179320949405E+02    0.103755535529403109E+01   -0.257425360626899565E+05
    0.134029145793267581E+02    0.104128893383641552E+01   -0.257425347717517398E+05
    0.133665380619453025E+02    0.111205689554345177E+01   -0.257422909711790162E+05
    0.133665380619453025E+02    0.111205689554345177E+01   -0.257422909711790162E+05
    0.133256395492618118E+02    0.114813352573898264E+01   -0.257423699450141830E+05
    0.133126400052436615E+02    0.116948413839316490E+01   -0.257425342258023047E+05
    0.133479302485917373E+02    0.113761328242535775E+01   -0.257422796013411935E+05
    0.133906803459498107E+02    0.105152122262609105E+01   -0.257423629179879390E+05
    0.133644582949883084E+02    0.113304656244504853E+01   -0.257423973395154935E+05
    0.133924510542547601E+02    0.108061815970709740E+01   -0.257425195616429883E+05
    0.133874702735832702E+02    0.105132965926779409E+01   -0.257423233290668868E+05
    0.133391927326189812E+02    0.118043856556171622E+01   -0.257425044615773331E+05
    0.133448129079802023E+02    0.116895948539762840E+01   -0.257424552390690187E+05
    0.133395416510466305E+02    0.117792806821000040E+01   -0.257424863476409737E+05
    0.133673053334695027E+02    0.102344957322223507E+01   -0.257423835724146775E+05
    0.133813884244926733E+02    0.110784950071343169E+01   -0.257424891889843129E+05
    0.133937895455602174E+02    0.105681144932042415E+01   -0.257424245472160692E+05
    0.133562798775392828E+02    0.105231514404088045E+01   -0.257423046484167062E+05
    0.133442243410997570E+02    0.116034682066933792E+01   -0.257423874234524446E+05
    0.133807209783283749E+02    0.101511930037576170E+01   -0.257423625946190368E+05
    0.133499654870251128E+02    0.111281180244238387E+01   -0.257422108700865574E+05
    0.133252841280746850E+02    0.113713727607003290E+01   -0.257423739449347595E+05
    0.133864520791806108E+02    0.109488508336706247E+01   -0.257424932550146914E+05
    0.133567614175270943E+02    0.103943849555719847E+01   -0.257423824950050002E+05
    0.133334993296642672E+02    0.111911826926034896E+01   -0.257423020699564840E+05
    0.133442619261447089E+02    0.115377826492115521E+01   -0.257423465606427380E+05
    0.133366821174495129E+02    0.106299951622159350E+01   -0.257425340947838704E+05
    0.133638813901779958E+02    0.105628350452066200E+01   -0.257422336931849386E+05
    0.133629142455105114E+02    0.106207283458759694E+01   -0.257422196061519753E+05
    0.133629142455105114E+02    0.106207283458759694E+01   -0.257422196061519753E+05
    0.133255081323393405E+02    0.114908550350713767E+01   -0.257423719559592100E+05
    0.133321156731361050E+02    0.111075178046250644E+01   -0.257423370546109290E+05
    0.133752212005059672E+02    0.104104216063287880E+01   -0.257422608539456560E+05
    0.133935567074171438E+02    0.101977983416609597E+01   -0.257423870686785449E+05
    0.133841941115989727E+02    0.102269049553439495E+01   -0.257423307696818520E+05
    0.133894403371736725E+02    0.105062047870789566E+01   -0.257423453062738008E+05
    0.133402518785461393E+02    0.107598525288452640E+01   -0.257423738739360306E+05
    0.133554395149043987E+02    0.113973931399920381E+01   -0.257423393920994058E+05
    0.133232693923421923E+02    0.118182192054609470E+01   -0.257424811646293565E+05
    0.133365434109094689E+02    0.117167263800589150E+01   -0.257424248263197733E+05
    0.133218327996740467E+02    0.111744031245059583E+01   -0.257424784165173587E+05
    0.133612678880213149E+02    0.106099521907980310E+01   -0.257422293729369849E+05
    0.133240539313100737E+02    0.112901314803187658E+01   -0.257424028617178556E+05
    0.133173752682121656E+02    0.114762260113359904E+01   -0.257424707933663522E+05
    0.133574381899316226E+02    0.102430235759046551E+01   -0.257424986383899559E+05
    0.133628751422051373E+02    0.107714860791203204E+01   -0.257421941851876581E+05
    0.133493431659720443E+02    0.106164641989775133E+01   -0.257423298631451580E+05
    0.133276264125650314E+02    0.111619609244724782E+01   -0.257423843457856347E+05
    0.134003706256024184E+02    0.101394592874462930E+01   -0.257424612937549064E+05
    0.133807292037949015E+02    0.107450175541625015E+01   -0.257422971827954570E+05
    0.133514658506443791E+02    0.109522414281914471E+01   -0.257422016754954275E+05
    0.133576662702532225E+02    0.104308378283578418E+01   -0.257423463131132739E+05
    0.133729636448466742E+02    0.102813156921309923E+01   -0.257423172917043848E+05
    0.133525721610887071E+02    0.109046664302916119E+01   -0.257422019014432226E+05
    0.133728040670569861E+02    0.109671113959023514E+01   -0.257422875990177017E+05
    0.133728040670569861E+02    0.109671113959023514E+01   -0.257422875990177017E+05
    0.133586086860589113E+02    0.106806219516364265E+01   -0.257422203042681613E+05
    0.133412651667434350E+02    0.116165982635647236E+01   -0.257423800052836050E+05
    0.133282839300667355E+02    0.119085077976254139E+01   -0.257425338415958540E+05
    0.133792926221254032E+02    0.107758897060523617E+01   -0.257422900644727633E+05
    0.133459047154071282E+02    0.109471974510655068E+01   -0.257422332597428176E+05
    0.133459047154071282E+02    0.109471974510655068E+01   -0.257422332597428176E+05
    0.133352089682157136E+02    0.113795968194934960E+01   -0.257422895576566225E+05
    0.133624866752159566E+02    0.102318205402639495E+01   -0.257424375086895634E+05
    0.133698242857850307E+02    0.112906225834113050E+01   -0.257424481779637572E+05
    0.133559040955688939E+02    0.108891861254129463E+01   -0.257421934182783407E+05
    0.133551646003704505E+02    0.111568560491537117E+01   -0.257422249347042780E+05
    0.133693579132911253E+02    0.104910083413907307E+01   -0.257422410139988024E+05
    0.133693579132911253E+02    0.104910083413907307E+01   -0.257422410139988024E+05
    0.133478779835673489E+02    0.107299702131818919E+01   -0.257422875176138477E+05
    0.133478779835673489E+02    0.107299702131818919E+01   -0.257422875176138477E+05
    0.133127436071630889E+02    0.117027038086461221E+01   -0.257425335352020993E+05
    0.133529983570417254E+02    0.111141041508623739E+01   -0.257422093687378983E+05
    0.133395781500840833E+02    0.115202457089606058E+01   -0.257423236202248227E+05
    0.133831735048386804E+02    0.102253571013877198E+01   -0.257423292992594870E+05
    0.133235776518986615E+02    0.118493519265125391E+01   -0.257424964272450634E+05
    0.133694993980255621E+02    0.101116007129502727E+01   -0.257424577352585729E+05
    0.133380706655610517E+02    0.108972996090634444E+01   -0.257423341654395990E+05
    0.133563809582621644E+02    0.106723698530862188E+01   -0.257422357030713283E+05
    0.133563809582621644E+02    0.106723698530862188E+01   -0.257422357030713283E+05
    0.133469557704609230E+02    0.104819753193121556E+01   -0.257424614859492613E+05
    0.133574358463559779E+02    0.111711861645477661E+01   -0.257422400419196056E+05
    0.133476801971782262E+02    0.109821917478222497E+01   -0.257422160849758402E+05
    0.133601115430460471E+02    0.105268506435883946E+01   -0.257422693918378754E+05
    0.133386417242045336E+02    0.114404254146979878E+01   -0.257422930719170727E+05
    0.133610329804370629E+02    0.102800139689065761E+01   -0.257424163819631140E+05
    0.133438145042655876E+02    0.116005125827699729E+01   -0.257423829765452756E+05
    0.133512988257476355E+02    0.111070659829906848E+01   -0.257422073842317368E+05
    0.133936793221493282E+02    0.102679507054017405E+01   -0.257423799002722553E+05
    0.133451678907557501E+02    0.115217803275395925E+01   -0.257423417334867663E+05
    0.133642992572644133E+02    0.107243683031406833E+01   -0.257421981072070594E+05
    0.133642992572644133E+02    0.107243683031406833E+01   -0.257421981072070594E+05
    0.133633769099756563E+02    0.109357926826576635E+01   -0.257422045348414795E+05
    0.133421649919290903E+02    0.116623234309715196E+01   -0.257424151390440966E+05
    0.133232726681670393E+02    0.114320134033257492E+01   -0.257423943295213539E+05
    0.133425426919869565E+02    0.105636086015632769E+01   -0.257424735000172514E+05
    0.133266973217945335E+02    0.116682322649039749E+01   -0.257424040026176372E+05
    0.133609326470181884E+02    0.111817915836120396E+01   -0.257422682548442426E+05
    0.133690067501443917E+02    0.107710479194017239E+01   -0.257422078362536595E+05
    0.133690067501443917E+02    0.107710479194017239E+01   -0.257422078362536595E+05
    0.133703386999136669E+02    0.108919551263235137E+01   -0.257422371129932981E+05
    0.133703386999136669E+02    0.108919551263235137E+01   -0.257422371129932981E+05
    0.133411205849385190E+02    0.106262936440382516E+01   -0.257424499992276506E+05
    0.133578030187902925E+02    0.104256747865419963E+01   -0.257423481962818696E+05
    0.133592069660241304E+02    0.106807974254217952E+01   -0.257422174656233910E+05
    0.133592069660241304E+02    0.106807974254217952E+01   -0.257422174656233910E+05
    0.133809526738808415E+02    0.106389283175000049E+01   -0.257422747891496037E+05
    0.133639859897932851E+02    0.104017396732625711E+01   -0.257423047514281134E+05
    0.133621616065522488E+02    0.107073718808902774E+01   -0.257422022903197649E+05
    0.133475080827964838E+02    0.106568000444467437E+01   -0.257423299971644701E+05
    0.133746131173200382E+02    0.103874544998191620E+01   -0.257422680588029179E+05
    0.133838687976041690E+02    0.102954370838604081E+01   -0.257423094663027805E+05
    0.133479314744396689E+02    0.104956765371090466E+01   -0.257424338408233707E+05
    0.133443115997408164E+02    0.109544133609168459E+01   -0.257422444103476846E+05
    0.133575809270954586E+02    0.112241196355881723E+01   -0.257422625344765438E+05
    0.133225516431992794E+02    0.116825335011862941E+01   -0.257424317821806799E+05
    0.133571827745376126E+02    0.105195715333299322E+01   -0.257422977909416841E+05
    0.133862109835032133E+02    0.994530837743917928E+00   -0.257424756174466311E+05
    0.133314660196615478E+02    0.109253433676149680E+01   -0.257424255614417925E+05
    0.133748083236199484E+02    0.996352684045817671E+00   -0.257425339478094866E+05
    0.133491882329682667E+02    0.109432715754136778E+01   -0.257422127872934288E+05
    0.133783425331416055E+02    0.106436942044079541E+01   -0.257422528207681826E+05
    0.133779719265298986E+02    0.103558426770117151E+01   -0.257422788695459603E+05
    0.133956336545815695E+02    0.103239263771445411E+01   -0.257424012353423059E+05
    0.133997632096983992E+02    0.103390509825111510E+01   -0.257424606541982976E+05
    0.133859471465235824E+02    0.106419240786241454E+01   -0.257423316246678587E+05
    0.133816809737644569E+02    0.107606805275354578E+01   -0.257423139726314657E+05
    0.133767509965727687E+02    0.108752776828207498E+01   -0.257422955904672635E+05
    0.133756201124856631E+02    0.103382111964151058E+01   -0.257422848618865100E+05
    0.133645490924241237E+02    0.101658838434094712E+01   -0.257424679479021397E+05
    0.133830659313609175E+02    0.102831387749504644E+01   -0.257423101624124720E+05
    0.133361870641892128E+02    0.108750003783636728E+01   -0.257423732634868284E+05
    0.133667005439794213E+02    0.107134965631277135E+01   -0.257422007133896004E+05
    0.133667005439794213E+02    0.107134965631277135E+01   -0.257422007133896004E+05
    0.133539116298773823E+02    0.112754494089560930E+01   -0.257422627230179569E+05
    0.133682249335692109E+02    0.103297496596997052E+01   -0.257423157133679633E+05
    0.133419292583265729E+02    0.115309179583427368E+01   -0.257423337012931770E+05
    0.133509979190568231E+02    0.108969921686816607E+01   -0.257422100886072622E+05
    0.133948359005737672E+02    0.998840171316356940E+00   -0.257424578906231436E+05
    0.134005389460959439E+02    0.101024300378872689E+01   -0.257424675631780265E+05
    0.133668448419502379E+02    0.101996082285902334E+01   -0.257424140198339446E+05
    0.133540685641910315E+02    0.114128352351052431E+01   -0.257423369028234010E+05
    0.133432665620657538E+02    0.111539007140416224E+01   -0.257422305375207252E+05
    0.133432665620657538E+02    0.111539007140416224E+01   -0.257422305375207252E+05
    0.133803952974411207E+02    0.109635057091824284E+01   -0.257423915174657341E+05
    0.133762566556752454E+02    0.110285781891771073E+01   -0.257423651129906320E+05
    0.133447615881022248E+02    0.114152780399392784E+01   -0.257422869939988741E+05
    0.133624424254060052E+02    0.114419388576974268E+01   -0.257424578491616558E+05
    0.133486512814457861E+02    0.115604051500765870E+01   -0.257423898501235490E+05
    0.133884405885994813E+02    0.100435685109315886E+01   -0.257424152433099880E+05
    0.133504127995726467E+02    0.107002534685269457E+01   -0.257422742305414613E+05
    0.133180307235099633E+02    0.112372403370788443E+01   -0.257425251650215687E+05
    0.133895461193278216E+02    0.105670950039448130E+01   -0.257423596701376264E+05
    0.133758585841881779E+02    0.107780596600056744E+01   -0.257422551991227701E+05
    0.133726806466235981E+02    0.112717665857962901E+01   -0.257424822262911766E+05
    0.133601273734373720E+02    0.112188518880410171E+01   -0.257422794007780831E+05
    0.133461083535060254E+02    0.116202333106216904E+01   -0.257424125414948685E+05
    0.133818828139593755E+02    0.102021615853533221E+01   -0.257423373511603531E+05
    0.133163132251303562E+02    0.116999340167557975E+01   -0.257424905872239760E+05
    0.133374483005904114E+02    0.111830193622228080E+01   -0.257422665114087831E+05
    0.133300817264277267E+02    0.118251972644661985E+01   -0.257424793941766329E+05
    0.133232202635137220E+02    0.118442327725239305E+01   -0.257424945896776189E+05
    0.133763284784585608E+02    0.105751795254703418E+01   -0.257422373806024989E+05
    0.133466932646337888E+02    0.109841516966941422E+01   -0.257422215844573511E+05
    0.133466932646337888E+02    0.109841516966941422E+01   -0.257422215844573511E+05
    0.133705377027060219E+02    0.111733664709228275E+01   -0.257423721599194869E+05
    0.133850298467527082E+02    0.109721384058595084E+01   -0.257424814366102946E+05
    0.133983803463790370E+02    0.986955193263513997E+00   -0.257425288708524458E+05
    0.133860238402162590E+02    0.102311074550254721E+01   -0.257423349625337069E+05
    0.133827670293057714E+02    0.109171445073393580E+01   -0.257424036613126409E+05
    0.133295570933507861E+02    0.115455704586083963E+01   -0.257423524702698269E+05
    0.133262928134012846E+02    0.110684757590939054E+01   -0.257424442337057262E+05
    0.133535811080601157E+02    0.115798292921517465E+01   -0.257424553054621392E+05
    0.133547838491637805E+02    0.112577263192620380E+01   -0.257422598904852675E+05
    0.133707939574690400E+02    0.110102232601930505E+01   -0.257422841654189178E+05
    0.133438179261510683E+02    0.114244669617457895E+01   -0.257422888264456415E+05
    0.133902819995933946E+02    0.104247256803664934E+01   -0.257423451631996213E+05
    0.133451375297627468E+02    0.113494550915140935E+01   -0.257422626371026563E+05
    0.133486376963181268E+02    0.105358959919015005E+01   -0.257423923573847169E+05
    0.133497526964111479E+02    0.115658762825008865E+01   -0.257424034491312414E+05
    0.133799848168566484E+02    0.108927323051102887E+01   -0.257423463698457417E+05
    0.133613450330895116E+02    0.111078251280951612E+01   -0.257422404730831404E+05
    0.133994510142145629E+02    0.100378128870683536E+01   -0.257424700918900926E+05
    0.133502962454157377E+02    0.106802780762946936E+01   -0.257422846842866966E+05
    0.133825818903003313E+02    0.110253698863039240E+01   -0.257424721544320346E+05
    0.133967369636616489E+02    0.105473513380212225E+01   -0.257424682179098672E+05
    0.133886723970877597E+02    0.101627713797273067E+01   -0.257423663447998224E+05
    0.133326472427444980E+02    0.112795259338517706E+01   -0.257423020177510480E+05
    0.133869815093560014E+02    0.103982931782501176E+01   -0.257423130158982858E+05
    0.133607209082250442E+02    0.111523632418332874E+01   -0.257422536463697652E+05
    0.133616499018747419E+02    0.112067648769566963E+01   -0.257422866784538601E+05
    0.133320400817344762E+02    0.110385459380658402E+01   -0.257423618712011958E+05
    0.133656957121802300E+02    0.109410847270460332E+01   -0.257422173746230183E+05
    0.133656957121802300E+02    0.109410847270460332E+01   -0.257422173746230183E+05
    0.133732445329141214E+02    0.105849313181528815E+01   -0.257422246392670677E+05
    0.133697282279788698E+02    0.100980816582072053E+01   -0.257424667723540551E+05
    0.133307953077577643E+02    0.117876092315581094E+01   -0.257424563582125338E+05
    0.133835204067449194E+02    0.102895086780661527E+01   -0.257423097913847159E+05
    0.133844666561653369E+02    0.998173691864246759E+00   -0.257424556949106118E+05
    0.133685786659899222E+02    0.105402640203290354E+01   -0.257422282456827015E+05
    0.133913016715185069E+02    0.100114693780341257E+01   -0.257424358495379565E+05
    0.133977790143500641E+02    0.104738730372683175E+01   -0.257424607481580315E+05
    0.133397991774603941E+02    0.111852630852037960E+01   -0.257422496618005316E+05
    0.133397991774603941E+02    0.111852630852037960E+01   -0.257422496618005316E+05
    0.133760424694589481E+02    0.104016685174738499E+01   -0.257422638044331215E+05
    0.133594325946894159E+02    0.101816011687891717E+01   -0.257425256971439449E+05
    0.133818067374981453E+02    0.103311822764660288E+01   -0.257422935284079213E+05
    0.134017805669217811E+02    0.102531657807729237E+01   -0.257424800008252532E+05
    0.133810985104008378E+02    0.104009170114742733E+01   -0.257422764271427259E+05
    0.133260557495755272E+02    0.116987836603860784E+01   -0.257424181950840830E+05
    0.133935684466194083E+02    0.101804755202152020E+01   -0.257423902858088732E+05
    0.133718925028763849E+02    0.100116546698621800E+01   -0.257425202376430534E+05
    0.134007162882003250E+02    0.100861627869993309E+01   -0.257424719190648357E+05
    0.133366874256488561E+02    0.117055490243515248E+01   -0.257424180914054523E+05
    0.133937377987600890E+02    0.998112295302274743E+00   -0.257424570627797148E+05
    0.133593888747682357E+02    0.114597981896127887E+01   -0.257424294067047667E+05
    0.133309009152959117E+02    0.112317311901062533E+01   -0.257423244461258582E+05
    0.133604097754356328E+02    0.108828171082027758E+01   -0.257421912297561503E+05
    0.133604097754356328E+02    0.108828171082027758E+01   -0.257421912297561503E+05
    0.133797728338810167E+02    0.105233337008721084E+01   -0.257422577632424182E+05
    0.133797728338810167E+02    0.105233337008721084E+01   -0.257422577632424182E+05
    0.133832617111481529E+02    0.108380187845133014E+01   -0.257423688967700109E+05
    0.133476960330325571E+02    0.110124270634475852E+01   -0.257422131500536743E+05
    0.133593462785121666E+02    0.104562309347566784E+01   -0.257423131026895680E+05
    0.133593462785121666E+02    0.104562309347566784E+01   -0.257423131026895680E+05
    0.133794871922084297E+02    0.104910895299843232E+01   -0.257422578458174103E+05
    0.133794871922084297E+02    0.104910895299843232E+01   -0.257422578458174103E+05
    0.133828899873723692E+02    0.103545100139710722E+01   -0.257422924184648000E+05
    0.133828899873723692E+02    0.103545100139710722E+01   -0.257422924184648000E+05
    0.133952086333205465E+02    0.106287525851209885E+01   -0.257424749325735684E+05
    0.133429687447554137E+02    0.108034679694499336E+01   -0.257423118384359150E+05
    0.133306836056798783E+02    0.118435720272567346E+01   -0.257424930207289690E+05
    0.133405395217593075E+02    0.111019168463999351E+01   -0.257422496015017350E+05
    0.133330406969381201E+02    0.108859956158900584E+01   -0.257424200423263974E+05
    0.134007259443954716E+02    0.101657258683710983E+01   -0.257424636013517083E+05
    0.133167101086872002E+02    0.115672255480457475E+01   -0.257424747739122649E+05
    0.133299644962621766E+02    0.109360494172056688E+01   -0.257424469608596082E+05
    0.133557674452209696E+02    0.113911976447790342E+01   -0.257423384857956153E+05
    0.133544262742152053E+02    0.108928669662187216E+01   -0.257421967582634024E+05
    0.133507593144954733E+02    0.108408243023484752E+01   -0.257422227894408716E+05
    0.133812151830604229E+02    0.107769178096801421E+01   -0.257423137685187794E+05
    0.133707425139345464E+02    0.113603497961984301E+01   -0.257425255243404317E+05
    0.133675511353881209E+02    0.113699727241376403E+01   -0.257424771082826483E+05
    0.133233920535616708E+02    0.115380590555486529E+01   -0.257423963679184162E+05
    0.133896710835619288E+02    0.102677808324393816E+01   -0.257423462323370877E+05
    0.133782894165039110E+02    0.102909777706745320E+01   -0.257423012919279099E+05
    0.133496950928862983E+02    0.115307834217461336E+01   -0.257423777290035832E+05
    0.133569751776774268E+02    0.108272937959185844E+01   -0.257421964721802287E+05
    0.133766041105755740E+02    0.103273233825186295E+01   -0.257422881906611619E+05
    0.133442708217897259E+02    0.114036374601507662E+01   -0.257422812483113594E+05
    0.133817245746329423E+02    0.110330061738621543E+01   -0.257424613062097269E+05
    0.133340659930591734E+02    0.118682964379224343E+01   -0.257425245807793071E+05
    0.133876662433219060E+02    0.101081399931655769E+01   -0.257423840245685533E+05
    0.133968325814841531E+02    0.104473348273535782E+01   -0.257424374472113595E+05
    0.133294635027727857E+02    0.110697276309518022E+01   -0.257423893209068992E+05
    0.133649113072883452E+02    0.113540291669020110E+01   -0.257424220134454954E+05
    0.133281716270680857E+02    0.118299704839787978E+01   -0.257424805973632065E+05
    0.133561060101089346E+02    0.114948039025790738E+01   -0.257424159786953351E+05
    0.133378433049738288E+02    0.108293230588143130E+01   -0.257423717883578356E+05
    0.133639322030463585E+02    0.109183095877274150E+01   -0.257422038816705135E+05
    0.133752791539416371E+02    0.102482978589148233E+01   -0.257423258058005376E+05
    0.133485506335847361E+02    0.116224181000706439E+01   -0.257424356324457112E+05
    0.133489539598918903E+02    0.108293009420471309E+01   -0.257422392111695917E+05
    0.133354292719985157E+02    0.110478274056188797E+01   -0.257423121979879652E+05
    0.133282983682478022E+02    0.117870417594216947E+01   -0.257424551683660320E+05
    0.133411398150430376E+02    0.117064083999534185E+01   -0.257424405983054239E+05
    0.133218035017555909E+02    0.117920988092633561E+01   -0.257424751560317090E+05
    0.133681921396478387E+02    0.102593150857273363E+01   -0.257423589640619793E+05
    0.133537855234974110E+02    0.102975549687648349E+01   -0.257425073170378673E+05
    0.133897489683627526E+02    0.107352067691703490E+01   -0.257424261605066604E+05
    0.133537885614372716E+02    0.113395606196557641E+01   -0.257422926028258953E+05
    0.133757949117481942E+02    0.105163761509452991E+01   -0.257422399009737819E+05
    0.133757949117481942E+02    0.105163761509452991E+01   -0.257422399009737819E+05
    0.133738053660046052E+02    0.106110423025739387E+01   -0.257422249169316638E+05
    0.133336863124630476E+02    0.110311164392035521E+01   -0.257423408340714959E+05
    0.133572214127738942E+02    0.109929612781927188E+01   -0.257421959870831961E+05
    0.133572214127738942E+02    0.109929612781927188E+01   -0.257421959870831961E+05
    0.133926817273558108E+02    0.108214059358833903E+01   -0.257425346903762111E+05
    0.133485025182481074E+02    0.104672975587961137E+01   -0.257424472264659998E+05
    0.133407503483878003E+02    0.108119304397366633E+01   -0.257423375858232102E+05
    0.133539365640680110E+02    0.114067061006444370E+01   -0.257423319543434991E+05
    0.133203270556585647E+02    0.111476520301037518E+01   -0.257425207518305433E+05
    0.133447465491297130E+02    0.108577574743073901E+01   -0.257422687209619653E+05
    0.133753476784886836E+02    0.106744735417063685E+01   -0.257422343888382529E+05
    0.133639593811335811E+02    0.114848400797910344E+01   -0.257425210730190302E+05
    0.133433490147806033E+02    0.107771399284932379E+01   -0.257423197254715597E+05
    0.133790818594770862E+02    0.102625629169069521E+01   -0.257423123250042445E+05
    0.133508919937829535E+02    0.114475434146519084E+01   -0.257423330157528362E+05
    0.133711879001742773E+02    0.105290254319530296E+01   -0.257422297030810478E+05
    0.133848794102027888E+02    0.106085573669256328E+01   -0.257423103995201345E+05
    0.133389678737022184E+02    0.110460830112209440E+01   -0.257422729063609513E+05
    0.133941581166977759E+02    0.103985792226263962E+01   -0.257423892369574787E+05
    0.133500276276733416E+02    0.106774985065421513E+01   -0.257422889060160014E+05
    0.133387879601478527E+02    0.106014879154276342E+01   -0.257425148826606928E+05
    0.133674637499884419E+02    0.105450058134426450E+01   -0.257422287106298718E+05
    0.133409273836709392E+02    0.113967844334745116E+01   -0.257422771266800009E+05
    0.133758851419693663E+02    0.105619052374035682E+01   -0.257422359672658677E+05
    0.133307319271557567E+02    0.112822530324303250E+01   -0.257423204114377113E+05
    0.133372775492971201E+02    0.106704747459370797E+01   -0.257424885335958716E+05
    0.133719783806898427E+02    0.102552097699798228E+01   -0.257423363447836855E+05
    0.133721028211071946E+02    0.111967181337343380E+01   -0.257424125499836591E+05
    0.133841827243032547E+02    0.107471052750626850E+01   -0.257423426844602691E+05
    0.133644651427328718E+02    0.113674749580347889E+01   -0.257424261543852808E+05
    0.133156006683900046E+02    0.117588695068155991E+01   -0.257425099310127407E+05
    0.133179818032002206E+02    0.112402983020585467E+01   -0.257425248210349673E+05
    0.133420720479557673E+02    0.105383544809393248E+01   -0.257425037370669161E+05
    0.133811534150861071E+02    0.110899941741604380E+01   -0.257424936055282342E+05
    0.133489126880812705E+02    0.113471208591653183E+01   -0.257422706969283099E+05
    0.133578703358252842E+02    0.114644114024613830E+01   -0.257424135117831938E+05
    0.133501420212351469E+02    0.104029197724965417E+01   -0.257424739715625328E+05
    0.133820904333411086E+02    0.108151767731562742E+01   -0.257423408201644670E+05
    0.133454823299139687E+02    0.112895717133718620E+01   -0.257422448201987499E+05
    0.133403177759812692E+02    0.106924681881598582E+01   -0.257424160998140615E+05
    0.133344329025633712E+02    0.118543369780973684E+01   -0.257425153153835381E+05
    0.133678359569597820E+02    0.109718986098929538E+01   -0.257422410703495771E+05
    0.133678359569597820E+02    0.109718986098929538E+01   -0.257422410703495771E+05
    0.133794931730387034E+02    0.108216083267921404E+01   -0.257423084632702303E+05
    0.133680102150531397E+02    0.112153333073759431E+01   -0.257423646122215505E+05
