    0.137763782641510624E+00    0.691050017015149703E-01    0.179324495257691052E+01    0.133464951979605062E+00    0.258884770600622094E+00    0.820697349530163771E-04   -0.760412819118563732E+01    0.139451540300201486E+02   -0.177432954617625960E+01   -0.212711098854942993E+01    0.216366390459593605E+01   -0.778492364768733403E+00   -0.877830103663114460E+04
    0.131757472711215129E+00    0.818787045040096223E-01    0.178771961131109403E+01    0.143701174444400198E+00    0.261953604650123406E+00    0.655468314836550934E-04   -0.759802612017234935E+01    0.131106426703396544E+02   -0.183061260224694755E+01   -0.190237949273192797E+01    0.213863397055814097E+01   -0.842365883657447023E+00   -0.877815799345649611E+04
    0.138412523296838008E+00    0.817612207543056413E-01    0.181534307730474720E+01    0.132374412852331230E+00    0.255733728253382364E+00    0.745525950829326110E-04   -0.760843229817547950E+01    0.129200628291713180E+02   -0.166097366263932233E+01   -0.226314542446212386E+01    0.213473871210224342E+01   -0.927571540089395796E+00   -0.877783952871047950E+04
    0.131029706046637218E+00    0.756418847390310928E-01    0.167632110370708043E+01    0.147855343144972506E+00    0.250062396964276012E+00    0.755059165194505734E-04   -0.777086999191796579E+01    0.139288622243065809E+02   -0.185602854319506982E+01   -0.160656038865036166E+01    0.221537402144876694E+01   -0.762662445062795680E+00   -0.877649523580837194E+04
    0.134733262897689998E+00    0.783365877383363357E-01    0.186007490113339724E+01    0.143920230282797268E+00    0.257996244672730302E+00    0.685506205894583615E-04   -0.746607215331876084E+01    0.136105306027738351E+02   -0.188737654115032227E+01   -0.196395323612842532E+01    0.206841885036298923E+01   -0.831804078872652841E+00   -0.877564723906507788E+04
    0.118890576369205234E+00    0.910126467528367261E-01    0.172608373843013330E+01    0.150511232297035585E+00    0.255025705373639833E+00    0.665310583809894049E-04   -0.756634190210891155E+01    0.128575155600789728E+02   -0.191596572662032316E+01   -0.178605473613236221E+01    0.211202398919930978E+01   -0.828438696000613817E+00   -0.877539679885745682E+04
    0.135985073651917976E+00    0.752564931842465146E-01    0.179500115881559541E+01    0.124714343533402869E+00    0.254238359551889892E+00    0.884478874700080878E-04   -0.756632000753811695E+01    0.135875374013093335E+02   -0.170618994800622836E+01   -0.249071874041168861E+01    0.215066777953212762E+01   -0.833138008425855059E+00   -0.877512106857368235E+04
    0.140873702332310918E+00    0.723581435916362536E-01    0.179546508128663329E+01    0.121745698455124382E+00    0.243492954755759133E+00    0.972409702351210157E-04   -0.758631542349338694E+01    0.140714456335693470E+02   -0.166542298576217873E+01   -0.256490050541482262E+01    0.214772055593506739E+01   -0.840569447709625051E+00   -0.877505165300628323E+04
    0.126591488546944880E+00    0.757582471743510344E-01    0.173646764411712629E+01    0.144440825402773809E+00    0.268857711236171582E+00    0.682627717916795885E-04   -0.764155206871482662E+01    0.133814797710049049E+02   -0.188173526513814071E+01   -0.176676348330404842E+01    0.218550366248453098E+01   -0.754343528828911536E+00   -0.877498798241977056E+04
    0.128582408364223078E+00    0.810786287924573218E-01    0.172736501144504961E+01    0.156196863243209499E+00    0.257925774006993291E+00    0.603116279099820109E-04   -0.768778192456547060E+01    0.134692614906766757E+02   -0.193887922714928918E+01   -0.142683713905977783E+01    0.216525229858808022E+01   -0.792708759509662242E+00   -0.877480326570820034E+04
    0.137761310205190640E+00    0.740398841114225936E-01    0.179319845253773025E+01    0.148665923218314761E+00    0.267899911355102716E+00    0.585063497541214221E-04   -0.768668292226645633E+01    0.134433054735314919E+02   -0.184532271022009220E+01   -0.158054486107980274E+01    0.217738942154953463E+01   -0.823927751554918375E+00   -0.877472377780003444E+04
    0.130545852297007492E+00    0.786960689316033302E-01    0.173615544367618702E+01    0.143832679004535169E+00    0.250896406139562211E+00    0.763622234857273049E-04   -0.765792806625583466E+01    0.135476665472639191E+02   -0.180376795810967416E+01   -0.182927898237686293E+01    0.215338457159531460E+01   -0.822703483032455996E+00   -0.877471754501136638E+04
    0.127893785116683756E+00    0.646320846448845687E-01    0.171854094802362134E+01    0.136051359224458213E+00    0.265649457628129304E+00    0.852307796000852211E-04   -0.762990424140689427E+01    0.144214988642582078E+02   -0.190599432826849680E+01   -0.194684638194591741E+01    0.221187433058360083E+01   -0.649878832878439505E+00   -0.877467207556503490E+04
    0.127094728019334496E+00    0.746600460205453925E-01    0.171329058136158907E+01    0.153894466995222856E+00    0.257316817892171590E+00    0.690927880537223302E-04   -0.766493452418569454E+01    0.140495722605306810E+02   -0.197764638693492589E+01   -0.146272098413435003E+01    0.217192144465204784E+01   -0.715498357999307499E+00   -0.877440615323684870E+04
    0.139628667816127150E+00    0.755788860323814565E-01    0.181549768183788740E+01    0.134365447643528146E+00    0.253504892927744252E+00    0.782206781934088142E-04   -0.761726780860308672E+01    0.133160163701344878E+02   -0.166801020422819501E+01   -0.212890516893776915E+01    0.213128109852253278E+01   -0.901251365041940256E+00   -0.877430134905356499E+04
    0.117026210405240236E+00    0.833522900110842124E-01    0.168018061642637595E+01    0.146379878981487355E+00    0.272982735544128607E+00    0.642575525560086302E-04   -0.766439060494394120E+01    0.128252935235851027E+02   -0.191454410264654507E+01   -0.173539263509822561E+01    0.220736922060394436E+01   -0.751852694021442280E+00   -0.877420168813692908E+04
    0.126740139502940191E+00    0.772052904089272768E-01    0.174662604651124997E+01    0.147292394377189384E+00    0.261029585175124312E+00    0.702458946634923134E-04   -0.761373124736691675E+01    0.134981485282987101E+02   -0.188689814730831285E+01   -0.171657063452345326E+01    0.214915390703850218E+01   -0.776544651496670291E+00   -0.877410237011128265E+04
    0.123647247974420157E+00    0.826743848728388186E-01    0.174909733698181347E+01    0.141664931073210099E+00    0.273500275369424617E+00    0.636845486858034389E-04   -0.759865247356983886E+01    0.128704569896382353E+02   -0.188214711268111756E+01   -0.193568455004918327E+01    0.217627416428229781E+01   -0.789097039545622048E+00   -0.877408273114724216E+04
    0.126746068621859359E+00    0.696227477660021077E-01    0.172591426070042941E+01    0.136126920930725620E+00    0.275015978500097069E+00    0.750973763988341145E-04   -0.764612040888506961E+01    0.137292911723807549E+02   -0.188325785371070609E+01   -0.195737463406743117E+01    0.222633366193707527E+01   -0.694367492036923828E+00   -0.877387475835788246E+04
    0.126496660676554296E+00    0.822633518855547252E-01    0.173522047528396395E+01    0.133752687372635570E+00    0.268078434894803319E+00    0.722889632927081429E-04   -0.766246124152444530E+01    0.125486566669923505E+02   -0.170644778424384613E+01   -0.213363514891286421E+01    0.219210545723214967E+01   -0.863876623859589410E+00   -0.877378732549924825E+04
    0.125366771555599499E+00    0.780572710176656720E-01    0.170362641200566767E+01    0.146158042923836745E+00    0.269339511324869774E+00    0.651279463297655417E-04   -0.770277223392631960E+01    0.132541549867522939E+02   -0.189016454373985909E+01   -0.168253830568275475E+01    0.221620574911051049E+01   -0.757065881536953089E+00   -0.877372422752093917E+04
    0.123819181921198618E+00    0.837243474588876824E-01    0.173949571184601570E+01    0.148767307156134176E+00    0.266165997370688467E+00    0.620855333646169575E-04   -0.761687328358670346E+01    0.130313907521746977E+02   -0.191392565340383003E+01   -0.171804550587508764E+01    0.215831159350082036E+01   -0.796402937025876723E+00   -0.877369015314853641E+04
    0.130404061986445607E+00    0.802418348480032073E-01    0.176925837661396246E+01    0.143034677276773492E+00    0.269658753161964582E+00    0.622928464248757380E-04   -0.765425181935544607E+01    0.128680245556192183E+02   -0.179893913734921451E+01   -0.182454625510668222E+01    0.217409219393503106E+01   -0.848350002840728479E+00   -0.877365571772532530E+04
    0.128650019961673717E+00    0.799673747182857442E-01    0.180834298896776380E+01    0.140220608295565791E+00    0.268921114545774054E+00    0.667760892494632740E-04   -0.752014580966758661E+01    0.131934523332741414E+02   -0.188084045626456708E+01   -0.202925482705668436E+01    0.212743593693083577E+01   -0.803906183985934497E+00   -0.877364296669964824E+04
    0.142538265167228062E+00    0.749583422956138501E-01    0.178898243747970165E+01    0.132956183827963953E+00    0.248144561818259668E+00    0.814073759848893831E-04   -0.769342061136573463E+01    0.134095905692104580E+02   -0.161772675825110546E+01   -0.212577062084602808E+01    0.216046930821062144E+01   -0.916206744779324289E+00   -0.877354515631340109E+04
    0.130837158061001907E+00    0.785031825216996881E-01    0.180518313094586236E+01    0.145809485265229466E+00    0.269555814672886584E+00    0.612675957566072087E-04   -0.757056520636474684E+01    0.132278599156985592E+02   -0.188951526230487898E+01   -0.179636800992779833E+01    0.213766261582115025E+01   -0.809045402554995796E+00   -0.877342953310151643E+04
    0.137340575756094124E+00    0.764907384105517063E-01    0.178962579389767606E+01    0.135331925324998992E+00    0.253648673641861166E+00    0.781605191902301526E-04   -0.762944048221653404E+01    0.134185144658856288E+02   -0.172009619427976679E+01   -0.211015492279195005E+01    0.214912240609414873E+01   -0.864128205940845939E+00   -0.877342878039256902E+04
    0.130325126867546465E+00    0.788633505770047066E-01    0.182069300667416112E+01    0.147888169013991211E+00    0.274779948784687866E+00    0.558529800088724065E-04   -0.755983593798032771E+01    0.129991279870839271E+02   -0.189460831790217576E+01   -0.172372616116034116E+01    0.213084340140504835E+01   -0.822068990269372524E+00   -0.877339947450251930E+04
    0.129002935745797603E+00    0.731226222220148075E-01    0.175083648185943774E+01    0.151896380381321167E+00    0.270222884691145693E+00    0.612272465209910411E-04   -0.765842585129712106E+01    0.135913019759041944E+02   -0.193883382087530731E+01   -0.148539960568414564E+01    0.218053564406784472E+01   -0.743469963346828244E+00   -0.877322966212777828E+04
    0.122053938070347284E+00    0.753599659167771968E-01    0.171040663304022655E+01    0.137194045598862696E+00    0.275382991437211455E+00    0.726251727942165337E-04   -0.762176322470815037E+01    0.135651794767453779E+02   -0.193632754515810657E+01   -0.198807241006147706E+01    0.222196449246080352E+01   -0.689485640345799400E+00   -0.877294200930207080E+04
    0.122053938070347284E+00    0.753599659167771968E-01    0.171040663304022655E+01    0.137194045598862696E+00    0.275382991437211455E+00    0.726251727942165337E-04   -0.762176322470815037E+01    0.135651794767453779E+02   -0.193632754515810657E+01   -0.198807241006147706E+01    0.222196449246080352E+01   -0.689485640345799400E+00   -0.877294200930207080E+04
    0.144616722394440400E+00    0.745640187489231970E-01    0.180013196250824770E+01    0.131244254128349558E+00    0.239518669391946576E+00    0.877130276545271112E-04   -0.764844430578748913E+01    0.139291411813176929E+02   -0.166490156584178250E+01   -0.224361094858786814E+01    0.214022231755728276E+01   -0.891072866578625833E+00   -0.877289298024485652E+04
    0.144616722394440400E+00    0.745640187489231970E-01    0.180013196250824770E+01    0.131244254128349558E+00    0.239518669391946576E+00    0.877130276545271112E-04   -0.764844430578748913E+01    0.139291411813176929E+02   -0.166490156584178250E+01   -0.224361094858786814E+01    0.214022231755728276E+01   -0.891072866578625833E+00   -0.877289298024485652E+04
    0.129997144519378965E+00    0.688266444219182705E-01    0.174187986474424394E+01    0.144626061205217149E+00    0.266453099095752100E+00    0.727069743105741330E-04   -0.764304982401435584E+01    0.141474972148096931E+02   -0.193397223012812547E+01   -0.169727100367924066E+01    0.219230189408882081E+01   -0.698162425505678863E+00   -0.877289040741739882E+04
    0.114797578619973487E+00    0.809726711878436534E-01    0.165045554128005412E+01    0.147582862379619456E+00    0.263505177064789486E+00    0.735567059798339986E-04   -0.765080184918135942E+01    0.134309388375243230E+02   -0.197052675363624363E+01   -0.171061778466398451E+01    0.219952531126326534E+01   -0.693277366086467950E+00   -0.877288459282928306E+04
    0.140549871040684615E+00    0.589940110518252098E-01    0.180386132207941818E+01    0.140128233937749175E+00    0.272977572238536692E+00    0.719036435931561511E-04   -0.764675476236947649E+01    0.145721362553974743E+02   -0.189799652868706259E+01   -0.173881817666816652E+01    0.220524246612541530E+01   -0.691105735867880044E+00   -0.877281735313465651E+04
    0.140549871040684615E+00    0.589940110518252098E-01    0.180386132207941818E+01    0.140128233937749175E+00    0.272977572238536692E+00    0.719036435931561511E-04   -0.764675476236947649E+01    0.145721362553974743E+02   -0.189799652868706259E+01   -0.173881817666816652E+01    0.220524246612541530E+01   -0.691105735867880044E+00   -0.877281735313465651E+04
    0.137398594198961554E+00    0.804653640601634274E-01    0.179300423369074324E+01    0.144296167257710301E+00    0.261618580656036048E+00    0.615486918233478506E-04   -0.767815005418516350E+01    0.130707178184070472E+02   -0.177405004864871207E+01   -0.179056107498439054E+01    0.216264925884369141E+01   -0.890959122679240378E+00   -0.877276189038609300E+04
    0.144299961751279876E+00    0.640469728382764003E-01    0.183381217016541598E+01    0.148294198460586252E+00    0.268587212720138024E+00    0.615397364612659079E-04   -0.765919329867054444E+01    0.142144746883266535E+02   -0.188683080194286101E+01   -0.153012270194656530E+01    0.217185455494427959E+01   -0.768191626537202188E+00   -0.877274688139784485E+04
    0.148917919434901985E+00    0.721357599164095531E-01    0.182533156373587624E+01    0.142553501021078610E+00    0.248334694542456574E+00    0.706610212171653062E-04   -0.772468823015218398E+01    0.136942749004044479E+02   -0.166414671716177653E+01   -0.175281196347955692E+01    0.214717106560763016E+01   -0.936328634162637119E+00   -0.877272108085947730E+04
    0.140900845404325709E+00    0.714099912175490958E-01    0.181343734903972575E+01    0.143594307799505105E+00    0.269216692199161112E+00    0.614457978789249902E-04   -0.769152623037269301E+01    0.133341532989889586E+02   -0.176126056695092514E+01   -0.170159151532754294E+01    0.217907349463999322E+01   -0.856860030563022956E+00   -0.877270201020721106E+04
    0.125767127413395435E+00    0.699358634719331601E-01    0.171791011750996958E+01    0.139788650143412851E+00    0.268224131960961509E+00    0.774778845728337677E-04   -0.763294101006190040E+01    0.139929932802549146E+02   -0.192080180662072575E+01   -0.186625175439937152E+01    0.220644674946269514E+01   -0.680929413157957963E+00   -0.877269797613676383E+04
    0.125767127413395435E+00    0.699358634719331601E-01    0.171791011750996958E+01    0.139788650143412851E+00    0.268224131960961509E+00    0.774778845728337677E-04   -0.763294101006190040E+01    0.139929932802549146E+02   -0.192080180662072575E+01   -0.186625175439937152E+01    0.220644674946269514E+01   -0.680929413157957963E+00   -0.877269797613676383E+04
    0.138158535987352948E+00    0.650822827736512177E-01    0.179771013559973247E+01    0.146065629906625305E+00    0.268257829644926504E+00    0.673062912714381302E-04   -0.766071894414960752E+01    0.140336566638206719E+02   -0.185576165170632046E+01   -0.158991247627457533E+01    0.217589874037258957E+01   -0.762937148680060684E+00   -0.877262484271706126E+04
    0.138158535987352948E+00    0.650822827736512177E-01    0.179771013559973247E+01    0.146065629906625305E+00    0.268257829644926504E+00    0.673062912714381302E-04   -0.766071894414960752E+01    0.140336566638206719E+02   -0.185576165170632046E+01   -0.158991247627457533E+01    0.217589874037258957E+01   -0.762937148680060684E+00   -0.877262484271706126E+04
    0.138622257455352255E+00    0.767376405302641756E-01    0.181811269320110180E+01    0.145556637788709697E+00    0.262461965580384537E+00    0.621095694104218060E-04   -0.763545192903833758E+01    0.133579438421155210E+02   -0.181049915655523841E+01   -0.175029213402304151E+01    0.214298851551821867E+01   -0.864467991091625976E+00   -0.877261242553164811E+04
    0.138622257455352255E+00    0.767376405302641756E-01    0.181811269320110180E+01    0.145556637788709697E+00    0.262461965580384537E+00    0.621095694104218060E-04   -0.763545192903833758E+01    0.133579438421155210E+02   -0.181049915655523841E+01   -0.175029213402304151E+01    0.214298851551821867E+01   -0.864467991091625976E+00   -0.877261242553164811E+04
    0.139850840211358879E+00    0.710287641715979245E-01    0.178752295093227187E+01    0.134559029622276394E+00    0.251726365256174089E+00    0.826160477134667596E-04   -0.764836693795346001E+01    0.138713537479399598E+02   -0.172099027375226266E+01   -0.206818673504602479E+01    0.215891568243039833E+01   -0.836147852929884028E+00   -0.877258975089425803E+04
    0.139850840211358879E+00    0.710287641715979245E-01    0.178752295093227187E+01    0.134559029622276394E+00    0.251726365256174089E+00    0.826160477134667596E-04   -0.764836693795346001E+01    0.138713537479399598E+02   -0.172099027375226266E+01   -0.206818673504602479E+01    0.215891568243039833E+01   -0.836147852929884028E+00   -0.877258975089425803E+04
    0.135215214084023178E+00    0.651007948781814200E-01    0.176198095058379400E+01    0.144005888631181023E+00    0.272089116978619261E+00    0.681165258405628751E-04   -0.765757740277874532E+01    0.144448700448238476E+02   -0.198343755335652494E+01   -0.168673667027703011E+01    0.222067660597600280E+01   -0.659867444174104145E+00   -0.877250616036185784E+04
    0.143595782126662408E+00    0.589437385816136070E-01    0.182056757351863063E+01    0.136718929705684084E+00    0.273399980259254494E+00    0.721555962342741952E-04   -0.764888274130441026E+01    0.145190816890747136E+02   -0.186132354106059106E+01   -0.184721238830542767E+01    0.220880647949372566E+01   -0.714028317050669381E+00   -0.877250286145357677E+04
    0.135368004849270251E+00    0.792830280058673120E-01    0.178486865567829933E+01    0.141524643225580837E+00    0.266851715822359781E+00    0.625268387344614992E-04   -0.768438913072484819E+01    0.128599328856022055E+02   -0.174074337702539172E+01   -0.184610177617703819E+01    0.217619234682895879E+01   -0.888688103320223632E+00   -0.877247647336482441E+04
    0.135368004849270251E+00    0.792830280058673120E-01    0.178486865567829933E+01    0.141524643225580837E+00    0.266851715822359781E+00    0.625268387344614992E-04   -0.768438913072484819E+01    0.128599328856022055E+02   -0.174074337702539172E+01   -0.184610177617703819E+01    0.217619234682895879E+01   -0.888688103320223632E+00   -0.877247647336482441E+04
    0.147837740930324341E+00    0.713802848984048111E-01    0.183976930376027470E+01    0.140474021370390112E+00    0.252053829425945508E+00    0.712603233048595471E-04   -0.768262685378156540E+01    0.136406093742390127E+02   -0.167169240612217651E+01   -0.184146215721888140E+01    0.213901390491418653E+01   -0.922494524518596259E+00   -0.877247067193842850E+04
    0.145129611094771210E+00    0.628671249696265283E-01    0.180390943647953761E+01    0.141865572760057429E+00    0.267641140282384449E+00    0.676721147849915824E-04   -0.770504521597318526E+01    0.144438793259079574E+02   -0.186471345277837375E+01   -0.169126715884449474E+01    0.221379860042751497E+01   -0.746523872217344397E+00   -0.877245344187594674E+04
    0.153550646894453718E+00    0.538023738407575544E-01    0.187133773943347226E+01    0.133259512007441128E+00    0.275431000588650277E+00    0.703540701096320461E-04   -0.766783242272896715E+01    0.147259523702285513E+02   -0.180817668468158388E+01   -0.189939333674974087E+01    0.221673686539141146E+01   -0.741410320812206258E+00   -0.877245017503998861E+04
    0.153550646894453718E+00    0.538023738407575544E-01    0.187133773943347226E+01    0.133259512007441128E+00    0.275431000588650277E+00    0.703540701096320461E-04   -0.766783242272896715E+01    0.147259523702285513E+02   -0.180817668468158388E+01   -0.189939333674974087E+01    0.221673686539141146E+01   -0.741410320812206258E+00   -0.877245017503998861E+04
    0.135905895090780993E+00    0.786046262964319453E-01    0.177665380850044374E+01    0.125705525317983374E+00    0.261995604878931754E+00    0.791678521434933919E-04   -0.765470456364683383E+01    0.129630185051234257E+02   -0.164593694864670970E+01   -0.238815186943650115E+01    0.219059716008649064E+01   -0.886534788122367967E+00   -0.877231238081909760E+04
    0.135905895090780993E+00    0.786046262964319453E-01    0.177665380850044374E+01    0.125705525317983374E+00    0.261995604878931754E+00    0.791678521434933919E-04   -0.765470456364683383E+01    0.129630185051234257E+02   -0.164593694864670970E+01   -0.238815186943650115E+01    0.219059716008649064E+01   -0.886534788122367967E+00   -0.877231238081909760E+04
    0.129521460507202424E+00    0.726596641314561364E-01    0.175730198660885661E+01    0.139880298302320322E+00    0.275190932166026803E+00    0.673995475962495776E-04   -0.762630457309360388E+01    0.136959945661477640E+02   -0.192232499202835960E+01   -0.188182662431063896E+01    0.220742212118094727E+01   -0.719021387914714927E+00   -0.877230573183578599E+04
    0.129521460507202424E+00    0.726596641314561364E-01    0.175730198660885661E+01    0.139880298302320322E+00    0.275190932166026803E+00    0.673995475962495776E-04   -0.762630457309360388E+01    0.136959945661477640E+02   -0.192232499202835960E+01   -0.188182662431063896E+01    0.220742212118094727E+01   -0.719021387914714927E+00   -0.877230573183578599E+04
    0.131010138453148545E+00    0.659134401710288892E-01    0.176107064790288836E+01    0.141471232634024613E+00    0.272099534050786240E+00    0.727330950206193396E-04   -0.760773272723950633E+01    0.143825135708415459E+02   -0.197575362032423674E+01   -0.179215056858377508E+01    0.220028409702827288E+01   -0.657617035677783512E+00   -0.877228682084064894E+04
    0.146391210147835571E+00    0.608939072106675708E-01    0.180820140074477997E+01    0.142221480611900208E+00    0.266361108542635783E+00    0.689704309924615806E-04   -0.772201627439757488E+01    0.143393184404174789E+02   -0.180900946579413580E+01   -0.164652610271830824E+01    0.220806888566351933E+01   -0.770998565655842683E+00   -0.877227977358774842E+04
    0.122472863678018420E+00    0.781086869521445959E-01    0.170130917076804145E+01    0.152422398178635482E+00    0.260707754083234822E+00    0.682988199129265500E-04   -0.763200136759203218E+01    0.138896899906133022E+02   -0.202224979969727503E+01   -0.156222557639109816E+01    0.217535932245375729E+01   -0.694268115943133202E+00   -0.877225681409417666E+04
    0.126196594888379199E+00    0.709610755798191356E-01    0.174550159596636045E+01    0.140097950276763944E+00    0.272425856339728489E+00    0.730669241251817819E-04   -0.758939483603287357E+01    0.140106773072707043E+02   -0.196435551263171337E+01   -0.188636009979989616E+01    0.219394865712974507E+01   -0.676595093922098823E+00   -0.877225530385444836E+04
    0.126196594888379199E+00    0.709610755798191356E-01    0.174550159596636045E+01    0.140097950276763944E+00    0.272425856339728489E+00    0.730669241251817819E-04   -0.758939483603287357E+01    0.140106773072707043E+02   -0.196435551263171337E+01   -0.188636009979989616E+01    0.219394865712974507E+01   -0.676595093922098823E+00   -0.877225530385444836E+04
    0.132860897771978043E+00    0.661275368280299092E-01    0.176882604980228986E+01    0.140142218804761298E+00    0.275247939012355669E+00    0.700194062202417924E-04   -0.764644779939769315E+01    0.139074998694299374E+02   -0.188333710324469150E+01   -0.179483787695361130E+01    0.220832453678336416E+01   -0.714450822998782931E+00   -0.877223539956891000E+04
    0.151270900658676488E+00    0.661656437869009295E-01    0.181274981232511445E+01    0.130304678808565916E+00    0.244363589395317632E+00    0.867640306211683458E-04   -0.772550998046612847E+01    0.140987591191316213E+02   -0.159063265263857678E+01   -0.211327870688146913E+01    0.217302294524151174E+01   -0.900162410490509268E+00   -0.877223244964755577E+04
    0.151270900658676488E+00    0.661656437869009295E-01    0.181274981232511445E+01    0.130304678808565916E+00    0.244363589395317632E+00    0.867640306211683458E-04   -0.772550998046612847E+01    0.140987591191316213E+02   -0.159063265263857678E+01   -0.211327870688146913E+01    0.217302294524151174E+01   -0.900162410490509268E+00   -0.877223244964755577E+04
    0.115011537309864825E+00    0.855826233829836969E-01    0.168486500312203180E+01    0.151847274677729127E+00    0.266562787946116542E+00    0.639746083357971632E-04   -0.760667970728652953E+01    0.132129769353092250E+02   -0.202081107139931238E+01   -0.163933692776203799E+01    0.217151595267281294E+01   -0.720837293193224538E+00   -0.877220185696231238E+04
    0.134226630094117727E+00    0.772954014044803517E-01    0.177299476558333269E+01    0.147985958707107096E+00    0.263384100576977809E+00    0.620612077072324908E-04   -0.766807797574911110E+01    0.134701886070875112E+02   -0.186922905782231141E+01   -0.165178598337383242E+01    0.217018564065968356E+01   -0.816624137302032427E+00   -0.877220015544175112E+04
    0.153325325329934897E+00    0.644836887117647278E-01    0.181874727844427930E+01    0.132422419623910270E+00    0.250022519177531377E+00    0.807459535258688726E-04   -0.776485634096530930E+01    0.139758518048093663E+02   -0.158016481169889844E+01   -0.198523288240782492E+01    0.219094336373103937E+01   -0.909051816522108647E+00   -0.877211054532193339E+04
    0.150996261906658963E+00    0.642563342947647109E-01    0.181325187301842194E+01    0.137440638007947813E+00    0.250518552388229510E+00    0.781711389008493397E-04   -0.774374108843953834E+01    0.142236014595350753E+02   -0.166916676258000107E+01   -0.183834541190763723E+01    0.218289637622776933E+01   -0.866427383379337002E+00   -0.877208412068245889E+04
    0.146672787848262265E+00    0.635854179180145446E-01    0.183846626951811443E+01    0.138244915077632924E+00    0.270141604038945160E+00    0.672842419332012981E-04   -0.768946349466887114E+01    0.138129178907745640E+02   -0.173364774548956047E+01   -0.180528132028116772E+01    0.219013648960721596E+01   -0.830538726393526217E+00   -0.877207497596207941E+04
    0.124357632350064279E+00    0.691101470457452238E-01    0.172334678835185295E+01    0.143449737934239929E+00    0.270803551978617385E+00    0.742822147665080085E-04   -0.760629786652356188E+01    0.141566556618259192E+02   -0.199281707237883809E+01   -0.175919109352819802E+01    0.219892298776756290E+01   -0.645680903780557536E+00   -0.877206803219253379E+04
    0.142916195755548509E+00    0.640649552947632067E-01    0.182473124254067964E+01    0.139887641283329034E+00    0.272685405592172581E+00    0.664625172753803681E-04   -0.766100702926813248E+01    0.139975623092079147E+02   -0.182343877223859829E+01   -0.178084561485514037E+01    0.219393587273476642E+01   -0.775176642660694970E+00   -0.877206100962288474E+04
    0.124182495001352089E+00    0.752967818440708481E-01    0.171088295186385420E+01    0.150141001953283171E+00    0.262357232022570830E+00    0.700234698696731891E-04   -0.764146205219814956E+01    0.139214327462396952E+02   -0.197874446184584096E+01   -0.158279766703716085E+01    0.217871213781501138E+01   -0.706037906766763479E+00   -0.877205377494169079E+04
    0.140821079303912328E+00    0.593316020086084722E-01    0.179979324328726475E+01    0.134965891476267696E+00    0.275608859271317452E+00    0.735981220888901272E-04   -0.767790847565546386E+01    0.141812931219577401E+02   -0.180041650267893383E+01   -0.186316372999296576E+01    0.222121954961393575E+01   -0.735535519599091803E+00   -0.877205278436181106E+04
    0.137684567524339302E+00    0.612608971206807379E-01    0.176841762387559776E+01    0.142467996870608626E+00    0.266592336868416879E+00    0.747270100048700789E-04   -0.768612969877049856E+01    0.143644052728246763E+02   -0.185639187243250903E+01   -0.166304987910141655E+01    0.220404226145113036E+01   -0.715674105877413869E+00   -0.877202898030752476E+04
    0.131635701164960539E+00    0.641469623606543832E-01    0.174400984800918302E+01    0.140110177278933323E+00    0.269552021204081116E+00    0.765333043631352748E-04   -0.764163850675602863E+01    0.144619419622340608E+02   -0.194402633334442676E+01   -0.179951238407290859E+01    0.221459455046221798E+01   -0.655400602333699123E+00   -0.877202297711957362E+04
    0.143817196836886929E+00    0.602720755772375855E-01    0.180999429362070874E+01    0.141412446072012643E+00    0.266399332609628725E+00    0.720916039530028957E-04   -0.765720276745124995E+01    0.146714114508048432E+02   -0.189459973559681272E+01   -0.173218176090052012E+01    0.219734222426973203E+01   -0.709068544314663818E+00   -0.877195528930585715E+04
    0.140468000279684480E+00    0.674675040639963752E-01    0.181580048211938472E+01    0.147426681548290694E+00    0.265696683803253286E+00    0.643252332677714912E-04   -0.765143308874634087E+01    0.139869507031798186E+02   -0.186127114650965408E+01   -0.158723083064156789E+01    0.216207775165120086E+01   -0.789020961184266678E+00   -0.877195117437435511E+04
    0.141959015171420955E+00    0.731987205867266344E-01    0.180740641539973335E+01    0.132976963391372688E+00    0.250811674121143136E+00    0.812377298488917127E-04   -0.762896940536155022E+01    0.138146740761907658E+02   -0.171762471505404934E+01   -0.216133314610395288E+01    0.215065629689349747E+01   -0.856505411986273835E+00   -0.877194688462260456E+04
    0.137659045937123498E+00    0.619009538217481711E-01    0.177356844752593878E+01    0.142525363574778352E+00    0.268058711196581478E+00    0.730949326820984661E-04   -0.765615321383064007E+01    0.146071611490778075E+02   -0.193670610021598733E+01   -0.170564380636214885E+01    0.220780658048988521E+01   -0.674022795736353597E+00   -0.877191766469129652E+04
    0.134162531611244612E+00    0.633930366809848378E-01    0.175845247934385052E+01    0.139246012327552016E+00    0.274857943884617151E+00    0.721326058002906350E-04   -0.767724083555914749E+01    0.141335279323003746E+02   -0.187758446343841001E+01   -0.176880795441910621E+01    0.222588412235834943E+01   -0.699887391943956327E+00   -0.877190996487243319E+04
    0.144261803583767140E+00    0.665973552047457035E-01    0.183342219875830814E+01    0.145697194059017682E+00    0.267045537843190517E+00    0.626898490850827432E-04   -0.765054710163081708E+01    0.141537294137394198E+02   -0.187945251277826197E+01   -0.164808569892400669E+01    0.217232536218831696E+01   -0.779774027654145385E+00   -0.877186816892482602E+04
    0.146702143349040415E+00    0.774417152711752571E-01    0.182447262863465531E+01    0.122045591448073920E+00    0.237743496300189788E+00    0.925328625786774452E-04   -0.762066546069303463E+01    0.136639372363308205E+02   -0.156862639375402080E+01   -0.257287259525168022E+01    0.213000389034458193E+01   -0.953271829045301500E+00   -0.877185391483901549E+04
    0.155418566194622132E+00    0.511712532593068745E-01    0.186891549880629571E+01    0.139566575214629840E+00    0.269154003564972100E+00    0.704552493834037410E-04   -0.770466588719679102E+01    0.147342249255498601E+02   -0.176889410482641196E+01   -0.165892645895754498E+01    0.219976580347056538E+01   -0.766204474158816762E+00   -0.877184023711971167E+04
    0.155418566194622132E+00    0.511712532593068745E-01    0.186891549880629571E+01    0.139566575214629840E+00    0.269154003564972100E+00    0.704552493834037410E-04   -0.770466588719679102E+01    0.147342249255498601E+02   -0.176889410482641196E+01   -0.165892645895754498E+01    0.219976580347056538E+01   -0.766204474158816762E+00   -0.877184023711971167E+04
    0.148309101041642744E+00    0.546848769548375913E-01    0.182259079778688959E+01    0.140209945592607882E+00    0.268005057937953484E+00    0.730658885990145395E-04   -0.770397225277824482E+01    0.147083983235142064E+02   -0.181436814804314328E+01   -0.166394465005820535E+01    0.220880590307126390E+01   -0.734381153668064890E+00   -0.877182258257207650E+04
    0.140117571479324604E+00    0.722332847841327813E-01    0.179103812372417015E+01    0.140984650911986448E+00    0.257387091743742746E+00    0.719624387061940530E-04   -0.768658976932372795E+01    0.135766779395282953E+02   -0.173529758942168333E+01   -0.182457761848631428E+01    0.216645367318138371E+01   -0.857924461740742217E+00   -0.877182151162573973E+04
    0.140117571479324604E+00    0.722332847841327813E-01    0.179103812372417015E+01    0.140984650911986448E+00    0.257387091743742746E+00    0.719624387061940530E-04   -0.768658976932372795E+01    0.135766779395282953E+02   -0.173529758942168333E+01   -0.182457761848631428E+01    0.216645367318138371E+01   -0.857924461740742217E+00   -0.877182151162573973E+04
    0.152783605650619408E+00    0.658096174849935739E-01    0.183545976919526943E+01    0.136051320324570763E+00    0.244163392967030851E+00    0.813186804110723838E-04   -0.770879492665921262E+01    0.142227039123100987E+02   -0.163722702199554004E+01   -0.193475006060871912E+01    0.215102395675725644E+01   -0.903084064974809531E+00   -0.877181349629190845E+04
    0.120877399099149477E+00    0.765649756512993829E-01    0.170376279635221684E+01    0.149325947073814802E+00    0.263323827152755485E+00    0.714210849630997130E-04   -0.762321926615780399E+01    0.136671779416363002E+02   -0.196117217263807664E+01   -0.163082541683271565E+01    0.217092608354990535E+01   -0.711930613642257182E+00   -0.877180685203154098E+04
    0.152462958143429972E+00    0.682028189951497665E-01    0.186888338914304430E+01    0.134598541607223871E+00    0.245842812850176895E+00    0.797088674036697817E-04   -0.764352962270714009E+01    0.140102438426317768E+02   -0.163621910969122886E+01   -0.205050065584548236E+01    0.212050565021742621E+01   -0.926257478766138842E+00   -0.877179206620055083E+04
    0.132706600347103798E+00    0.715902406460025842E-01    0.179663411554431063E+01    0.137142694262149201E+00    0.281053198509164215E+00    0.639704671014555226E-04   -0.761551599694066006E+01    0.133708100649659762E+02   -0.185623473257891991E+01   -0.194512756275819676E+01    0.219969421162631562E+01   -0.766599954938056660E+00   -0.877177855876724425E+04
    0.129833592641174639E+00    0.716302687801301796E-01    0.174033759096225915E+01    0.145950620099884298E+00    0.264307434990917245E+00    0.708933278326031734E-04   -0.764801023290544890E+01    0.140480970502934674E+02   -0.193558703463202564E+01   -0.167678775728680485E+01    0.218678930617376999E+01   -0.718689497716634484E+00   -0.877176720462346384E+04
    0.152953674836923181E+00    0.632251040480563131E-01    0.189860586229540029E+01    0.136490262473843105E+00    0.278553425238682151E+00    0.583103522738409258E-04   -0.764766406953440203E+01    0.138804680420738862E+02   -0.178882574470079447E+01   -0.189777140422744139E+01    0.219195757484404563E+01   -0.825551221854696315E+00   -0.877171006988649970E+04
    0.124936374650785081E+00    0.795668752402152180E-01    0.174540895681470265E+01    0.149232659692541653E+00    0.267781662268172516E+00    0.628832647193829845E-04   -0.762950859587852914E+01    0.130988891089504769E+02   -0.189001266905066156E+01   -0.164151441374034590E+01    0.215983220451912983E+01   -0.794739601246120309E+00   -0.877169595562566428E+04
    0.139719513553221791E+00    0.616188999084717193E-01    0.179857681255250990E+01    0.136148101256711646E+00    0.273504892354775542E+00    0.731385706257164681E-04   -0.766407949399440103E+01    0.140818682890674260E+02   -0.180971841812851730E+01   -0.186895483151583974E+01    0.220988360632610359E+01   -0.742670296051515910E+00   -0.877169314563433181E+04
    0.146359201191446325E+00    0.723542709927661315E-01    0.182639180817269486E+01    0.129424232117677146E+00    0.242344576805115286E+00    0.875700607737203425E-04   -0.762475672087158429E+01    0.139597697271387737E+02   -0.164804655711937809E+01   -0.228164058966633565E+01    0.213127775951819975E+01   -0.899108248218605244E+00   -0.877152140763462739E+04
    0.150065646470196157E+00    0.713878574000019750E-01    0.181280827424922597E+01    0.125814176470652822E+00    0.240243757143735304E+00    0.899956417724058158E-04   -0.770136652299302149E+01    0.138345037664858381E+02   -0.154980677630165697E+01   -0.232914456385282609E+01    0.216035102676492263E+01   -0.940407125164516522E+00   -0.877131425112706165E+04
    0.142871370312531304E+00    0.780138907836321616E-01    0.183253486469692217E+01    0.135781869088505480E+00    0.246920053713470561E+00    0.770912705179331928E-04   -0.761236573324896959E+01    0.134389320613707710E+02   -0.167637517602708974E+01   -0.212070996066407336E+01    0.211278213369219303E+01   -0.933646283909067343E+00   -0.877165746806250536E+04
    0.137470185969982672E+00    0.769779767206661553E-01    0.179554670494169666E+01    0.134997691292219446E+00    0.254223612475442118E+00    0.773452564019124232E-04   -0.760820530639191439E+01    0.136165630932820356E+02   -0.177159204021698691E+01   -0.214159692439541693E+01    0.214941333238935606E+01   -0.842654930422877202E+00   -0.877152846939216215E+04
    0.134751308936994052E+00    0.766754383815789198E-01    0.178052220003298989E+01    0.139795488749628827E+00    0.262147554468155575E+00    0.698612951568025099E-04   -0.765268396073009249E+01    0.132318933637566616E+02   -0.176416037957145289E+01   -0.192048206961970891E+01    0.216618110106307737E+01   -0.850925861227391112E+00   -0.877117106274638900E+04
    0.134751308936994052E+00    0.766754383815789198E-01    0.178052220003298989E+01    0.139795488749628827E+00    0.262147554468155575E+00    0.698612951568025099E-04   -0.765268396073009249E+01    0.132318933637566616E+02   -0.176416037957145289E+01   -0.192048206961970891E+01    0.216618110106307737E+01   -0.850925861227391112E+00   -0.877117106274638900E+04
    0.133471822603849322E+00    0.837430913395863369E-01    0.179686423481235824E+01    0.139633575752331096E+00    0.257501786087690920E+00    0.686031065557071224E-04   -0.759568750040900120E+01    0.130566491978594073E+02   -0.178552025927720348E+01   -0.204320704351828297E+01    0.213205970628812658E+01   -0.885415853428052291E+00   -0.877121812588215835E+04
    0.133471822603849322E+00    0.837430913395863369E-01    0.179686423481235824E+01    0.139633575752331096E+00    0.257501786087690920E+00    0.686031065557071224E-04   -0.759568750040900120E+01    0.130566491978594073E+02   -0.178552025927720348E+01   -0.204320704351828297E+01    0.213205970628812658E+01   -0.885415853428052291E+00   -0.877121812588215835E+04
    0.140305769408008152E+00    0.737600198026029108E-01    0.180603229085301442E+01    0.128337555727895902E+00    0.262164745458883630E+00    0.775706163949560772E-04   -0.764483789004957082E+01    0.133738060906518825E+02   -0.167873109445427415E+01   -0.226674680497638192E+01    0.218059262840289847E+01   -0.868120346538253207E+00   -0.877155158571490938E+04
    0.144681214450288309E+00    0.670275364756724029E-01    0.185775534725602265E+01    0.139787006207449244E+00    0.271988385012989720E+00    0.634247796339264497E-04   -0.764156775386162757E+01    0.135465181074737337E+02   -0.175154448159899712E+01   -0.181661667630680412E+01    0.216312733194429807E+01   -0.851321307164350838E+00   -0.877164712743644304E+04
    0.146549879127867627E+00    0.695073665512888628E-01    0.184386371035319496E+01    0.142292619314911800E+00    0.253322177051004238E+00    0.712786285427831736E-04   -0.765095856937062990E+01    0.139006448679851857E+02   -0.173399715706781743E+01   -0.178877637245559384E+01    0.213117670823201077E+01   -0.882114958280703521E+00   -0.877165030559688421E+04
    0.145913660292322750E+00    0.700872073017164698E-01    0.184508869492448380E+01    0.133450018599917480E+00    0.260219962234089885E+00    0.736639291789204675E-04   -0.765107210040626207E+01    0.134932156842280229E+02   -0.165604791936235163E+01   -0.206281517735271258E+01    0.215402548642728142E+01   -0.902214422976121533E+00   -0.877112815490951471E+04
    0.145913660292322750E+00    0.700872073017164698E-01    0.184508869492448380E+01    0.133450018599917480E+00    0.260219962234089885E+00    0.736639291789204675E-04   -0.765107210040626207E+01    0.134932156842280229E+02   -0.165604791936235163E+01   -0.206281517735271258E+01    0.215402548642728142E+01   -0.902214422976121533E+00   -0.877112815490951471E+04
    0.145079531617965218E+00    0.803338991619479692E-01    0.178644432316124346E+01    0.120379688403590326E+00    0.231141617088782475E+00    0.973370291917122459E-04   -0.767213330944296956E+01    0.134535692527893680E+02   -0.150163022914611788E+01   -0.262195988147204240E+01    0.214270389944025608E+01   -0.986055767717778586E+00   -0.877138581625742700E+04
    0.145079531617965218E+00    0.803338991619479692E-01    0.178644432316124346E+01    0.120379688403590326E+00    0.231141617088782475E+00    0.973370291917122459E-04   -0.767213330944296956E+01    0.134535692527893680E+02   -0.150163022914611788E+01   -0.262195988147204240E+01    0.214270389944025608E+01   -0.986055767717778586E+00   -0.877138581625742700E+04
    0.140738820813134130E+00    0.758309960929635235E-01    0.183725447966334321E+01    0.135150857069495978E+00    0.270179775887182783E+00    0.642280238195710399E-04   -0.765474932334300284E+01    0.127414098121774551E+02   -0.165189450282455885E+01   -0.202651785518028493E+01    0.216189907414155691E+01   -0.933579032778292461E+00   -0.877097106739591618E+04
    0.148684325830098801E+00    0.625090142553827027E-01    0.186340924610275271E+01    0.137540180141028257E+00    0.274641949351455528E+00    0.639897245104497627E-04   -0.767072665243619412E+01    0.138370506694214797E+02   -0.175128004725721764E+01   -0.182518958166146561E+01    0.218952874822873200E+01   -0.827283370214629832E+00   -0.877154371780971996E+04
    0.148069993373630859E+00    0.607849901785900218E-01    0.185398031730308555E+01    0.139042772281684796E+00    0.277681895396018785E+00    0.623112148671090026E-04   -0.768397056553048152E+01    0.139137222378448584E+02   -0.178343727192054446E+01   -0.175393751089127647E+01    0.220450353553032929E+01   -0.797370095505924859E+00   -0.877148716170593980E+04
    0.153972738763738543E+00    0.549193432784822189E-01    0.188431409914702774E+01    0.138440718007476787E+00    0.276430541225064774E+00    0.641636807360050702E-04   -0.767176462816223381E+01    0.144374448036119674E+02   -0.180336574712937980E+01   -0.174498267276639041E+01    0.220139044632806824E+01   -0.769633155899623000E+00   -0.877148252790662991E+04
    0.134975231662202516E+00    0.751692081299562970E-01    0.176515458946940340E+01    0.138159605067879887E+00    0.262671360386043440E+00    0.718174624298874802E-04   -0.766898868144736845E+01    0.134834706235529858E+02   -0.179347759172543730E+01   -0.195374762022001036E+01    0.218937055294459126E+01   -0.813852672893099038E+00   -0.877125969774360419E+04
    0.125757241599898040E+00    0.747763114251004668E-01    0.172791542738172765E+01    0.145351197104920588E+00    0.268925143568523206E+00    0.684209644292820126E-04   -0.764096897928346319E+01    0.136297075396223342E+02   -0.193304273408603167E+01   -0.172369933130014097E+01    0.219309581100463635E+01   -0.723556221181119286E+00   -0.877125822440115189E+04
    0.122577142722831864E+00    0.761990752267328597E-01    0.171062628895786317E+01    0.146236841019750458E+00    0.266824692137650421E+00    0.704123513509268304E-04   -0.761552172855667386E+01    0.138702118449506031E+02   -0.200270468292421366E+01   -0.173645949837259650E+01    0.219069372753661273E+01   -0.682030037376253784E+00   -0.877165598553751806E+04
    0.135735363256323793E+00    0.660992713185346997E-01    0.177276715402272078E+01    0.142091480115397212E+00    0.270966547124426749E+00    0.693237499558513402E-04   -0.768936046065569734E+01    0.137555772027905405E+02   -0.181291119990199134E+01   -0.169536953238194421E+01    0.220125601342405242E+01   -0.769347677698462018E+00   -0.877104350534349396E+04
    0.135151277841538159E+00    0.720571948555751435E-01    0.179996675003042639E+01    0.147462407022971670E+00    0.272977886838455364E+00    0.591581737175267985E-04   -0.765054878394664772E+01    0.134233058312158278E+02   -0.186247983540923023E+01   -0.160757123843010952E+01    0.217248219542955834E+01   -0.801420453470277128E+00   -0.877149772610390028E+04
    0.125823931592029259E+00    0.779906784680426401E-01    0.174869109141815948E+01    0.149633790172397724E+00    0.268117163354095245E+00    0.629135094419960199E-04   -0.761733352537476271E+01    0.134689681341313410E+02   -0.194903700170562533E+01   -0.162619867511089922E+01    0.216440342124815333E+01   -0.756916594488752370E+00   -0.877143554404348288E+04
    0.125823931592029259E+00    0.779906784680426401E-01    0.174869109141815948E+01    0.149633790172397724E+00    0.268117163354095245E+00    0.629135094419960199E-04   -0.761733352537476271E+01    0.134689681341313410E+02   -0.194903700170562533E+01   -0.162619867511089922E+01    0.216440342124815333E+01   -0.756916594488752370E+00   -0.877143554404348288E+04
    0.137817317086914748E+00    0.673771078518907995E-01    0.180224793201861866E+01    0.137860383381283508E+00    0.276267843249050848E+00    0.664847357306804762E-04   -0.764939947924249442E+01    0.138106545984000739E+02   -0.184641023846839225E+01   -0.186712698849203917E+01    0.220553144346843855E+01   -0.761036986880086586E+00   -0.877163150620406850E+04
    0.131195788709943612E+00    0.731591949851806284E-01    0.178464312877533970E+01    0.139435750433591160E+00    0.276529282660885556E+00    0.651844581661593540E-04   -0.761198443594290364E+01    0.133916831395628826E+02   -0.187048529039157230E+01   -0.190413780985653069E+01    0.218905756515999883E+01   -0.764986711219408866E+00   -0.877114333519032334E+04
    0.138527610937179468E+00    0.708927068755832168E-01    0.180815651730493343E+01    0.145950457265333150E+00    0.268048497823211773E+00    0.624542012463190160E-04   -0.764802051529635030E+01    0.136948209525853564E+02   -0.186102745070482456E+01   -0.167394200403981230E+01    0.217006729323124992E+01   -0.796326016061212671E+00   -0.877153681513408628E+04
    0.121408779190357585E+00    0.810464551742458295E-01    0.172884383748285031E+01    0.144562235914383330E+00    0.275989705403682173E+00    0.620542459554659134E-04   -0.762120294436573165E+01    0.129933352777318873E+02   -0.192524304202752305E+01   -0.179486784043553804E+01    0.219148336770959062E+01   -0.758303668282094945E+00   -0.877113744086976840E+04
    0.121408779190357585E+00    0.810464551742458295E-01    0.172884383748285031E+01    0.144562235914383330E+00    0.275989705403682173E+00    0.620542459554659134E-04   -0.762120294436573165E+01    0.129933352777318873E+02   -0.192524304202752305E+01   -0.179486784043553804E+01    0.219148336770959062E+01   -0.758303668282094945E+00   -0.877113744086976840E+04
    0.127373611257634911E+00    0.723372926020120210E-01    0.172431871129207814E+01    0.145557735544761258E+00    0.264416770528183187E+00    0.722888506182129884E-04   -0.765575950822463902E+01    0.138990297613553757E+02   -0.191854880001685535E+01   -0.168469201517982548E+01    0.219050525315218803E+01   -0.721087787348958287E+00   -0.877122441636065560E+04
    0.135769396200999759E+00    0.700951381824516939E-01    0.180910900976219424E+01    0.138752591644811518E+00    0.282035724244890096E+00    0.608599637644959449E-04   -0.764868647919543143E+01    0.131890778580131602E+02   -0.180553791323788793E+01   -0.185184169590307057E+01    0.220098387470175805E+01   -0.801495912747339334E+00   -0.877113627622994318E+04
    0.129914854332670249E+00    0.718167822910982662E-01    0.175085823682684771E+01    0.143674596514686753E+00    0.264889795475415357E+00    0.721316971957739774E-04   -0.763312481134057474E+01    0.137998437156518463E+02   -0.188931965208601027E+01   -0.176785350239005545E+01    0.217829470454077079E+01   -0.741134998638484532E+00   -0.877109335548806848E+04
    0.129914854332670249E+00    0.718167822910982662E-01    0.175085823682684771E+01    0.143674596514686753E+00    0.264889795475415357E+00    0.721316971957739774E-04   -0.763312481134057474E+01    0.137998437156518463E+02   -0.188931965208601027E+01   -0.176785350239005545E+01    0.217829470454077079E+01   -0.741134998638484532E+00   -0.877109335548806848E+04
    0.143417247394407060E+00    0.607864960914896238E-01    0.181818538873243929E+01    0.138867245887350499E+00    0.272018711451959438E+00    0.699402029127346812E-04   -0.765938056126608480E+01    0.142383695941202326E+02   -0.184225069614938941E+01   -0.180730107991015743E+01    0.220359038745592439E+01   -0.736282279905854820E+00   -0.877134521361961924E+04
    0.123484484409855599E+00    0.803069045042929808E-01    0.173401367683181795E+01    0.147546223590789755E+00    0.265118927283286843E+00    0.666510840736358394E-04   -0.759640760773780332E+01    0.135064588820147584E+02   -0.196815470241499324E+01   -0.174710671732043110E+01    0.216329207898614628E+01   -0.740714561281338613E+00   -0.877138023968098241E+04
    0.143055000115525410E+00    0.613955197283911486E-01    0.181194871106702182E+01    0.135717959719528575E+00    0.273621365476932943E+00    0.711176910871150962E-04   -0.769494989188603817E+01    0.139495646146988364E+02   -0.175345510695931139E+01   -0.184311165802251509E+01    0.221196173982181010E+01   -0.786864441043710228E+00   -0.877141136125802404E+04
