    0.134970789772358390E+02    0.246711656862415168E+00   -0.256680700599599040E+05
    0.136239584499107362E+02    0.278582723828528361E-01   -0.256679580863413321E+05
    0.132692858059410330E+02    0.236763695740344920E+00   -0.256677785223680185E+05
    0.135602116576881837E+02    0.194210650526854905E+00   -0.256677385162426435E+05
    0.132944045862329219E+02    0.207894958166339960E+00   -0.256676677265407416E+05
    0.135477201278059987E+02    0.424247064472873039E-01   -0.256676241201531957E+05
    0.135581798643699720E+02    0.193807500341972527E+00   -0.256675242939717755E+05
    0.132792269837948460E+02    0.327894200426695204E+00   -0.256673189560681676E+05
    0.135838825679118891E+02    0.166410582304411969E+00   -0.256672618414735189E+05
    0.132563546876165219E+02    0.297864534019836591E+00   -0.256669592265105493E+05
    0.136325262701596639E+02    0.568651992321538291E-01   -0.256668967952668645E+05
    0.132718386026825677E+02    0.313247684109777047E+00   -0.256667359893707035E+05
    0.134753139134643760E+02    0.247944921625675330E+00   -0.256665773987227803E+05
    0.135182926215001018E+02    0.635102717961170266E-01   -0.256665401149280260E+05
    0.132854113277436081E+02    0.237542132449440946E+00   -0.256664986423499358E+05
    0.134801757335662842E+02    0.815930366516113281E-01   -0.256664041836844153E+05
    0.134829396510891648E+02    0.239899920246170462E+00   -0.256662795672347602E+05
    0.132760605725760605E+02    0.265468988249721705E+00   -0.256661535496977449E+05
    0.136197931548665530E+02    0.890604100733602272E-01   -0.256661515951410547E+05
    0.132731389834272395E+02    0.284904248858616871E+00   -0.256661353456208926E+05
    0.132860563972958978E+02    0.245514771776619289E+00   -0.256661155414985806E+05
    0.134439873950185600E+02    0.261348421207726889E+00   -0.256659782914226671E+05
    0.133761957123168322E+02    0.151762817863933863E+00   -0.256659630987151941E+05
    0.135681244901328864E+02    0.164853137571994185E+00   -0.256659307442957761E+05
    0.135498399087861348E+02    0.609116679252625567E-01   -0.256659029485210485E+05
    0.133565417689402466E+02    0.168840759659890705E+00   -0.256658959452696472E+05
    0.133273658551409930E+02    0.196702044311234475E+00   -0.256658867006661094E+05
    0.133542454097804608E+02    0.299943550719778240E+00   -0.256658670934985748E+05
    0.132879560601787539E+02    0.249377983999587299E+00   -0.256658649553137147E+05
    0.132836449977475386E+02    0.292873861160969806E+00   -0.256658260725171458E+05
    0.136056359415953771E+02    0.111565704280265174E+00   -0.256658055883265624E+05
    0.135656277641039686E+02    0.164921170111946347E+00   -0.256657595166723768E+05
    0.136113163037195228E+02    0.801448280303325711E-01   -0.256657566764072944E+05
    0.134455512207307244E+02    0.107252356940166882E+00   -0.256656994720758048E+05
    0.136100577526087427E+02    0.860416874869614767E-01   -0.256656805605757327E+05
    0.133009343417888779E+02    0.232936198912277376E+00   -0.256656648382412968E+05
    0.133063174792121668E+02    0.301667226748030426E+00   -0.256656609808195390E+05
    0.132889033763604090E+02    0.255838093250279397E+00   -0.256656382051876972E+05
    0.133084190257266677E+02    0.223329030101925785E+00   -0.256656209212898248E+05
    0.135141364130896786E+02    0.757604150671866705E-01   -0.256655651809321134E+05
    0.135662182961178068E+02    0.160976567632598377E+00   -0.256655489634973710E+05
    0.134009742448046669E+02    0.278533879186495470E+00   -0.256655153291416646E+05
    0.135765957446585901E+02    0.642613573951888173E-01   -0.256654982712531892E+05
    0.132878052776488538E+02    0.277908552447511503E+00   -0.256654946005709717E+05
    0.134503348645105554E+02    0.107076569015775794E+00   -0.256654582137011348E+05
    0.132894267205977883E+02    0.268521719858991259E+00   -0.256654329062463476E+05
    0.133643832699148835E+02    0.290956748439140600E+00   -0.256653956999318252E+05
    0.135565134717985529E+02    0.668819646043479488E-01   -0.256653920279213962E+05
    0.134522266249849025E+02    0.106875597090818536E+00   -0.256653787989723787E+05
    0.133308352442114675E+02    0.297026761314673815E+00   -0.256653509023348233E+05
    0.133636437667150823E+02    0.169638377002614832E+00   -0.256653419549007667E+05
    0.135775347778516355E+02    0.675815912229204147E-01   -0.256653341990346053E+05
    0.134798694065135507E+02    0.231802696982385731E+00   -0.256653335116608796E+05
    0.133072835678952970E+02    0.293353432020338811E+00   -0.256652949208403297E+05
    0.133596758997523182E+02    0.173843085832780631E+00   -0.256652894178009738E+05
    0.133218381679887283E+02    0.294671304842007709E+00   -0.256652193043401894E+05
    0.135205668780246455E+02    0.785317341854187972E-01   -0.256651622376997511E+05
    0.135974112185038543E+02    0.925377413920883546E-01   -0.256651580015197032E+05
    0.135240278208846849E+02    0.195725938592288845E+00   -0.256651463107056625E+05
    0.134270786246324754E+02    0.261282100506823822E+00   -0.256651207871533152E+05
    0.132980950487800236E+02    0.259431692698072425E+00   -0.256651156054498424E+05
    0.135517871659212616E+02    0.168764253747868548E+00   -0.256650855509274661E+05
    0.133116066764363534E+02    0.288102524683920447E+00   -0.256650396426184161E+05
    0.134520370098958413E+02    0.246124802793475345E+00   -0.256650264337874651E+05
    0.134438194301087872E+02    0.115808653067560358E+00   -0.256650175816468909E+05
    0.133643711711014941E+02    0.173651635877216798E+00   -0.256650008332208236E+05
    0.135353118519572835E+02    0.766722019734199234E-01   -0.256649984386775941E+05
    0.135903908517414287E+02    0.847356859091101672E-01   -0.256649974206634724E+05
    0.133138394056073608E+02    0.230691921433834185E+00   -0.256649821723882160E+05
    0.134765668756067125E+02    0.986664093978555923E-01   -0.256649814398611998E+05
    0.133097692230308802E+02    0.285021065689881281E+00   -0.256649729562870052E+05
    0.135833913159912267E+02    0.125485619145721761E+00   -0.256649689321023652E+05
    0.133545766075905270E+02    0.287015735421572604E+00   -0.256649406052081795E+05
    0.133947332435446285E+02    0.150283045080585542E+00   -0.256648841733226400E+05
    0.134102438057628675E+02    0.266629033096815959E+00   -0.256648747829637941E+05
    0.133034190938650116E+02    0.266373332157786080E+00   -0.256648622635837310E+05
    0.135875440470178361E+02    0.110860375335763858E+00   -0.256648551167849691E+05
    0.133202662982283666E+02    0.224555299196241620E+00   -0.256648494359097203E+05
    0.134028071516706966E+02    0.144742585573821941E+00   -0.256648483542009817E+05
    0.133916952784630006E+02    0.273651294410006074E+00   -0.256648026676978625E+05
    0.135282285568876919E+02    0.818757414719090276E-01   -0.256647642697853335E+05
    0.135346650049854773E+02    0.805949207889834762E-01   -0.256647503065177261E+05
    0.133079023729517196E+02    0.253834491132854445E+00   -0.256647405706888640E+05
    0.134995072423277840E+02    0.210190603747851590E+00   -0.256647387523606885E+05
    0.135695942494948945E+02    0.140502485883206130E+00   -0.256647343256460117E+05
    0.133110514895044485E+02    0.245774975805463730E+00   -0.256647174979275587E+05
    0.133308756132597228E+02    0.213541316889810595E+00   -0.256647090637750771E+05
    0.135852684174847109E+02    0.985907830543989172E-01   -0.256646970455866576E+05
    0.134678766877449227E+02    0.232042915764852975E+00   -0.256646891210448011E+05
    0.133707149252134698E+02    0.172822940937802871E+00   -0.256646712517223459E+05
    0.134287045343010192E+02    0.129313403368778362E+00   -0.256646680166454171E+05
    0.133578586659322660E+02    0.281939874363638543E+00   -0.256646655638869270E+05
    0.134553138446435518E+02    0.239672196417255567E+00   -0.256646624933385865E+05
    0.133088941097629370E+02    0.261331759363468696E+00   -0.256646576737309515E+05
    0.133273553071001061E+02    0.219810656779532376E+00   -0.256646420566670495E+05
    0.134039037929367648E+02    0.266410354214099421E+00   -0.256646383571695369E+05
    0.134478776055026206E+02    0.118147851624334194E+00   -0.256646296321991103E+05
    0.133350174138540272E+02    0.210253128217090718E+00   -0.256646235300965418E+05
    0.133866208183646034E+02    0.272958227651700358E+00   -0.256646142368360597E+05
    0.133133521001982036E+02    0.245643042914865828E+00   -0.256646138636770047E+05
    0.134290352302072957E+02    0.129842103505753287E+00   -0.256646095685610017E+05
    0.133982252489199123E+02    0.268211586190937712E+00   -0.256645944899230672E+05
    0.133114768867333169E+02    0.264101009323801761E+00   -0.256645726644990209E+05
    0.133556337950878596E+02    0.188641445109147599E+00   -0.256645662983341645E+05
    0.134559376462809777E+02    0.114454735214568379E+00   -0.256645638388874650E+05
    0.133471604525461984E+02    0.281464729622825149E+00   -0.256645521159672098E+05
    0.133124757708354107E+02    0.257636850853889599E+00   -0.256645313948139701E+05
    0.135316154856510558E+02    0.179418681907876826E+00   -0.256645158623033276E+05
    0.135797352447318058E+02    0.101738732469125306E+00   -0.256644988739290602E+05
    0.133151998033999810E+02    0.247941344288703958E+00   -0.256644985054728604E+05
    0.135067014896519400E+02    0.923036253184576355E-01   -0.256644975126118625E+05
    0.134405590751634545E+02    0.124276142684772745E+00   -0.256644866072464611E+05
    0.134576002196133793E+02    0.115062157594224210E+00   -0.256644469651674808E+05
    0.133893423189470813E+02    0.269523534654611763E+00   -0.256644449892576959E+05
    0.135302741060217020E+02    0.865950520231409809E-01   -0.256644389013761574E+05
    0.135305156434075826E+02    0.868284840988984841E-01   -0.256644223621382043E+05
    0.134422661601111777E+02    0.124327282035097228E+00   -0.256644047222375302E+05
    0.135685505577066685E+02    0.131924720259713829E+00   -0.256644022177962142E+05
    0.133314970278548177E+02    0.220393351537020665E+00   -0.256644011988229140E+05
    0.133851059081549444E+02    0.164575838108682565E+00   -0.256644007945852063E+05
    0.133787054176124620E+02    0.170570080257780143E+00   -0.256643624532543290E+05
    0.135166864681883592E+02    0.912628352855881231E-01   -0.256643569523662300E+05
    0.135425004675830607E+02    0.863833210109890698E-01   -0.256643552664682575E+05
    0.135690193442103908E+02    0.922128679065565005E-01   -0.256643446304055069E+05
    0.135493544298183100E+02    0.864845322024519886E-01   -0.256643419873099556E+05
    0.134751707045854729E+02    0.222522644734252012E+00   -0.256643414470384596E+05
    0.133491764923626750E+02    0.199787513211692552E+00   -0.256643350719486552E+05
    0.135369753384280855E+02    0.170848388177937238E+00   -0.256643348842164887E+05
    0.133811916365897439E+02    0.270564355389300515E+00   -0.256643322035878737E+05
    0.135732365781047761E+02    0.116818046811829390E+00   -0.256643211562488359E+05
    0.135721724104936570E+02    0.117222789688153708E+00   -0.256642834371105091E+05
    0.133207354857607072E+02    0.262383339663559978E+00   -0.256642782858684586E+05
    0.135635820082893677E+02    0.913782622791437099E-01   -0.256642749847083724E+05
    0.135020193631972454E+02    0.201362733211703532E+00   -0.256642614426817381E+05
    0.133239617910209454E+02    0.239297528562332273E+00   -0.256642564581312145E+05
    0.135394988141083079E+02    0.166254033755435543E+00   -0.256642377140320277E+05
    0.134846177125451554E+02    0.214286492890448349E+00   -0.256642329478341489E+05
    0.135594721555635012E+02    0.916980252241831745E-01   -0.256642109658337577E+05
    0.135436793917279168E+02    0.895323577394124132E-01   -0.256642026252165924E+05
    0.133741157566130546E+02    0.270394412495348346E+00   -0.256641995067694916E+05
    0.133689289877408015E+02    0.271327978074448695E+00   -0.256641831518617000E+05
    0.133243350289666580E+02    0.261703713998211795E+00   -0.256641744985651385E+05
    0.135425349656634779E+02    0.902416607404350757E-01   -0.256641712773874460E+05
    0.134755201130086917E+02    0.109863129753915573E+00   -0.256641638246216171E+05
    0.134782007520309932E+02    0.217817733105799133E+00   -0.256641595693454365E+05
    0.133960294431060980E+02    0.262573512605674741E+00   -0.256641492894244111E+05
    0.135604879269295591E+02    0.136476633133928632E+00   -0.256641482581119781E+05
    0.134660878336722369E+02    0.115164855364615029E+00   -0.256641146062743028E+05
    0.135681325029101547E+02    0.107167208705746683E+00   -0.256641142017393322E+05
    0.133997236085513620E+02    0.260566910106869054E+00   -0.256641117487599477E+05
    0.133307886181287412E+02    0.231715247615552483E+00   -0.256641107898515256E+05
    0.135569681335332355E+02    0.140887916559712362E+00   -0.256641107070884354E+05
    0.133683942866258931E+02    0.270036166666313138E+00   -0.256641068761065362E+05
    0.133252673890041411E+02    0.250151988181471496E+00   -0.256640984916717644E+05
    0.133434736704662242E+02    0.271065390324242428E+00   -0.256640937536959791E+05
    0.135566416962036396E+02    0.945256315904760697E-01   -0.256640918139806890E+05
    0.133297791948330833E+02    0.263666508966288182E+00   -0.256640755331456494E+05
    0.133517931014641782E+02    0.202932448223203582E+00   -0.256640557583345981E+05
    0.135596132979304826E+02    0.978535585500289185E-01   -0.256640476222110410E+05
    0.135658129589574905E+02    0.109492177079132363E+00   -0.256640363965962097E+05
    0.135147720192238339E+02    0.186727720321513385E+00   -0.256640319295713816E+05
    0.135393184366578865E+02    0.938105788385010936E-01   -0.256640157267356153E+05
    0.135284564124970519E+02    0.947915288946740847E-01   -0.256640108592568322E+05
    0.133866812334728245E+02    0.263552779612655053E+00   -0.256640098008741188E+05
    0.133510565981604863E+02    0.205015296686109322E+00   -0.256640056771606214E+05
    0.133358560135790061E+02    0.265201347118994013E+00   -0.256639975292375639E+05
    0.135227171171680816E+02    0.962795950527638722E-01   -0.256639842290356719E+05
    0.135176912483770444E+02    0.183103668812587134E+00   -0.256639796624865448E+05
    0.135198197477728073E+02    0.180950356021050918E+00   -0.256639714702995079E+05
    0.133406963987208336E+02    0.220202411777349560E+00   -0.256639648782050681E+05
    0.133397706379457652E+02    0.265628169965525851E+00   -0.256639541117195804E+05
    0.133674617185520113E+02    0.188396170250611894E+00   -0.256639432042840781E+05
    0.133335304883684902E+02    0.259989950314723106E+00   -0.256639369261615939E+05
    0.134939968725768331E+02    0.105674812173034496E+00   -0.256639244101488694E+05
    0.134103796470368408E+02    0.152218268458313016E+00   -0.256639215658376415E+05
    0.133461442514883881E+02    0.213687378059660121E+00   -0.256639194885636207E+05
    0.133500814496080462E+02    0.266996141356301453E+00   -0.256639120348477481E+05
    0.134477428302305757E+02    0.233856471908101299E+00   -0.256639110216203990E+05
    0.133601958855495084E+02    0.196837041551276321E+00   -0.256639058583001097E+05
    0.133330256314983036E+02    0.239555941128183097E+00   -0.256638963908398255E+05
    0.133947326535825955E+02    0.164699696574608673E+00   -0.256638956141750386E+05
    0.134477860111410017E+02    0.233463527058218490E+00   -0.256638868047115684E+05
    0.133640984882056628E+02    0.193064129753198782E+00   -0.256638860223049232E+05
    0.135485529820123940E+02    0.145992761470165017E+00   -0.256638816790801720E+05
    0.133374805875983604E+02    0.260457420641946047E+00   -0.256638689943978570E+05
    0.133935913626368208E+02    0.166203542159779255E+00   -0.256638620291164625E+05
    0.134323453280657308E+02    0.138226973302757239E+00   -0.256638547000431718E+05
    0.134006577166964504E+02    0.160732290868038918E+00   -0.256638500841332061E+05
    0.135357598548359945E+02    0.978128176417251138E-01   -0.256638490114861997E+05
    0.134950250870284449E+02    0.106545550861937177E+00   -0.256638489608767923E+05
    0.133601545299691526E+02    0.265676079098514317E+00   -0.256638478547762024E+05
    0.133601545299691526E+02    0.265676079098514317E+00   -0.256638478547762024E+05
    0.134556821203682802E+02    0.227590205610787105E+00   -0.256638156236557224E+05
    0.133562833088010890E+02    0.203674868219682198E+00   -0.256638096969114486E+05
    0.133562833088010890E+02    0.203674868219682198E+00   -0.256638096969114486E+05
    0.135565528486867173E+02    0.126208170339810910E+00   -0.256637974532282169E+05
    0.135548060524006644E+02    0.106953431275034441E+00   -0.256637879604444897E+05
    0.135548060524006644E+02    0.106953431275034441E+00   -0.256637879604444897E+05
    0.133683980721671212E+02    0.263476644713225683E+00   -0.256637832046112089E+05
    0.133839608640242513E+02    0.260113176284182179E+00   -0.256637744233903140E+05
    0.133489303936395025E+02    0.262541585739586525E+00   -0.256637714317196733E+05
    0.133489303936395025E+02    0.262541585739586525E+00   -0.256637714317196733E+05
    0.135553235076017202E+02    0.127204893308647482E+00   -0.256637650971845324E+05
    0.134646759014936013E+02    0.220981303002210361E+00   -0.256637618873462015E+05
    0.133534054324237577E+02    0.208943603246178944E+00   -0.256637502047851995E+05
    0.135438220456797040E+02    0.101649483830231882E+00   -0.256637493821087555E+05
    0.133460871385232167E+02    0.219880323278330042E+00   -0.256637407354403222E+05
    0.134980321780347055E+02    0.195892677548453242E+00   -0.256637353555449627E+05
    0.134980321780347055E+02    0.195892677548453242E+00   -0.256637353555449627E+05
    0.135517903161613020E+02    0.133812033416502302E+00   -0.256637293095480491E+05
    0.133854576543151680E+02    0.175595842869779556E+00   -0.256637270645103017E+05
    0.133389875731208249E+02    0.252910111840057517E+00   -0.256637262781246500E+05
    0.133389875731208249E+02    0.252910111840057517E+00   -0.256637262781246500E+05
    0.133613057790780871E+02    0.199924250032400441E+00   -0.256637248155650268E+05
    0.134757587108375194E+02    0.116523296286162120E+00   -0.256637219487298498E+05
    0.134169974540114048E+02    0.150664611066533061E+00   -0.256637213479351994E+05
    0.134381140382743425E+02    0.136698610516860108E+00   -0.256637207064344184E+05
    0.135538055475151591E+02    0.126155835443959502E+00   -0.256637026715068969E+05
    0.133935919235908489E+02    0.255837247987167060E+00   -0.256636997985876769E+05
    0.133391604011962350E+02    0.239356359564811078E+00   -0.256636892786379358E+05
    0.133449739199316859E+02    0.257308216534932244E+00   -0.256636846278178491E+05
    0.134624105857660847E+02    0.123622512389699735E+00   -0.256636813224928483E+05
    0.134624105857660847E+02    0.123622512389699735E+00   -0.256636813224928483E+05
    0.133454797132778893E+02    0.257487021269068639E+00   -0.256636809953994452E+05
    0.133908557985216774E+02    0.171761110187875377E+00   -0.256636801740154078E+05
    0.133533915903031559E+02    0.260575154828796340E+00   -0.256636784533507343E+05
    0.135255080556819429E+02    0.102471771342805093E+00   -0.256636737413899100E+05
    0.135255080556819429E+02    0.102471771342805093E+00   -0.256636737413899100E+05
    0.135532995379147359E+02    0.124421822033701793E+00   -0.256636732961731905E+05
    0.134848219313816244E+02    0.113498918543656263E+00   -0.256636704648885534E+05
    0.133397080407233410E+02    0.239898620277342850E+00   -0.256636690126657813E+05
    0.133517236334731351E+02    0.259649098744514917E+00   -0.256636635741837781E+05
    0.134544293515264748E+02    0.225910282989218308E+00   -0.256636618195719057E+05
    0.133490017774836573E+02    0.258488029805928221E+00   -0.256636592224429696E+05
    0.133411475768553007E+02    0.235059933593503662E+00   -0.256636583053682516E+05
    0.133497916179468206E+02    0.218010289552437508E+00   -0.256636365676771020E+05
    0.134325056955934823E+02    0.141624181687703188E+00   -0.256636339597902843E+05
    0.135501318494882899E+02    0.130483611363235719E+00   -0.256636227122967430E+05
    0.134147452864320442E+02    0.246240408581198583E+00   -0.256636178906545611E+05
    0.134255028693795158E+02    0.146561114375875434E+00   -0.256636139661849120E+05
    0.133416002918145580E+02    0.239600739995668749E+00   -0.256636123551093187E+05
    0.135108916867664099E+02    0.106192546914507968E+00   -0.256636106809546545E+05
    0.134164755033234115E+02    0.245330159616222621E+00   -0.256636095879124514E+05
    0.134305942631486435E+02    0.238496944692421581E+00   -0.256636068627842542E+05
    0.135328958216876227E+02    0.158481153166152716E+00   -0.256636014778809258E+05
    0.135099110370418778E+02    0.106825282032083205E+00   -0.256635909896035555E+05
    0.133946978992188832E+02    0.170219049884465817E+00   -0.256635888321142702E+05
    0.135440527871966623E+02    0.108597751134180451E+00   -0.256635771338225350E+05
    0.133429948141170911E+02    0.238324017055443177E+00   -0.256635757994693413E+05
    0.135298301586740131E+02    0.161471422533509767E+00   -0.256635750570053933E+05
    0.135298301586740131E+02    0.161471422533509767E+00   -0.256635750570053933E+05
    0.135457252662734220E+02    0.110261691148122856E+00   -0.256635706027634660E+05
    0.133476981207045355E+02    0.253507086544002114E+00   -0.256635698914840068E+05
    0.133476981207045355E+02    0.253507086544002114E+00   -0.256635698914840068E+05
    0.133431011087618820E+02    0.239243869764211831E+00   -0.256635690646207477E+05
    0.133431011087618820E+02    0.239243869764211831E+00   -0.256635690646207477E+05
    0.133456081683186270E+02    0.250968867149866381E+00   -0.256635667167919455E+05
    0.133456081683186270E+02    0.250968867149866381E+00   -0.256635667167919455E+05
    0.133939724919047052E+02    0.252961764574758052E+00   -0.256635552889881837E+05
    0.135462199212510690E+02    0.111785861861238761E+00   -0.256635543237972488E+05
    0.135462199212510690E+02    0.111785861861238761E+00   -0.256635543237972488E+05
    0.133858045250817081E+02    0.178757405390447460E+00   -0.256635525021385474E+05
    0.133548165507867864E+02    0.213658095217744981E+00   -0.256635478779608165E+05
    0.135328344927699398E+02    0.106221878971110920E+00   -0.256635379464531943E+05
    0.135328344927699398E+02    0.106221878971110920E+00   -0.256635379464531943E+05
    0.133496869273085643E+02    0.223069109093738838E+00   -0.256635299379513744E+05
    0.133837429967237718E+02    0.181224224986111043E+00   -0.256635263271805852E+05
    0.134073960557834795E+02    0.161455053826622508E+00   -0.256635092790147828E+05
    0.134338295640451797E+02    0.142905385281001940E+00   -0.256635072442396850E+05
    0.135232554633397744E+02    0.166993981547716774E+00   -0.256634987553593674E+05
    0.134061441959947487E+02    0.163036901612183427E+00   -0.256634766929403559E+05
    0.133718215895958181E+02    0.255727441950997392E+00   -0.256634741650401265E+05
    0.135449354902077772E+02    0.116962432664274349E+00   -0.256634666397130495E+05
    0.134893761923128999E+02    0.197900661074200346E+00   -0.256634651305082116E+05
    0.134954703139978847E+02    0.113393282828461242E+00   -0.256634647471864664E+05
    0.134412322219157474E+02    0.230341014134862743E+00   -0.256634638454482301E+05
    0.135061231598196088E+02    0.183413970334449589E+00   -0.256634605005937192E+05
    0.135061231598196088E+02    0.183413970334449589E+00   -0.256634605005937192E+05
    0.135317829586301670E+02    0.155292747238118423E+00   -0.256634547018975063E+05
    0.134793381661090894E+02    0.119640044082950758E+00   -0.256634523725478830E+05
    0.135337667398744017E+02    0.152405792751361180E+00   -0.256634508761591896E+05
    0.135405100163768068E+02    0.112584056492046850E+00   -0.256634499549613720E+05
    0.135169530806029883E+02    0.108965294642703478E+00   -0.256634414145644951E+05
    0.134189853368890528E+02    0.241067155086639590E+00   -0.256634340104957046E+05
    0.135389341489165886E+02    0.143426659196971229E+00   -0.256634335356527590E+05
    0.134413850240091755E+02    0.229687074483518855E+00   -0.256634316044198677E+05
    0.133693655281725228E+02    0.198565551952053748E+00   -0.256634269909019858E+05
    0.135115360101422546E+02    0.177290804974386290E+00   -0.256634187372332490E+05
    0.133527078153904384E+02    0.224162630154727205E+00   -0.256634052572151049E+05
    0.133644335905345013E+02    0.253227720616239715E+00   -0.256633956938038245E+05
    0.133524760459247069E+02    0.247366860291598351E+00   -0.256633950730029428E+05
    0.135223945899801272E+02    0.110057091640253707E+00   -0.256633878388582270E+05
    0.135223945899801272E+02    0.110057091640253707E+00   -0.256633878388582270E+05
    0.133872018836268936E+02    0.181254291087364933E+00   -0.256633780059417077E+05
    0.133872018836268936E+02    0.181254291087364933E+00   -0.256633780059417077E+05
    0.133673690146545159E+02    0.252799844725526301E+00   -0.256633724508509622E+05
    0.135086806432568878E+02    0.111992041537622641E+00   -0.256633691555835285E+05
    0.133511067379700581E+02    0.236123905069222623E+00   -0.256633546912675702E+05
    0.133511067379700581E+02    0.236123905069222623E+00   -0.256633546912675702E+05
    0.133995721221288484E+02    0.170838722811730737E+00   -0.256633516686064650E+05
    0.133700229126293895E+02    0.200071941326395136E+00   -0.256633494700537594E+05
    0.133737937975348071E+02    0.195790016353169449E+00   -0.256633459251743261E+05
    0.135055094073139692E+02    0.181348604281667852E+00   -0.256633435961972646E+05
    0.135340009571835669E+02    0.147354303781532747E+00   -0.256633380722475849E+05
    0.135340009571835669E+02    0.147354303781532747E+00   -0.256633380722475849E+05
    0.133922889765958004E+02    0.177517489993206490E+00   -0.256633359251294241E+05
    0.133928998785491675E+02    0.176976424536802984E+00   -0.256633355473565098E+05
    0.134870205645212771E+02    0.118874814788380190E+00   -0.256633354722499062E+05
    0.134870205645212771E+02    0.118874814788380190E+00   -0.256633354722499062E+05
    0.134851028666287398E+02    0.198581126005103109E+00   -0.256633277586215445E+05
    0.134851028666287398E+02    0.198581126005103109E+00   -0.256633277586215445E+05
    0.134393254473489616E+02    0.142677280072219387E+00   -0.256633258773407069E+05
    0.135013786679741354E+02    0.114849984508593295E+00   -0.256633154611285609E+05
    0.133528786463680298E+02    0.238707534133925509E+00   -0.256633137605229676E+05
    0.135139246171021910E+02    0.112667651060510562E+00   -0.256633104531199133E+05
    0.135252142038636958E+02    0.112646001590803374E+00   -0.256633101572636078E+05
    0.135128697892071727E+02    0.112860978239800749E+00   -0.256633076308234522E+05
    0.133536964020313036E+02    0.231066250110028820E+00   -0.256633026853114097E+05
    0.134252034290773903E+02    0.235714791609275942E+00   -0.256633024659048970E+05
    0.134335102878333537E+02    0.231568016914255825E+00   -0.256633018768794245E+05
    0.133997581156567556E+02    0.171769515743275925E+00   -0.256633001883399957E+05
    0.135373578135905284E+02    0.119278078053970851E+00   -0.256632995035227250E+05
    0.135373578135905284E+02    0.119278078053970851E+00   -0.256632995035227250E+05
    0.133837935112973625E+02    0.249379581150314389E+00   -0.256632819523571125E+05
    0.133694335271532676E+02    0.249931807150849589E+00   -0.256632794925340349E+05
    0.133694335271532676E+02    0.249931807150849589E+00   -0.256632794925340349E+05
    0.135312359998110452E+02    0.115532406481671832E+00   -0.256632788595308921E+05
    0.133838683700465193E+02    0.249263012277418705E+00   -0.256632778750508005E+05
    0.134922075409392317E+02    0.118384975869499962E+00   -0.256632739347131937E+05
    0.134922075409392317E+02    0.118384975869499962E+00   -0.256632739347131937E+05
    0.133563197022257825E+02    0.242475641381605794E+00   -0.256632694357213586E+05
    0.135255395619971601E+02    0.114283053703345461E+00   -0.256632654667370916E+05
    0.135369196963731611E+02    0.136288898874804998E+00   -0.256632653607138564E+05
    0.135054578018334741E+02    0.115150533749428352E+00   -0.256632638776488420E+05
    0.135054578018334741E+02    0.115150533749428352E+00   -0.256632638776488420E+05
    0.133553849201438730E+02    0.230002177481425790E+00   -0.256632620105610804E+05
    0.133553849201438730E+02    0.230002177481425790E+00   -0.256632620105610804E+05
    0.133572730642737270E+02    0.243041666921606447E+00   -0.256632592971864178E+05
    0.135366631047431074E+02    0.136192713690815120E+00   -0.256632570386479274E+05
    0.135366631047431074E+02    0.136192713690815120E+00   -0.256632570386479274E+05
    0.133615999560797221E+02    0.215410654776816896E+00   -0.256632566397848168E+05
    0.135376632497697642E+02    0.130766451389706162E+00   -0.256632528449926504E+05
    0.135376632497697642E+02    0.130766451389706162E+00   -0.256632528449926504E+05
    0.134412135781862467E+02    0.226459724338837737E+00   -0.256632511278364800E+05
    0.133801133447385432E+02    0.248935909712888953E+00   -0.256632476672521734E+05
    0.135201037628174969E+02    0.114363318526129382E+00   -0.256632447658857127E+05
    0.134003094461903771E+02    0.172641869198583625E+00   -0.256632386259972336E+05
    0.134003094461903771E+02    0.172641869198583625E+00   -0.256632386259972336E+05
    0.134335037173739842E+02    0.148048804687101909E+00   -0.256632355392041463E+05
    0.134867096080526707E+02    0.195367420887121279E+00   -0.256632350626984953E+05
    0.134867096080526707E+02    0.195367420887121279E+00   -0.256632350626984953E+05
    0.133660621293468473E+02    0.247508933757509014E+00   -0.256632331333782859E+05
    0.133660621293468473E+02    0.247508933757509014E+00   -0.256632331333782859E+05
    0.134108439400763864E+02    0.164342983675838911E+00   -0.256632254816516506E+05
    0.134092220664903383E+02    0.240931780093029124E+00   -0.256632219403276868E+05
    0.135288661917544317E+02    0.150038594029927752E+00   -0.256632168630149681E+05
    0.134709299740420896E+02    0.206932826338174169E+00   -0.256632145341497308E+05
    0.134709299740420896E+02    0.206932826338174169E+00   -0.256632145341497308E+05
    0.135308766274773582E+02    0.146301614459562163E+00   -0.256632123173234031E+05
    0.135308766274773582E+02    0.146301614459562163E+00   -0.256632123173234031E+05
    0.135282050496925734E+02    0.150574440798373899E+00   -0.256632056977886605E+05
    0.135169919567828973E+02    0.165667961328039515E+00   -0.256632050736611782E+05
    0.135143109234193766E+02    0.115672643036793282E+00   -0.256632024580297439E+05
    0.135143109234193766E+02    0.115672643036793282E+00   -0.256632024580297439E+05
    0.133671196427152843E+02    0.209210006710904201E+00   -0.256632005607341234E+05
    0.135138347955415306E+02    0.169023283923115775E+00   -0.256631970716435317E+05
    0.133627643433758259E+02    0.216647560038301712E+00   -0.256631953606903990E+05
    0.133694309449358073E+02    0.206138975433714011E+00   -0.256631947826656869E+05
    0.133694309449358073E+02    0.206138975433714011E+00   -0.256631947826656869E+05
    0.134854202916184320E+02    0.195535497125780000E+00   -0.256631946500542290E+05
    0.134440816263831682E+02    0.142307750546573103E+00   -0.256631932541741407E+05
    0.134440816263831682E+02    0.142307750546573103E+00   -0.256631932541741407E+05
    0.133805456475897184E+02    0.247325142444708213E+00   -0.256631926393020040E+05
    0.134435460596079555E+02    0.223986847082066537E+00   -0.256631912789008347E+05
    0.134233154414270359E+02    0.155810197951389923E+00   -0.256631908555590708E+05
    0.134233154414270359E+02    0.155810197951389923E+00   -0.256631908555590708E+05
    0.134006432894581273E+02    0.243081826123534184E+00   -0.256631866748314387E+05
    0.134052668479144170E+02    0.241340518381710084E+00   -0.256631757902295831E+05
    0.135343427431567402E+02    0.130108602191801370E+00   -0.256631715162442924E+05
    0.135343427431567402E+02    0.130108602191801370E+00   -0.256631715162442924E+05
    0.134931790455649576E+02    0.120378159192991038E+00   -0.256631714421221950E+05
    0.135326270598745459E+02    0.139177579283881803E+00   -0.256631691187931756E+05
    0.134977742434072780E+02    0.119289923215940424E+00   -0.256631646637231352E+05
    0.134977742434072780E+02    0.119289923215940424E+00   -0.256631646637231352E+05
    0.133789341807455298E+02    0.246413783361518396E+00   -0.256631599968070877E+05
    0.134369764786439170E+02    0.226981743923729051E+00   -0.256631598220369488E+05
    0.134369764786439170E+02    0.226981743923729051E+00   -0.256631598220369488E+05
    0.133970589267310292E+02    0.243383330553652522E+00   -0.256631558946660225E+05
    0.133970589267310292E+02    0.243383330553652522E+00   -0.256631558946660225E+05
    0.135198760301162402E+02    0.160435839596276136E+00   -0.256631555571504141E+05
    0.134318983941218519E+02    0.229516952144991238E+00   -0.256631547129532155E+05
    0.134691302920863354E+02    0.206881303594129595E+00   -0.256631495795714800E+05
    0.134499068562137545E+02    0.139916812130502416E+00   -0.256631437398915441E+05
    0.135152870959308498E+02    0.165637820828967108E+00   -0.256631422000822204E+05
    0.135326336065773418E+02    0.128084174404398565E+00   -0.256631395586823855E+05
    0.134359941195616521E+02    0.148369178071839553E+00   -0.256631380719614972E+05
    0.133642667941452249E+02    0.241313194610546983E+00   -0.256631320037023579E+05
    0.135037776709092618E+02    0.119211332845080883E+00   -0.256631184187219260E+05
    0.135037776709092618E+02    0.119211332845080883E+00   -0.256631184187219260E+05
    0.135267152299332505E+02    0.122402215490230101E+00   -0.256631014860094801E+05
    0.134228662138296997E+02    0.232574550026356769E+00   -0.256630941028885463E+05
    0.133626983048935699E+02    0.225586262875882654E+00   -0.256630934906156399E+05
    0.134468317998469189E+02    0.142688047550738939E+00   -0.256630933675802880E+05
    0.134468317998469189E+02    0.142688047550738939E+00   -0.256630933675802880E+05
    0.134337995766502374E+02    0.150694387489205883E+00   -0.256630933390710743E+05
    0.135308581553502432E+02    0.132249153415226528E+00   -0.256630922555156212E+05
    0.133966010281991146E+02    0.179441095097218922E+00   -0.256630899281487436E+05
    0.135107980472255669E+02    0.119295297480671650E+00   -0.256630894976437012E+05
    0.134062490966108587E+02    0.239024482556959128E+00   -0.256630893370735794E+05
    0.135297071019203585E+02    0.127271292589377388E+00   -0.256630889583094322E+05
    0.133674384435518192E+02    0.214398795452324570E+00   -0.256630865016693788E+05
    0.133674384435518192E+02    0.214398795452324570E+00   -0.256630865016693788E+05
    0.134622921443755050E+02    0.134676661959448191E+00   -0.256630800222669750E+05
    0.134719641353724935E+02    0.203367476961942323E+00   -0.256630799948013555E+05
    0.133732819656718167E+02    0.205538889249455070E+00   -0.256630778251915872E+05
    0.134769216775530687E+02    0.199584897604782041E+00   -0.256630760529398394E+05
    0.133747634058753313E+02    0.203631116299482107E+00   -0.256630745605678385E+05
    0.133747634058753313E+02    0.203631116299482107E+00   -0.256630745605678385E+05
    0.134528887083700059E+02    0.216021904612874904E+00   -0.256630715396701271E+05
    0.134528887083700059E+02    0.216021904612874904E+00   -0.256630715396701271E+05
    0.135162266806727551E+02    0.161945836256819964E+00   -0.256630703582493479E+05
    0.134476408851502569E+02    0.142745618746318276E+00   -0.256630679275240582E+05
    0.134182664643571634E+02    0.162064116493015581E+00   -0.256630677423747475E+05
    0.134869649073977982E+02    0.191313426600048908E+00   -0.256630652411497285E+05
    0.134869649073977982E+02    0.191313426600048908E+00   -0.256630652411497285E+05
    0.135251630450796512E+02    0.147826517400286794E+00   -0.256630603140752974E+05
    0.135246957750467303E+02    0.123547481704728665E+00   -0.256630596287512853E+05
    0.135202646231554375E+02    0.155937121407563384E+00   -0.256630588007238694E+05
    0.133645473669943371E+02    0.234876381810548374E+00   -0.256630577509041686E+05
    0.135164197216999185E+02    0.120892283516287585E+00   -0.256630512545260972E+05
    0.135278360499720449E+02    0.139733500230245666E+00   -0.256630448327302329E+05
    0.135076231506110318E+02    0.171095789095940559E+00   -0.256630418212159457E+05
    0.135076231506110318E+02    0.171095789095940559E+00   -0.256630418212159457E+05
    0.134788296893906150E+02    0.197266539792544937E+00   -0.256630387421953492E+05
    0.133922070459851668E+02    0.241270251895951221E+00   -0.256630336451875373E+05
    0.133844527103106579E+02    0.242166431204042548E+00   -0.256630335959124786E+05
    0.133844527103106579E+02    0.242166431204042548E+00   -0.256630335959124786E+05
    0.134359413863446715E+02    0.150669088786149208E+00   -0.256630288037641731E+05
    0.134923411050342956E+02    0.185562400059100796E+00   -0.256630213145902380E+05
    0.134198805373136931E+02    0.232258444739153136E+00   -0.256630206962110751E+05
    0.134198805373136931E+02    0.232258444739153136E+00   -0.256630206962110751E+05
    0.135085421616730823E+02    0.121966150448709121E+00   -0.256630100461537622E+05
    0.134935315670343208E+02    0.184131226782167340E+00   -0.256630078320933899E+05
    0.134503150795013777E+02    0.216170218355305421E+00   -0.256630045864289059E+05
    0.134932419533391581E+02    0.184268048116862454E+00   -0.256630030569323571E+05
    0.134126251076671181E+02    0.167908872889854260E+00   -0.256630020442283276E+05
    0.133678697485723408E+02    0.222036473090996084E+00   -0.256629856662181992E+05
    0.134170722949567924E+02    0.232588106311254567E+00   -0.256629849153224386E+05
    0.133706887157112249E+02    0.215152264623968720E+00   -0.256629802936842461E+05
    0.133876663676555356E+02    0.191731808234119366E+00   -0.256629720559875132E+05
    0.134934419921180258E+02    0.183188923621034255E+00   -0.256629699849785211E+05
    0.133799633794341144E+02    0.239350493453782426E+00   -0.256629621631003974E+05
    0.135244360685325589E+02    0.133509949232671066E+00   -0.256629593530063139E+05
    0.135046007454172035E+02    0.171626258307550517E+00   -0.256629565393069279E+05
    0.135046007454172035E+02    0.171626258307550517E+00   -0.256629565393069279E+05
    0.133927603334077983E+02    0.238828229334752812E+00   -0.256629542338216197E+05
    0.134056032802408751E+02    0.235720028041220941E+00   -0.256629482722239154E+05
    0.135094004255294280E+02    0.165794359202270480E+00   -0.256629477760423470E+05
    0.133816816890319501E+02    0.238888969674068918E+00   -0.256629454076912953E+05
    0.133923923154241908E+02    0.187618482457239749E+00   -0.256629437834430755E+05
    0.133700354990631496E+02    0.220675310315586182E+00   -0.256629418618154450E+05
    0.133700354990631496E+02    0.220675310315586182E+00   -0.256629418618154450E+05
    0.135177351529759129E+02    0.126466010355323261E+00   -0.256629407309437047E+05
    0.134924144806643387E+02    0.182904047053220775E+00   -0.256629258126224449E+05
    0.134924144806643387E+02    0.182904047053220775E+00   -0.256629258126224449E+05
    0.134553588182633810E+02    0.211065893247007530E+00   -0.256629162837539079E+05
    0.135087088427200523E+02    0.125422611952942381E+00   -0.256629150416294251E+05
    0.134627035245282123E+02    0.138132152650180029E+00   -0.256629143201447041E+05
    0.134627035245282123E+02    0.138132152650180029E+00   -0.256629143201447041E+05
    0.134145414286090627E+02    0.168573704870286500E+00   -0.256629124992251564E+05
    0.134846451658916102E+02    0.129396245335199944E+00   -0.256629107553627728E+05
    0.134014661235201249E+02    0.179835481990578028E+00   -0.256629087002673405E+05
    0.134924121517965308E+02    0.182375335220779006E+00   -0.256629072911177136E+05
    0.135151141735985441E+02    0.156132412895555656E+00   -0.256629061618568667E+05
    0.135151141735985441E+02    0.156132412895555656E+00   -0.256629061618568667E+05
    0.133866869574404834E+02    0.237487723565429104E+00   -0.256629016490675494E+05
    0.134132713307597999E+02    0.169882355727628054E+00   -0.256629009682705291E+05
    0.134132713307597999E+02    0.169882355727628054E+00   -0.256629009682705291E+05
    0.135074549358073277E+02    0.166334815468476782E+00   -0.256629007367167578E+05
    0.133917899117339427E+02    0.237096766123506414E+00   -0.256628968668519628E+05
    0.135194211665177715E+02    0.131050256275067001E+00   -0.256628962418021365E+05
    0.133839934604173987E+02    0.198836275944778790E+00   -0.256628962167193095E+05
    0.133839934604173987E+02    0.198836275944778790E+00   -0.256628962167193095E+05
    0.135208942826740870E+02    0.133993193505612340E+00   -0.256628951005212730E+05
    0.135041299004558883E+02    0.126213915541287025E+00   -0.256628917396909128E+05
    0.134581358487876770E+02    0.140920911229033219E+00   -0.256628915470945103E+05
    0.134581358487876770E+02    0.140920911229033219E+00   -0.256628915470945103E+05
    0.133748724686373208E+02    0.232233094712204352E+00   -0.256628787037580951E+05
    0.134489197286411617E+02    0.214071229901567600E+00   -0.256628744744553733E+05
    0.134925628441843131E+02    0.181221223240649626E+00   -0.256628729776529945E+05
    0.134151175724374596E+02    0.230508460729723530E+00   -0.256628706378907118E+05
    0.133928869453665111E+02    0.189611425679370421E+00   -0.256628669918188680E+05
    0.133928869453665111E+02    0.189611425679370421E+00   -0.256628669918188680E+05
    0.134452716342342793E+02    0.216008341174604851E+00   -0.256628658017759226E+05
    0.134452716342342793E+02    0.216008341174604851E+00   -0.256628658017759226E+05
    0.134833791460503249E+02    0.189211867834979341E+00   -0.256628646705763131E+05
    0.135141440622243518E+02    0.129188742886612196E+00   -0.256628640051445946E+05
    0.135141440622243518E+02    0.129188742886612196E+00   -0.256628640051445946E+05
    0.133750668186817450E+02    0.215762192699675559E+00   -0.256628592901553529E+05
    0.134323143697718255E+02    0.222749746609266386E+00   -0.256628579431131438E+05
    0.134323143697718255E+02    0.222749746609266386E+00   -0.256628579431131438E+05
    0.135095757162168617E+02    0.161781303090975631E+00   -0.256628578930079348E+05
    0.135194975476803201E+02    0.137711603705963609E+00   -0.256628574073135387E+05
    0.135188366447071733E+02    0.135563674863771494E+00   -0.256628532556878090E+05
    0.133742623172978607E+02    0.227643336664013346E+00   -0.256628502411836453E+05
    0.133742623172978607E+02    0.227643336664013346E+00   -0.256628502411836453E+05
    0.133999572748443825E+02    0.183190645071515695E+00   -0.256628437365407881E+05
    0.133878050894481948E+02    0.196329317804766035E+00   -0.256628419845973840E+05
    0.135179369223285395E+02    0.144930780663593106E+00   -0.256628415955495766E+05
    0.135179369223285395E+02    0.144930780663593106E+00   -0.256628415955495766E+05
    0.134937197528016206E+02    0.129320652021160332E+00   -0.256628336977109320E+05
    0.134975956941031612E+02    0.128753387896849120E+00   -0.256628332617378037E+05
    0.133854023327071872E+02    0.234467451137573640E+00   -0.256628316584550921E+05
    0.135059827250942277E+02    0.164691025153878845E+00   -0.256628176617498393E+05
    0.134320024469049830E+02    0.158112702566984287E+00   -0.256628176348834677E+05
    0.134597448496046557E+02    0.205817352368374451E+00   -0.256628168045346465E+05
    0.134888311248939132E+02    0.130932933096571780E+00   -0.256628150241620388E+05
    0.135168238386318418E+02    0.136970233128290819E+00   -0.256628141716646460E+05
    0.135070529801580452E+02    0.163049646450886432E+00   -0.256628125369795816E+05
    0.135002396550981896E+02    0.129335698029079238E+00   -0.256628110041248292E+05
    0.134562933946515031E+02    0.207862345754945943E+00   -0.256628076055090714E+05
    0.134562933946515031E+02    0.207862345754945943E+00   -0.256628076055090714E+05
    0.134149041052120488E+02    0.171064796643920991E+00   -0.256628065005221761E+05
    0.135157961528528592E+02    0.145741525926330218E+00   -0.256627992518594401E+05
    0.134755340099333907E+02    0.135542660077464266E+00   -0.256627975353424299E+05
    0.133828686472566574E+02    0.231761771209040929E+00   -0.256627937027481130E+05
    0.133828686472566574E+02    0.231761771209040929E+00   -0.256627937027481130E+05
    0.135131508019637856E+02    0.152088149263343159E+00   -0.256627935111629522E+05
    0.135091996444486391E+02    0.158975843698611480E+00   -0.256627930507843557E+05
    0.134083947879512664E+02    0.176995322752805329E+00   -0.256627914335418027E+05
    0.133993927640341486E+02    0.185528669794825490E+00   -0.256627888962934594E+05
    0.133786152226377357E+02    0.216311111762521213E+00   -0.256627738615255075E+05
    0.135143330326404403E+02    0.146668319227138882E+00   -0.256627731947344837E+05
    0.134448366851101735E+02    0.151127760692675694E+00   -0.256627714745618250E+05
    0.133799805493533537E+02    0.212953180829387828E+00   -0.256627690597032961E+05
    0.135140833995222582E+02    0.145726069198138075E+00   -0.256627632258552621E+05
    0.135140833995222582E+02    0.145726069198138075E+00   -0.256627632258552621E+05
    0.135085846240334533E+02    0.132825979424162022E+00   -0.256627619783147857E+05
    0.135085846240334533E+02    0.132825979424162022E+00   -0.256627619783147857E+05
    0.133826582708656243E+02    0.208129529683348413E+00   -0.256627596006406093E+05
    0.134638131570754016E+02    0.141584293504217085E+00   -0.256627538943628206E+05
    0.133794809238416708E+02    0.217479377288388592E+00   -0.256627501324366276E+05
    0.134146818389189377E+02    0.227305495492833243E+00   -0.256627491159812344E+05
    0.134586457287020540E+02    0.204761084970946194E+00   -0.256627469382202398E+05
    0.134586457287020540E+02    0.204761084970946194E+00   -0.256627469382202398E+05
    0.134883458765602207E+02    0.181092133236032626E+00   -0.256627423758637815E+05
    0.135065962350962376E+02    0.133278169978241823E+00   -0.256627413556153078E+05
    0.134441917977216168E+02    0.152442886311572851E+00   -0.256627351009916929E+05
    0.135107574626671578E+02    0.151657326376415214E+00   -0.256627329035312978E+05
    0.134420915239567229E+02    0.214468485026231670E+00   -0.256627319754503842E+05
    0.134452268393256791E+02    0.151917437793021165E+00   -0.256627317126864364E+05
    0.133825171479091427E+02    0.210908482393590363E+00   -0.256627306688309000E+05
    0.135014431380267474E+02    0.132733849510707519E+00   -0.256627303643129817E+05
    0.134966615939835872E+02    0.172120364734998088E+00   -0.256627300857878072E+05
    0.134245147853182285E+02    0.222982153527405996E+00   -0.256627288005505397E+05
    0.133902879473049214E+02    0.230251060603063634E+00   -0.256627275511256521E+05
    0.133902879473049214E+02    0.230251060603063634E+00   -0.256627275511256521E+05
    0.134823840269494575E+02    0.135541649986503976E+00   -0.256627201946826244E+05
    0.134335774380953215E+02    0.218599930763260647E+00   -0.256627200766068854E+05
    0.134482473432075285E+02    0.210492548775180505E+00   -0.256627152964580746E+05
    0.133813771018412311E+02    0.221710199469550423E+00   -0.256627140399099917E+05
    0.133959758287416442E+02    0.229886230268293329E+00   -0.256627118204494363E+05
    0.134815857472964709E+02    0.186257276385647291E+00   -0.256627115447561264E+05
    0.134815857472964709E+02    0.186257276385647291E+00   -0.256627115447561264E+05
    0.134980501001169717E+02    0.133492241602610723E+00   -0.256627092806547844E+05
    0.134106230736591812E+02    0.177584927244815866E+00   -0.256627083667203260E+05
    0.135007102787700699E+02    0.133945859979109294E+00   -0.256627034072382376E+05
    0.134929245233621806E+02    0.175100100824968047E+00   -0.256627028380580159E+05
    0.134929245233621806E+02    0.175100100824968047E+00   -0.256627028380580159E+05
    0.134723791364660315E+02    0.193611246462368908E+00   -0.256627027162581544E+05
    0.134723791364660315E+02    0.193611246462368908E+00   -0.256627027162581544E+05
    0.134597913753523901E+02    0.144859933670684282E+00   -0.256627025938373699E+05
    0.134597913753523901E+02    0.144859933670684282E+00   -0.256627025938373699E+05
    0.134876546116546958E+02    0.180099847075956193E+00   -0.256626941789727680E+05
    0.134876546116546958E+02    0.180099847075956193E+00   -0.256626941789727680E+05
    0.133826834317774352E+02    0.220014689900269733E+00   -0.256626897064053665E+05
    0.133826834317774352E+02    0.220014689900269733E+00   -0.256626897064053665E+05
    0.134923379763618989E+02    0.134610834649925987E+00   -0.256626888746035256E+05
    0.134005725764202932E+02    0.228610149520901224E+00   -0.256626878009709071E+05
    0.134005725764202932E+02    0.228610149520901224E+00   -0.256626878009709071E+05
    0.135095068535280642E+02    0.149093865753414323E+00   -0.256626877096218413E+05
    0.134031804050888681E+02    0.228245682051993054E+00   -0.256626873328724105E+05
    0.134031804050888681E+02    0.228245682051993054E+00   -0.256626873328724105E+05
    0.135084686293385676E+02    0.151930319197465552E+00   -0.256626854960214332E+05
    0.135020681713573758E+02    0.135232968379337098E+00   -0.256626837019026243E+05
    0.134593170625871483E+02    0.145650538144175029E+00   -0.256626822793535575E+05
    0.134593170625871483E+02    0.145650538144175029E+00   -0.256626822793535575E+05
    0.133850015661162214E+02    0.210216749687767518E+00   -0.256626822776015906E+05
    0.134723189510564545E+02    0.193050236169846401E+00   -0.256626822475480149E+05
    0.134128082014083443E+02    0.225778369992638561E+00   -0.256626803433065033E+05
    0.134658219934695023E+02    0.197911591843974805E+00   -0.256626800311239713E+05
    0.133875938743218903E+02    0.205221081857538207E+00   -0.256626798563357625E+05
    0.133875938743218903E+02    0.205221081857538207E+00   -0.256626798563357625E+05
    0.134462392054595448E+02    0.210597503466151831E+00   -0.256626755905688697E+05
    0.134921722380209133E+02    0.174762248946834425E+00   -0.256626740289864792E+05
    0.134963483258079755E+02    0.169996872808678534E+00   -0.256626720358244929E+05
    0.133845735547288864E+02    0.212846763046226295E+00   -0.256626714765966935E+05
    0.135064888709899673E+02    0.138420984298140037E+00   -0.256626704515871279E+05
    0.133856976387347935E+02    0.210010815624871477E+00   -0.256626692486759239E+05
    0.133856976387347935E+02    0.210010815624871477E+00   -0.256626692486759239E+05
    0.134149139768232555E+02    0.224725215085264940E+00   -0.256626676433474604E+05
    0.134653818703495496E+02    0.197847017353091209E+00   -0.256626667590574943E+05
    0.134278250379779269E+02    0.219731655526074127E+00   -0.256626648970640308E+05
    0.134278250379779269E+02    0.219731655526074127E+00   -0.256626648970640308E+05
    0.134893226036701463E+02    0.177276471987549256E+00   -0.256626624747630412E+05
    0.134893226036701463E+02    0.177276471987549256E+00   -0.256626624747630412E+05
    0.134072015308169306E+02    0.182340107833969756E+00   -0.256626607521523438E+05
    0.134902782861727726E+02    0.176212848546099560E+00   -0.256626604016414167E+05
    0.135066572122254556E+02    0.153451710374900546E+00   -0.256626602076256495E+05
    0.133852814508773506E+02    0.212711685954700386E+00   -0.256626583342108206E+05
    0.134955091208771112E+02    0.170256455562498910E+00   -0.256626560993775165E+05
    0.134465516521979271E+02    0.209868487365478973E+00   -0.256626559789784333E+05
    0.134237060537089032E+02    0.221186312697511295E+00   -0.256626555408506356E+05
    0.134925278568594358E+02    0.135946639184679696E+00   -0.256626554597552786E+05
    0.134656236236761284E+02    0.197284707946497828E+00   -0.256626536629705552E+05
    0.134869240261011551E+02    0.179305480052100508E+00   -0.256626527787398154E+05
    0.134416863620856972E+02    0.156226153521066002E+00   -0.256626514243746060E+05
    0.135011699637847133E+02    0.162503282316821374E+00   -0.256626494960770979E+05
    0.134458916074016503E+02    0.210049143710311442E+00   -0.256626487940098377E+05
    0.134047261891796925E+02    0.226379701037455278E+00   -0.256626446661774789E+05
    0.134215420384082407E+02    0.170568415645404009E+00   -0.256626416092377403E+05
    0.134764502825788739E+02    0.139848393978663416E+00   -0.256626415065761139E+05
    0.133858283385880750E+02    0.219486404779642624E+00   -0.256626411305902402E+05
    0.135072554364278670E+02    0.146283539429423487E+00   -0.256626398482119730E+05
    0.135072554364278670E+02    0.146283539429423487E+00   -0.256626398482119730E+05
    0.134346357338387374E+02    0.215793332306887103E+00   -0.256626387031272425E+05
    0.134192479907534601E+02    0.172519465200389965E+00   -0.256626378653961547E+05
    0.135012985170083439E+02    0.161480069232594753E+00   -0.256626366930630138E+05
    0.135012985170083439E+02    0.161480069232594753E+00   -0.256626366930630138E+05
    0.134826907491429751E+02    0.182736851699850239E+00   -0.256626363855381096E+05
    0.133863192859587503E+02    0.213332673281769608E+00   -0.256626357111489087E+05
    0.134195983651914652E+02    0.172349007933284198E+00   -0.256626343130409041E+05
    0.134027445895453230E+02    0.225961847694799156E+00   -0.256626281890962382E+05
    0.134802421259714187E+02    0.139186284331922233E+00   -0.256626278223063237E+05
    0.134802421259714187E+02    0.139186284331922233E+00   -0.256626278223063237E+05
    0.134961365624342040E+02    0.137256884852458544E+00   -0.256626275009159363E+05
    0.133933930570920801E+02    0.225130804754741870E+00   -0.256626234872632886E+05
    0.134792151420798056E+02    0.185377189326668995E+00   -0.256626222251708714E+05
    0.134896837468836814E+02    0.137583396613593506E+00   -0.256626222030813260E+05
    0.133878140201778173E+02    0.210576926142681808E+00   -0.256626221474374652E+05
    0.133878140201778173E+02    0.210576926142681808E+00   -0.256626221474374652E+05
    0.134512649084364817E+02    0.151525667262481789E+00   -0.256626213045739096E+05
    0.133918819861908212E+02    0.224407636784931752E+00   -0.256626211755733966E+05
    0.133871974099652551E+02    0.214675745663450435E+00   -0.256626164062838725E+05
    0.135000366968237966E+02    0.161927826976495853E+00   -0.256626144407941101E+05
    0.134397484114042562E+02    0.158506422131352631E+00   -0.256626142712760993E+05
    0.134583197031017079E+02    0.148121671348747125E+00   -0.256626133475289498E+05
    0.135046529478631427E+02    0.143426604251490342E+00   -0.256626105977716761E+05
    0.134795720454432217E+02    0.140103479563535610E+00   -0.256626069013431588E+05
    0.134262022738469753E+02    0.218600003605046611E+00   -0.256626048731919764E+05
    0.133880425390199242E+02    0.217670200771866829E+00   -0.256626047194861421E+05
    0.134230603654629927E+02    0.170582780466451506E+00   -0.256626035779126287E+05
    0.134798125254063308E+02    0.140234349776478140E+00   -0.256626014787145614E+05
    0.135045488460550356E+02    0.148402762211293421E+00   -0.256625975907544052E+05
    0.135045113415362366E+02    0.148642338828553100E+00   -0.256625972153296389E+05
    0.133887328323516019E+02    0.217631627155626756E+00   -0.256625951458235832E+05
    0.134933334975372166E+02    0.138763496151524418E+00   -0.256625940691921824E+05
    0.134179271012979644E+02    0.221281705187536176E+00   -0.256625932431870897E+05
    0.134881886183681736E+02    0.175624388727417674E+00   -0.256625931951017265E+05
    0.134881886183681736E+02    0.175624388727417674E+00   -0.256625931951017265E+05
    0.133890082273496009E+02    0.212297881714029801E+00   -0.256625918670479332E+05
    0.134941578343018076E+02    0.168670776266376138E+00   -0.256625910203424355E+05
    0.133911766045494787E+02    0.221260025240998054E+00   -0.256625900895894811E+05
    0.134517768869011096E+02    0.152211599207549425E+00   -0.256625887971882039E+05
    0.135030186845952986E+02    0.144116726009305279E+00   -0.256625872679292770E+05
    0.134931611619721679E+02    0.169248934434036602E+00   -0.256625785739801540E+05
    0.134312870556193449E+02    0.165404800195968815E+00   -0.256625739091207106E+05
    0.134471292679845753E+02    0.206940911226308949E+00   -0.256625682066489280E+05
    0.134012538629405213E+02    0.223043636785300342E+00   -0.256625648962641499E+05
    0.133910499626733461E+02    0.217400692909509058E+00   -0.256625646903684901E+05
    0.134953255195735782E+02    0.140867471699558544E+00   -0.256625620314832340E+05
    0.134048121424918580E+02    0.188787993044706476E+00   -0.256625619719458955E+05
    0.134089915602423844E+02    0.222313170503656649E+00   -0.256625611125733558E+05
    0.134005776949713749E+02    0.193799110036950634E+00   -0.256625606392921800E+05
    0.134005776949713749E+02    0.193799110036950634E+00   -0.256625606392921800E+05
    0.134676489808668975E+02    0.192753504099792611E+00   -0.256625585369018627E+05
    0.135015519343703900E+02    0.147747482755179238E+00   -0.256625545346232939E+05
    0.134965552898531662E+02    0.162992154363528846E+00   -0.256625534547522075E+05
    0.134437898330171564E+02    0.208394961611836516E+00   -0.256625533200751888E+05
    0.134265844950230999E+02    0.169566330106481811E+00   -0.256625520575603186E+05
    0.134977323159284435E+02    0.160856390596705423E+00   -0.256625512243610428E+05
    0.133968069910677716E+02    0.199706824758871693E+00   -0.256625494656525516E+05
    0.134880506347296336E+02    0.141005536771275114E+00   -0.256625488744552422E+05
    0.134056073885006874E+02    0.222165407145431870E+00   -0.256625486461832115E+05
    0.133981503122006256E+02    0.221629873094921576E+00   -0.256625485780931740E+05
    0.133936743778640643E+02    0.218870301478927082E+00   -0.256625461830817840E+05
    0.134124974999732416E+02    0.181688662282157048E+00   -0.256625456039946148E+05
    0.134920524895105576E+02    0.168779354234018353E+00   -0.256625450307321044E+05
    0.134180579696941376E+02    0.176716324485001464E+00   -0.256625445429673164E+05
    0.134966897587184320E+02    0.142695384216024845E+00   -0.256625436419488396E+05
    0.134993456111387040E+02    0.144883310246134628E+00   -0.256625431820367958E+05
    0.133993251543577756E+02    0.196475600085983471E+00   -0.256625430236241518E+05
    0.134417592077207164E+02    0.209171724736462394E+00   -0.256625424984398560E+05
    0.134176882138091269E+02    0.177129898100010563E+00   -0.256625420249627932E+05
    0.134142286553814660E+02    0.180235127076584567E+00   -0.256625415893994286E+05
    0.134782382634574986E+02    0.183231275859819048E+00   -0.256625405678472853E+05
    0.134004344635806056E+02    0.221582189425016091E+00   -0.256625403315113581E+05
    0.134803480613821947E+02    0.181248644672366399E+00   -0.256625401084123005E+05
    0.133930498678251180E+02    0.216461468318607825E+00   -0.256625369557575796E+05
    0.135000431118818458E+02    0.152207333205471584E+00   -0.256625329507568022E+05
    0.134065712399917736E+02    0.221240413385329016E+00   -0.256625308147479809E+05
    0.134960909300284762E+02    0.161788257009076009E+00   -0.256625291008969107E+05
    0.134421095960386978E+02    0.159665925972671791E+00   -0.256625287894740795E+05
    0.133960152570887026E+02    0.202852674146876855E+00   -0.256625281835176902E+05
    0.134591541375797377E+02    0.150439747996721884E+00   -0.256625271371503695E+05
    0.134981272672748673E+02    0.146159799889450631E+00   -0.256625223025904597E+05
    0.134191975432659660E+02    0.176711567335609443E+00   -0.256625187086495644E+05
    0.134911878637976130E+02    0.168318519445708886E+00   -0.256625186496445567E+05
    0.134338579143745207E+02    0.212387607438001530E+00   -0.256625183732483165E+05
    0.133972946223494365E+02    0.218581948814171284E+00   -0.256625144653498610E+05
    0.134583122768416423E+02    0.151289754613784050E+00   -0.256625136686925798E+05
    0.134065202691049929E+02    0.189293433103471520E+00   -0.256625128426926276E+05
    0.134983548601657901E+02    0.154311090317588384E+00   -0.256625127855774299E+05
    0.133944894730975168E+02    0.209123449658183774E+00   -0.256625124429981370E+05
    0.133963888860012670E+02    0.217495719383977715E+00   -0.256625110120138670E+05
    0.134111180235548986E+02    0.184533982185338286E+00   -0.256625104091227404E+05
    0.134235230530278358E+02    0.173462802626348334E+00   -0.256625094217396982E+05
    0.133989870298747054E+02    0.218989307726651011E+00   -0.256625087177333917E+05
    0.134774553004488702E+02    0.182591192052122375E+00   -0.256625070847962779E+05
    0.134455716075792644E+02    0.205877409159379410E+00   -0.256625070145040045E+05
    0.134392416398576238E+02    0.162200993349858075E+00   -0.256625069078893757E+05
    0.134105243074813334E+02    0.185441603174980235E+00   -0.256625037668784462E+05
    0.134906918995514591E+02    0.168021818331390127E+00   -0.256625036343777210E+05
    0.134833387678918903E+02    0.176619067063135182E+00   -0.256625028533572804E+05
    0.134085031902772140E+02    0.219687237198173124E+00   -0.256625022855667303E+05
    0.134661075394868224E+02    0.148311277969022243E+00   -0.256625020289037129E+05
    0.134199814499038652E+02    0.217094717512785584E+00   -0.256624974699379527E+05
    0.134882127422956462E+02    0.170671619418295645E+00   -0.256624949310006632E+05
    0.134277997651247745E+02    0.214116518260509592E+00   -0.256624923077936437E+05
    0.134480913534643207E+02    0.157381403601345810E+00   -0.256624908641801630E+05
    0.134867967417061489E+02    0.172069755232380439E+00   -0.256624894725986560E+05
    0.133977607008159598E+02    0.203670410343560815E+00   -0.256624887855077359E+05
    0.134033662399889248E+02    0.194515040964969188E+00   -0.256624886778932014E+05
    0.134841776119987404E+02    0.174995832917542171E+00   -0.256624883601741785E+05
    0.134713948490439144E+02    0.187171073711029617E+00   -0.256624882030606750E+05
    0.133969980871789200E+02    0.214560818760057170E+00   -0.256624852600519516E+05
    0.134920656870641338E+02    0.145519525559898194E+00   -0.256624833752191953E+05
    0.134244322097218429E+02    0.215058100146185316E+00   -0.256624832614334009E+05
    0.134176282017308317E+02    0.217176810471893855E+00   -0.256624831802443368E+05
    0.134965094904564573E+02    0.152655951447980026E+00   -0.256624825356748734E+05
    0.134820583068657882E+02    0.144754149452282210E+00   -0.256624821648314610E+05
    0.134054638467938148E+02    0.218617011994843513E+00   -0.256624819847052895E+05
    0.134321949312293683E+02    0.211869976383320308E+00   -0.256624818810528050E+05
    0.134899665287842190E+02    0.144971341548684934E+00   -0.256624818257390434E+05
    0.134449372817072561E+02    0.159544781681735859E+00   -0.256624811914025631E+05
    0.134711610111363260E+02    0.163507311176713965E+00   -0.256622404559722017E+05
    0.134767911596804417E+02    0.149599940081053373E+00   -0.256624019359757694E+05
    0.134039756617426313E+02    0.212198386708254305E+00   -0.256624112537702240E+05
    0.134690984083022354E+02    0.149320099300468107E+00   -0.256624479486855271E+05
    0.134128272131665671E+02    0.202256952602242274E+00   -0.256623011249491537E+05
    0.134145757512854082E+02    0.184423112550678420E+00   -0.256624398361852291E+05
    0.134081127773017439E+02    0.209542826760957257E+00   -0.256623652951922959E+05
    0.134090288434641636E+02    0.195052078697622477E+00   -0.256623791527026005E+05
    0.134512985907655356E+02    0.194606192720594789E+00   -0.256623126492870506E+05
    0.134028109126353900E+02    0.211475274932124674E+00   -0.256624153648393913E+05
    0.134452891972049482E+02    0.190884477235872513E+00   -0.256621984445088674E+05
    0.134177726340697170E+02    0.182039554001985793E+00   -0.256624247151392337E+05
    0.134516234315768450E+02    0.158752848830165799E+00   -0.256624011934711780E+05
    0.134638927571885887E+02    0.186200141184462042E+00   -0.256623291503292130E+05
    0.134154608934392083E+02    0.197278707060446590E+00   -0.256622811936874168E+05
    0.134618012107843921E+02    0.182687078067549802E+00   -0.256622461847037412E+05
    0.134363941175998942E+02    0.206355660480462028E+00   -0.256623897420791909E+05
    0.134233661852054986E+02    0.196670034788837572E+00   -0.256622231423675985E+05
    0.134564056827467642E+02    0.154982332898263658E+00   -0.256624361590025983E+05
    0.134329895722915715E+02    0.211305499136608566E+00   -0.256624761931605899E+05
    0.134483839216856786E+02    0.171486945136142682E+00   -0.256622017826673691E+05
    0.134557802682179499E+02    0.186839294158250763E+00   -0.256622349678295723E+05
    0.134379521972695688E+02    0.194877095347708057E+00   -0.256622047465924297E+05
    0.134827622122396704E+02    0.163110105641693814E+00   -0.256623301399182055E+05
    0.134762777119531592E+02    0.154946338522575305E+00   -0.256623228474334501E+05
    0.134821365750433664E+02    0.175829899739566586E+00   -0.256624618232244029E+05
    0.134144339524366085E+02    0.212359557488202899E+00   -0.256623791728460346E+05
    0.134609072807578940E+02    0.153098515849273420E+00   -0.256624318794134560E+05
    0.134604517678736748E+02    0.187143702238203091E+00   -0.256622958521497676E+05
    0.134634854395820174E+02    0.188216067050167551E+00   -0.256623623302894557E+05
    0.134458104994689513E+02    0.180320860070908473E+00   -0.256621527442636543E+05
    0.134458104994689513E+02    0.180320860070908473E+00   -0.256621527442636543E+05
    0.134698444096104453E+02    0.163435846734192536E+00   -0.256622363776011916E+05
    0.134933552876364402E+02    0.158289472227053918E+00   -0.256624522355523950E+05
    0.134557400324890519E+02    0.162967540052400134E+00   -0.256622718138254895E+05
    0.134744624957706414E+02    0.160431339843678050E+00   -0.256622696655436775E+05
    0.134386928473121117E+02    0.176110766698540006E+00   -0.256622212101157493E+05
    0.134306893969711858E+02    0.171744752649978127E+00   -0.256624103665727780E+05
    0.134131086343758845E+02    0.207808926892178392E+00   -0.256623272121047812E+05
    0.134651662931159937E+02    0.184897047714540130E+00   -0.256623249968307209E+05
    0.134923897928918031E+02    0.150319120696448066E+00   -0.256624431464702939E+05
    0.134425531990091862E+02    0.173613741853432396E+00   -0.256622184760105229E+05
    0.134689654284926732E+02    0.155990823016496971E+00   -0.256623160634681299E+05
    0.134778002363135680E+02    0.157445257716049836E+00   -0.256623029191612877E+05
    0.134160239635987040E+02    0.190939121948354940E+00   -0.256623167937301369E+05
    0.134389152018336571E+02    0.184976551251799459E+00   -0.256621591064862296E+05
    0.134122557924324433E+02    0.205476630445250635E+00   -0.256623155603337582E+05
    0.134490694602433720E+02    0.166167069221674069E+00   -0.256622728124786518E+05
    0.134158833391197341E+02    0.198368323409429337E+00   -0.256622749977444073E+05
    0.134520756931037422E+02    0.177282689611663630E+00   -0.256621559463375597E+05
    0.134450655804609021E+02    0.187127458076166403E+00   -0.256621656988977920E+05
    0.134450655804609021E+02    0.187127458076166403E+00   -0.256621656988977920E+05
    0.134661307503798966E+02    0.172842629823003385E+00   -0.256622072173295019E+05
    0.134492909503232347E+02    0.181518673059435087E+00   -0.256621538661267077E+05
    0.134492909503232347E+02    0.181518673059435087E+00   -0.256621538661267077E+05
    0.134796002023661732E+02    0.158846317157733841E+00   -0.256623039503148975E+05
    0.134127839621157783E+02    0.216708085735517614E+00   -0.256624522548057175E+05
    0.134645335721371833E+02    0.165890986590118417E+00   -0.256622110566152041E+05
    0.134833340846173311E+02    0.159057627394353446E+00   -0.256623318304421773E+05
    0.134928264441790411E+02    0.160980245119536625E+00   -0.256624613336266339E+05
    0.134141498632048428E+02    0.191471379581692996E+00   -0.256623383850728969E+05
    0.134718191198526220E+02    0.161048810555987715E+00   -0.256622571111613688E+05
    0.134718191198526220E+02    0.161048810555987715E+00   -0.256622571111613688E+05
    0.134518370784210610E+02    0.184054349731220507E+00   -0.256621750307471957E+05
    0.134721956376756893E+02    0.181238880742717878E+00   -0.256623741625972834E+05
    0.134441651205259731E+02    0.189059165859510686E+00   -0.256621758213836183E+05
    0.133989890555743045E+02    0.212368015837887336E+00   -0.256624549803517621E+05
    0.134614829529598978E+02    0.159432350942053380E+00   -0.256622936250285966E+05
    0.134539919129276946E+02    0.197355940438872474E+00   -0.256624147699955538E+05
    0.134317459227297036E+02    0.197085717781385256E+00   -0.256622101614925450E+05
    0.134133615153934791E+02    0.214110188220728220E+00   -0.256624063352476987E+05
    0.134575716787680655E+02    0.169784207839548340E+00   -0.256621851381787601E+05
    0.134834984625086101E+02    0.159429827475731117E+00   -0.256623329617646632E+05
    0.134016536445322885E+02    0.201119965416051011E+00   -0.256624428911413779E+05
    0.134314443708163402E+02    0.204178866287025584E+00   -0.256623019105330095E+05
    0.134856006615677604E+02    0.165654178066659413E+00   -0.256623836594188178E+05
    0.134345240474769838E+02    0.192964808432228963E+00   -0.256621824022538058E+05
    0.134345240474769838E+02    0.192964808432228963E+00   -0.256621824022538058E+05
    0.134417755290119771E+02    0.182176013175974455E+00   -0.256621566826796370E+05
    0.134501403031301976E+02    0.167903697794799717E+00   -0.256622360468795778E+05
    0.134224943443758544E+02    0.188741388908609559E+00   -0.256622554076606611E+05
    0.134607574096983473E+02    0.169321463831676677E+00   -0.256621878394212290E+05
    0.134227360822290169E+02    0.210319228935081343E+00   -0.256623656533952744E+05
    0.134070321494799298E+02    0.213284025310912062E+00   -0.256624045488961056E+05
    0.134500013460171814E+02    0.181350673804985402E+00   -0.256621550137235608E+05
    0.134430241836094702E+02    0.181474599935902314E+00   -0.256621552907917248E+05
    0.134910807283413359E+02    0.149735072896947208E+00   -0.256624362834236272E+05
    0.134442378462699352E+02    0.201323302604509563E+00   -0.256623662566511593E+05
    0.134042430866327535E+02    0.207087213626340638E+00   -0.256623869525875489E+05
    0.134853559763286377E+02    0.157862259135456512E+00   -0.256623521120590776E+05
    0.134266479262808165E+02    0.193300560388822179E+00   -0.256622028062136851E+05
    0.134521590006599290E+02    0.167420288086522345E+00   -0.256622288779659357E+05
    0.134521590006599290E+02    0.167420288086522345E+00   -0.256622288779659357E+05
    0.134481085328468311E+02    0.192623833354431340E+00   -0.256622426027447400E+05
    0.134812979454363262E+02    0.162573421013621155E+00   -0.256623128960013528E+05
    0.134562855638896917E+02    0.158299468718309161E+00   -0.256623573939082235E+05
    0.134397310589150827E+02    0.185979548842887199E+00   -0.256621571832386253E+05
    0.134370698727781228E+02    0.176297530350364939E+00   -0.256622347215719783E+05
    0.134370698727781228E+02    0.176297530350364939E+00   -0.256622347215719783E+05
    0.134467910867465505E+02    0.194274771393894097E+00   -0.256622560909552085E+05
    0.134930514737599143E+02    0.154043087349540420E+00   -0.256624384590897862E+05
    0.134439030306327147E+02    0.172855311149045648E+00   -0.256622169934778831E+05
    0.134696169886469868E+02    0.171838353442050118E+00   -0.256622311766181483E+05
    0.134379198602568941E+02    0.182665223728970094E+00   -0.256621699195176225E+05
    0.134789237231531427E+02    0.159554848704359292E+00   -0.256622967837337455E+05
    0.134603995734729320E+02    0.152340792898575522E+00   -0.256624572937791854E+05
    0.134645337090211825E+02    0.182239592203780026E+00   -0.256622735536216023E+05
    0.134797021221250866E+02    0.151477535833033111E+00   -0.256623700639057315E+05
    0.134884519893853358E+02    0.148694520161061466E+00   -0.256624293353532630E+05
    0.134514957767808223E+02    0.179465098529077827E+00   -0.256621549781073445E+05
    0.134514957767808223E+02    0.179465098529077827E+00   -0.256621549781073445E+05
    0.134839887644654883E+02    0.170372187298765965E+00   -0.256624090094758394E+05
    0.134723298732904908E+02    0.152392106563863344E+00   -0.256623651523358822E+05
    0.134107052932301762E+02    0.190110261833978417E+00   -0.256624141258637355E+05
    0.134295424380154511E+02    0.185336859609441545E+00   -0.256622117406245306E+05
    0.134168499566648585E+02    0.212629243406270513E+00   -0.256623868504399034E+05
    0.134661840421336265E+02    0.174679444732716987E+00   -0.256622161469660350E+05
    0.134044931039410855E+02    0.194609827096775018E+00   -0.256624648996254364E+05
    0.134715958315038105E+02    0.151720597569359045E+00   -0.256623804926849225E+05
    0.134881413314256093E+02    0.160168220117914650E+00   -0.256623862294176761E+05
    0.134397554983543976E+02    0.190121424850541315E+00   -0.256621707406502028E+05
    0.134814588193987568E+02    0.170338929933084721E+00   -0.256623660264308492E+05
    0.134744459398107193E+02    0.153882066588536731E+00   -0.256623365286330954E+05
    0.134826885244059103E+02    0.166751178932464938E+00   -0.256623497209568268E+05
    0.134162625403173550E+02    0.206428072923860978E+00   -0.256623047981281888E+05
    0.134417029903391736E+02    0.202193752180448466E+00   -0.256623547437509696E+05
    0.134445257804350309E+02    0.170113026019884789E+00   -0.256622506776008850E+05
    0.134445257804350309E+02    0.170113026019884789E+00   -0.256622506776008850E+05
    0.134462472558677053E+02    0.174725941355607733E+00   -0.256621813444932632E+05
    0.134142025332321850E+02    0.196823039486207579E+00   -0.256622960524193913E+05
    0.134482828786518702E+02    0.185948854321654339E+00   -0.256621703902494482E+05
    0.134507835750466427E+02    0.179761908026241313E+00   -0.256621539702309165E+05
    0.134361758485916418E+02    0.191732951628046988E+00   -0.256621760968831550E+05
    0.134742815823531394E+02    0.167798010261934943E+00   -0.256622574477448761E+05
    0.134928808468645460E+02    0.152105841762845362E+00   -0.256624400346866350E+05
    0.134583896777965499E+02    0.153567214799015139E+00   -0.256624488382721138E+05
    0.134921807277464474E+02    0.157577362418847206E+00   -0.256624320423564568E+05
    0.134453976553096730E+02    0.159772584837343912E+00   -0.256624668905868421E+05
    0.134598616124705295E+02    0.169238940684953987E+00   -0.256621877392384049E+05
    0.134820954804805044E+02    0.173356882344107122E+00   -0.256624181713382750E+05
    0.134798877498996532E+02    0.175860101236335720E+00   -0.256624181727017494E+05
    0.134116771772771965E+02    0.212526558381270630E+00   -0.256623828434624920E+05
    0.134444044127804432E+02    0.170848376754115405E+00   -0.256622405112455381E+05
    0.134588977203668776E+02    0.173545038597184453E+00   -0.256621720507417231E+05
    0.134119638178488483E+02    0.210436697547537493E+00   -0.256623566961433462E+05
    0.134160171266756052E+02    0.196605272868295072E+00   -0.256622777695150144E+05
    0.134044213609861647E+02    0.205712878315099323E+00   -0.256623844603363068E+05
    0.134626057801322663E+02    0.174612221466857315E+00   -0.256621895760207371E+05
    0.134626057801322663E+02    0.174612221466857315E+00   -0.256621895760207371E+05
    0.134119020765061325E+02    0.217895793616952355E+00   -0.256624735923535263E+05
    0.134322896661870637E+02    0.181867596069205051E+00   -0.256622168976373650E+05
    0.134324208019555975E+02    0.210091974679021409E+00   -0.256624373411163760E+05
    0.134465958910910981E+02    0.172716838498669090E+00   -0.256621991636644379E+05
    0.134728868594843298E+02    0.154950947656544963E+00   -0.256623229759642672E+05
    0.134641939148973062E+02    0.173882972428256732E+00   -0.256621973308005145E+05
    0.134641939148973062E+02    0.173882972428256732E+00   -0.256621973308005145E+05
    0.134380837568887568E+02    0.180851628394598396E+00   -0.256621797119033217E+05
    0.134087763243514591E+02    0.194474368636146366E+00   -0.256623895409515098E+05
    0.134349918348402895E+02    0.176679272376302154E+00   -0.256622520131106721E+05
    0.134253429143187368E+02    0.177368103450358444E+00   -0.256623803366813263E+05
    0.134071634137936719E+02    0.206300053776274306E+00   -0.256623571063474265E+05
    0.134077639931464141E+02    0.209185894649648124E+00   -0.256623650640889755E+05
    0.134471849107536272E+02    0.185708995690976764E+00   -0.256621644483441742E+05
    0.134592974227539308E+02    0.160834379054817456E+00   -0.256622833418178307E+05
    0.134592974227539308E+02    0.160834379054817456E+00   -0.256622833418178307E+05
    0.134642273055056876E+02    0.176863344131664463E+00   -0.256622131917764200E+05
    0.134141549184304765E+02    0.190071554547032950E+00   -0.256623551691584216E+05
    0.134538305711295436E+02    0.196840951931156249E+00   -0.256623992627474618E+05
    0.134676679798747472E+02    0.158975132742279063E+00   -0.256622766555080016E+05
    0.134709008820002936E+02    0.186094032165598694E+00   -0.256624516705623682E+05
    0.134645534324092981E+02    0.187087060807084704E+00   -0.256623568965927261E+05
    0.134617967805467522E+02    0.157333236723469272E+00   -0.256623295129076068E+05
    0.134854360336734693E+02    0.147254668100679775E+00   -0.256624374300695454E+05
    0.134044465361623271E+02    0.196940182353097376E+00   -0.256624358213342675E+05
    0.134669484798857226E+02    0.165802797647379235E+00   -0.256622159771479965E+05
    0.134669484798857226E+02    0.165802797647379235E+00   -0.256622159771479965E+05
    0.134326748687960507E+02    0.182428218614274884E+00   -0.256622080486007435E+05
    0.134193076467598758E+02    0.203825219863144613E+00   -0.256622745859124952E+05
    0.134360957655033264E+02    0.209426534489982052E+00   -0.256624645730606790E+05
    0.134315867082746756E+02    0.195059134535767897E+00   -0.256621950283210172E+05
    0.134191471494833880E+02    0.189688019989146167E+00   -0.256622872219057645E+05
    0.134852418250162955E+02    0.162803993670365271E+00   -0.256623593911608514E+05
    0.134753734729488599E+02    0.181893058578543348E+00   -0.256624471587145963E+05
    0.134653242913906794E+02    0.167991104019481308E+00   -0.256622025101530053E+05
    0.134410477606418794E+02    0.179541710978171898E+00   -0.256621715476373574E+05
    0.134410477606418794E+02    0.179541710978171898E+00   -0.256621715476373574E+05
    0.134828811551227208E+02    0.163906735992050218E+00   -0.256623346768472984E+05
    0.134216599474117544E+02    0.190061920846635479E+00   -0.256622541378198075E+05
    0.134751726928930680E+02    0.148496579302145881E+00   -0.256624288121873251E+05
    0.134848574611949417E+02    0.169850378206056640E+00   -0.256624175006775040E+05
    0.134326733623990968E+02    0.190054362864543996E+00   -0.256621762230410022E+05
    0.134477003827560200E+02    0.185788070895866492E+00   -0.256621668672319647E+05
    0.134842371815733593E+02    0.158360775005044946E+00   -0.256623409882140222E+05
    0.134686574053826362E+02    0.185353475253300648E+00   -0.256623922531455391E+05
    0.134676183978692201E+02    0.165472910258143868E+00   -0.256622193874269178E+05
    0.134676183978692201E+02    0.165472910258143868E+00   -0.256622193874269178E+05
    0.134696060021919255E+02    0.185669515656204653E+00   -0.256624166394004096E+05
    0.134805829964170965E+02    0.176796351144963254E+00   -0.256624486853262279E+05
    0.134853159331226422E+02    0.146253809704244730E+00   -0.256624526264036758E+05
    0.134126853787771232E+02    0.206838207585195971E+00   -0.256623214476045723E+05
    0.134370601829932230E+02    0.184692945577910439E+00   -0.256621660387197335E+05
    0.134370601829932230E+02    0.184692945577910439E+00   -0.256621660387197335E+05
    0.134503035801887076E+02    0.180264512096500767E+00   -0.256621536862397516E+05
    0.134569403905102583E+02    0.193338295352557615E+00   -0.256623668635069807E+05
    0.134511129918569612E+02    0.193282917556191591E+00   -0.256622851791425965E+05
    0.134716130310800004E+02    0.177789103916493496E+00   -0.256623094371739862E+05
    0.134639283948241157E+02    0.153719383552749306E+00   -0.256623881382296531E+05
    0.134265173295730929E+02    0.175792740040506879E+00   -0.256623929608139042E+05
    0.134336825770371746E+02    0.209746102988509431E+00   -0.256624429207033936E+05
    0.134641660171688944E+02    0.191953196295716083E+00   -0.256624621554591431E+05
    0.134426522362131990E+02    0.190707132651870448E+00   -0.256621833533101999E+05
    0.134239898250706151E+02    0.205493803704716427E+00   -0.256622917349995769E+05
    0.134826345168187167E+02    0.149012528560175050E+00   -0.256624076735455274E+05
    0.134247364762813497E+02    0.200450759894605562E+00   -0.256622378763608831E+05
    0.134637080951265897E+02    0.158512808203771949E+00   -0.256622969331929999E+05
    0.134511060110555807E+02    0.158318911175674759E+00   -0.256624191929982153E+05
    0.134107636209672965E+02    0.192536827660861137E+00   -0.256623794756329298E+05
    0.134397608747631772E+02    0.198913996499461732E+00   -0.256622709439036371E+05
    0.134252390443504321E+02    0.189812379915862500E+00   -0.256622208622696053E+05
    0.134182166369474665E+02    0.185946675346955331E+00   -0.256623473555398850E+05
    0.134687652012734222E+02    0.165203494690329161E+00   -0.256622242067463048E+05
    0.134391988571556844E+02    0.173764372070267958E+00   -0.256622485553736115E+05
    0.134169073299154071E+02    0.201531340181557966E+00   -0.256622711216196258E+05
    0.134731472621039963E+02    0.170382943898695988E+00   -0.256622575167671857E+05
    0.134822426175531760E+02    0.166363626089762046E+00   -0.256623406296076828E+05
    0.134943655952111570E+02    0.149965643438333046E+00   -0.256624635199209188E+05
    0.134786397787113739E+02    0.165040383765050813E+00   -0.256622913767355021E+05
    0.134229721642312754E+02    0.176308939749951932E+00   -0.256624486293549489E+05
    0.134255464841650642E+02    0.201083904469544689E+00   -0.256622427687845629E+05
    0.134432252799887824E+02    0.178425703264191104E+00   -0.256621681196067439E+05
    0.134432252799887824E+02    0.178425703264191104E+00   -0.256621681196067439E+05
    0.134153868903411677E+02    0.183404658289497757E+00   -0.256624440519251657E+05
    0.134280443900269493E+02    0.187902823726262214E+00   -0.256622076485272992E+05
    0.134280443900269493E+02    0.187902823726262214E+00   -0.256622076485272992E+05
    0.134409485166647240E+02    0.190941994141774235E+00   -0.256621791797529331E+05
    0.134320611309169529E+02    0.191892590904402777E+00   -0.256621807923062115E+05
    0.134208626326933853E+02    0.210488178372061352E+00   -0.256623610743707686E+05
    0.134416571864309873E+02    0.198678182856945412E+00   -0.256622832396536942E+05
    0.134575489308648404E+02    0.172893057549638518E+00   -0.256621705030333542E+05
    0.134331659865275643E+02    0.188961149662120992E+00   -0.256621743744134219E+05
    0.134331659865275643E+02    0.188961149662120992E+00   -0.256621743744134219E+05
    0.133998175201257670E+02    0.211757149389284249E+00   -0.256624441743986572E+05
    0.134627633313217476E+02    0.190012735206969985E+00   -0.256623889707380404E+05
    0.134195941836056640E+02    0.199393728849662277E+00   -0.256622493099278363E+05
    0.134690011304756183E+02    0.185372902879024359E+00   -0.256623989248638682E+05
    0.134435067637890597E+02    0.167168961512710962E+00   -0.256623151290521055E+05
    0.134179230656948221E+02    0.184685813327632314E+00   -0.256623725317624085E+05
    0.134182411626121496E+02    0.196982321486608380E+00   -0.256622566996882997E+05
    0.134521516453126839E+02    0.179145192388916685E+00   -0.256621559848588222E+05
    0.134947624654561071E+02    0.152295199319393504E+00   -0.256624606649277594E+05
    0.134401071573287911E+02    0.181448546603173722E+00   -0.256621653669755651E+05
    0.134089514393884794E+02    0.198365148339180619E+00   -0.256623525965895060E+05
    0.134571267188763244E+02    0.188894344865854102E+00   -0.256622818182173796E+05
    0.134809828476325055E+02    0.149394136819497730E+00   -0.256624008157766439E+05
    0.134386760588402758E+02    0.195992243275907613E+00   -0.256622208525547685E+05
    0.134513920922191588E+02    0.186358365503484585E+00   -0.256621915536712004E+05
    0.134020489145396500E+02    0.198638201030122696E+00   -0.256624598556964957E+05
    0.134650379445694064E+02    0.150670002327970509E+00   -0.256624506881901507E+05
    0.134589713966503144E+02    0.190405177517287805E+00   -0.256623356690654655E+05
    0.134075333318254781E+02    0.215712864215463318E+00   -0.256624339046259556E+05
    0.134225979016905157E+02    0.197037638198112208E+00   -0.256622277396005156E+05
    0.134719528720096431E+02    0.179550711866196866E+00   -0.256623409117161900E+05
    0.134378654304851572E+02    0.173639389755459200E+00   -0.256622654577534740E+05
    0.134855593922628021E+02    0.156103065007564823E+00   -0.256623581012500945E+05
    0.134552602131262677E+02    0.174104506193917152E+00   -0.256621647993170118E+05
    0.134648781002039168E+02    0.183396336836008006E+00   -0.256622954924999685E+05
    0.134348880149931134E+02    0.203725091307768835E+00   -0.256623184107143607E+05
    0.134582126557844042E+02    0.172253217858603008E+00   -0.256621732546703970E+05
    0.134582126557844042E+02    0.172253217858603008E+00   -0.256621732546703970E+05
    0.134925590139829268E+02    0.146921920235257686E+00   -0.256624708868666930E+05
    0.134610323861120236E+02    0.169936857122387069E+00   -0.256621854670567118E+05
    0.134080629640078577E+02    0.208823201636730682E+00   -0.256623608349524620E+05
    0.134233839387246405E+02    0.179079257569321332E+00   -0.256623801420465497E+05
    0.134263312438683862E+02    0.197672606959543501E+00   -0.256622166810446761E+05
    0.134098933972076999E+02    0.212136828325985460E+00   -0.256623817219235352E+05
    0.133995603455511834E+02    0.201165793287267747E+00   -0.256624787692302416E+05
    0.134732259629924744E+02    0.179800401057519543E+00   -0.256623662982083115E+05
    0.134904308809330189E+02    0.154849814483850073E+00   -0.256624077891697780E+05
    0.134664899714808310E+02    0.186027290424713276E+00   -0.256623680260594592E+05
    0.134528824352160932E+02    0.177959509728327692E+00   -0.256621566456928122E+05
    0.134611714128772331E+02    0.176033253824256997E+00   -0.256621857499473808E+05
    0.134496965283809349E+02    0.196375225708867340E+00   -0.256623280159951973E+05
    0.134569853770412617E+02    0.154616100302189530E+00   -0.256624385050339515E+05
    0.134453955710799633E+02    0.166958761163478686E+00   -0.256622966354638957E+05
    0.134314721471633387E+02    0.178437918902509179E+00   -0.256622685501978522E+05
    0.134314721471633387E+02    0.178437918902509179E+00   -0.256622685501978522E+05
    0.134706934422535074E+02    0.173693048233420161E+00   -0.256622535622004980E+05
    0.134670386662951831E+02    0.161190170894046164E+00   -0.256622514912642255E+05
    0.134613883493681019E+02    0.182366019302207388E+00   -0.256622376228541943E+05
    0.134450992725646312E+02    0.163232643454666787E+00   -0.256623809986589476E+05
    0.134181594902008978E+02    0.193366622103423452E+00   -0.256622702862789956E+05
    0.134328551365156201E+02    0.200896186732234583E+00   -0.256622575107999146E+05
    0.134520190649266702E+02    0.184455594835524095E+00   -0.256621790558996581E+05
    0.134267013004512457E+02    0.207009224266078040E+00   -0.256623248106191859E+05
    0.134614197706677690E+02    0.194504789025475577E+00   -0.256624755991356360E+05
    0.134577758722019087E+02    0.179879506016162399E+00   -0.256621834224641680E+05
    0.134577758722019087E+02    0.179879506016162399E+00   -0.256621834224641680E+05
    0.134490284144773113E+02    0.160492940159214698E+00   -0.256623927658399625E+05
    0.134239095299764415E+02    0.190475229770278337E+00   -0.256622291245450506E+05
    0.134239095299764415E+02    0.190475229770278337E+00   -0.256622291245450506E+05
    0.134791008704530704E+02    0.177081224280802363E+00   -0.256624248681571225E+05
    0.134553167828508524E+02    0.193328893856753115E+00   -0.256623418370309446E+05
    0.134553167828508524E+02    0.193328893856753115E+00   -0.256623418370309446E+05
    0.134560336485936460E+02    0.193256596444862094E+00   -0.256623509990657585E+05
    0.134500773724269447E+02    0.178755920120786060E+00   -0.256621531600575508E+05
    0.134387119262997992E+02    0.188162879276440570E+00   -0.256621617632361776E+05
    0.134032907276027125E+02    0.213187098244314033E+00   -0.256624235874370097E+05
    0.134784909546898426E+02    0.177285646109694273E+00   -0.256624169261711941E+05
    0.134462234743433520E+02    0.202555313696760220E+00   -0.256624245579196868E+05
    0.134132870512156099E+02    0.186704856743286352E+00   -0.256624221772104574E+05
    0.134819600773898003E+02    0.151490520006390433E+00   -0.256623737720577810E+05
    0.134914477479109625E+02    0.160259261711725692E+00   -0.256624338972683072E+05
    0.134337557313157596E+02    0.181196652779634482E+00   -0.256622099069734650E+05
    0.134525365897618858E+02    0.181912851633797279E+00   -0.256621656792534704E+05
    0.134522360322909691E+02    0.180049384167437238E+00   -0.256621577897626994E+05
    0.134522360322909691E+02    0.180049384167437238E+00   -0.256621577897626994E+05
